{"format": "vision_only_vla", "num_params": 28004, "weights": {"conv1_weight": [0.2642305791378021, 0.29420220851898193, 0.1682543009519577, 0.338567852973938, 0.1177394762635231, 0.07031723856925964, -0.12381599843502045, 0.1076703891158104, 0.21263857185840607, -0.10636153072118759, 0.17060956358909607, 0.08779580891132355, 0.15436087548732758, 0.07055402547121048, 0.03515321761369705, -0.24429349601268768, 0.06741660088300705, 0.07723202556371689, -0.09630428999662399, 0.020932096987962723, -0.08832456171512604, 0.029441211372613907, -0.049174968153238297, 0.015210951678454876, -0.2807641327381134, -0.12038767337799072, -0.03278656676411629, -0.12733857333660126, -0.023611638695001602, -0.20159167051315308, 0.09093542397022247, -0.18666696548461914, 0.07892724871635437, -0.012844742275774479, -0.0890536680817604, 0.07499497383832932, 0.019668931141495705, 0.12532803416252136, -0.006495068781077862, -0.08204285055398941, 0.02124430425465107, -0.08106532692909241, 0.052754443138837814, 0.13382793962955475, 0.07668527215719223, -0.07103623449802399, 0.10937052220106125, 0.038189925253391266, 0.08042832463979721, -0.10929478704929352, -0.17590771615505219, -0.07105953246355057, -0.13318081200122833, 0.15301765501499176, 0.2532597780227661, 0.06085430085659027, -0.017121892422437668, 0.18438982963562012, 0.0626688301563263, -0.3684644103050232, -0.04031689837574959, -0.11410202085971832, -0.19215600192546844, 0.22111402451992035, 0.09903141111135483, -0.0037162969820201397, 0.2640291154384613, 0.03834526985883713, -0.20337827503681183, 0.043453238904476166, 0.0934399962425232, -0.07596966624259949, 0.23620225489139557, -0.05772153660655022, -0.1353352963924408, 0.08921825140714645, -0.04081898182630539, -0.259674072265625, 0.021792545914649963, 0.017279576510190964, -0.18826159834861755, -0.016374457627534866, 0.31946393847465515, 0.4647596478462219, -0.06695383787155151, 0.07597692310810089, 0.3292466402053833, -0.41820332407951355, -0.13189050555229187, -0.03339292109012604, -0.12262672185897827, 0.01867702417075634, 0.3367539048194885, -0.16357848048210144, -0.1586463451385498, 0.042762525379657745, -0.3219892084598541, -0.3115557134151459, -0.27020263671875, -0.008588436990976334, 0.1377377212047577, 0.38227590918540955, -0.1149493008852005, -0.06272230297327042, 0.15836413204669952, -0.4775632321834564, -0.2966057062149048, -0.25674372911453247, -5.066254467919944e-41, -5.129593158507425e-41, -4.977272015435318e-41, 6.224287518837972e-41, 5.062050572526969e-41, 4.981616040674725e-41, 5.019871488750792e-41, 4.917856960547946e-41, 5.242117425192708e-41, 5.024635903529497e-41, -5.261034954461093e-41, -4.935653451044871e-41, 5.399903632275683e-41, -5.072700440855838e-41, 5.388272855021787e-41, -5.116561082789205e-41, 5.093299528281413e-41, 4.905525534061887e-41, 5.142905493918511e-41, -4.923041764865947e-41, 4.916595791930053e-41, 5.051120444505236e-41, -5.027578630304579e-41, 5.320450009348465e-41, 5.054343430973183e-41, 5.09484095659217e-41, 5.673997611897617e-41, -0.07846362143754959, -0.20335620641708374, -0.25077587366104126, 0.0420820377767086, -0.07943505048751831, 0.03988834470510483, -0.21446336805820465, 0.06693461537361145, -0.10912730544805527, -0.06941483914852142, -0.02566724270582199, 0.0227303896099329, 0.11317329108715057, 0.11492123454809189, -0.183528870344162, -0.015580661594867706, -0.1322559267282486, -0.0398695208132267, -0.08872713148593903, 0.18771284818649292, -0.11994826793670654, 0.15190084278583527, 0.099960096180439, 0.09890570491552353, -0.062185969203710556, 0.20129279792308807, 0.09953920543193817, 0.07471033185720444, -0.1341385692358017, 0.08922208845615387, -0.04858144000172615, -0.09739236533641815, 0.12912891805171967, 0.024214565753936768, -0.13226129114627838, -0.12257156521081924, -0.004902857821434736, 0.09633810073137283, -0.048195965588092804, -0.13646501302719116, -0.08804050832986832, -0.15660050511360168, 0.038485895842313766, 0.10737372189760208, -0.19960753619670868, 0.13286550343036652, 0.17129072546958923, 0.109731525182724, -0.0026628663763403893, 0.15725994110107422, 0.1586795151233673, 0.13819244503974915, 0.023377560079097748, 0.008440831676125526, 0.03945285826921463, -0.32797619700431824, -0.2613201141357422, 0.312925785779953, 0.326421856880188, -0.006634225137531757, -0.061524566262960434, 0.011314738541841507, -0.03393847122788429, 0.0424896739423275, -0.1528436541557312, -0.262629896402359, 0.10675286501646042, 0.3043553829193115, 0.10525420308113098, -0.03897927328944206, -0.05151663348078728, -0.06994093954563141, -0.11405650526285172, -0.226053386926651, -0.0772043764591217, 0.2709057331085205, 0.21034297347068787, -0.1368352323770523, -0.08312536776065826, 0.007023597601801157, 0.15159837901592255, -0.11963880062103271, 0.032124001532793045, 0.2527925968170166, -0.7072802186012268, 0.0886012613773346, 0.2758024036884308, -0.17424394190311432, 0.046387627720832825, -0.269110769033432, 0.020100675523281097, 0.1294889748096466, 0.2810436189174652, -0.4357464909553528, -0.008885628543794155, 0.1740880012512207, -0.23968622088432312, -0.12962692975997925, -0.27467048168182373, 0.23981307446956635, 0.21610315144062042, 0.3268166184425354, -0.25370970368385315, 0.07848753780126572, 0.17868949472904205, -0.17558304965496063, -0.14992576837539673, -0.49793297052383423, -0.12211456894874573, -0.05762865021824837, -0.14324256777763367, -0.12029856443405151, 0.05436263978481293, -0.02094927243888378, 0.11685092002153397, -0.020696233958005905, -0.08103416115045547, -0.04903072863817215, -0.10063398629426956, -0.08449947834014893, -0.17545022070407867, 0.09153760224580765, -0.11915889382362366, 0.09206361323595047, 0.08301164954900742, 0.11902639269828796, -0.15015538036823273, 0.11258501559495926, -0.10118620842695236, 0.0493222214281559, 0.1632259041070938, -0.015145915560424328, 0.0056158145889639854, -0.0265521127730608, -0.1360301375389099, 0.07285124063491821, 0.0006811211351305246, 0.04678988456726074, 0.07236310839653015, 0.06218043342232704, -0.012426944449543953, 0.03345591574907303, 0.034823667258024216, 0.04793831333518028, 0.0743318498134613, 0.11782924830913544, 0.06814044713973999, 0.1291721910238266, 0.08572230488061905, 0.06255481392145157, 0.14797957241535187, 0.08381351828575134, 0.14281339943408966, 0.01508292369544506, -0.052508093416690826, -0.06426522135734558, -0.0661965012550354, -0.10001732409000397, -0.10958469659090042, -0.037272267043590546, -0.08287589997053146, -0.10699381679296494, -0.06276759505271912, -0.020902255550026894, 0.12788492441177368, 0.11795417219400406, 0.021247301250696182, -0.1642834097146988, -0.17714045941829681, -0.10163049399852753, 0.12241695076227188, -0.16396966576576233, -0.026587381958961487, -0.052313853055238724, -0.027789900079369545, 0.07367977499961853, -0.08544181287288666, -0.29908087849617004, -0.05693861469626427, 0.038549166172742844, 0.032837603241205215, 0.11731383949518204, 0.21350133419036865, 0.004269744735211134, 0.03847426548600197, -0.17636851966381073, -0.0819544643163681, 0.10453316569328308, 0.06579488515853882, -0.39261341094970703, -0.278572678565979, -0.3803718090057373, -0.05300304666161537, -0.04138357937335968, -0.20089595019817352, 0.45348504185676575, 0.31453192234039307, 0.23965564370155334, -0.2522820234298706, -0.13914814591407776, -0.31588953733444214, -0.06371711194515228, -0.09166157990694046, -0.3055906593799591, 0.09836103022098541, -0.04418228566646576, -0.0845072790980339, -0.2503223419189453, -0.2553442716598511, -0.41071173548698425, 0.07270128279924393, 0.1243196651339531, -0.2131006419658661, 0.44530627131462097, 0.38788941502571106, 0.33635950088500977, 0.17302219569683075, 0.17895884811878204, 0.15529879927635193, -0.1293025016784668, 0.04353666305541992, 0.16126114130020142, -0.03640150651335716, -0.11321505904197693, 0.1494969129562378, -0.05578212812542915, -0.09824012219905853, -0.14689838886260986, 0.0006062889588065445, 0.07656308263540268, 0.058662962168455124, -0.0020176884718239307, -0.15785133838653564, -0.1825278401374817, 0.08418259769678116, 0.2238263338804245, 0.16614125669002533, -0.038849782198667526, 0.029937639832496643, -0.07127491384744644, -0.040215302258729935, 0.07023819535970688, 0.1354113221168518, 0.2454875260591507, -0.09230130165815353, 0.17675089836120605, -0.07680279016494751, 0.09577581286430359, 0.18547101318836212, 0.0461592860519886, 0.1665487438440323, -0.1117549017071724, -0.055627014487981796, 0.09849248081445694, -0.037587154656648636, -0.05670083314180374, -0.09002938866615295, 0.11672669649124146, 0.0715353712439537, 0.034445758908987045, -0.10953830927610397, -0.07901669293642044, 0.05939030274748802, 0.09314381331205368, -0.03822532668709755, -0.014884463511407375, 0.15755708515644073, 0.0661601722240448, 0.04009144380688667, -0.01051948219537735, -0.3465956747531891, 0.004429004155099392, 0.2609184980392456, 0.04483085125684738, -0.02220008708536625, -0.23659853637218475, -0.2495376467704773, 0.3173770606517792, 0.33697906136512756, -0.2575679421424866, -0.09502158313989639, 0.2070186585187912, -0.04984398931264877, -0.30552706122398376, -0.4792892038822174, -0.42116016149520874, -0.11143134534358978, -0.06163763999938965, 0.01563476026058197, 0.22540174424648285, 0.29073429107666016, 0.19421124458312988, -0.15172810852527618, -0.2973097264766693, -0.09123678505420685, 0.2257603406906128, 0.19664326310157776], "conv1_bias": [-0.1491207629442215, 0.07848890125751495, -0.0241477619856596, 0.16045592725276947, 5.046636289419396e-41, -0.02780601754784584, -0.09389006346464157, -0.00770328426733613, -0.07314344495534897, 0.12683524191379547, 0.04175474867224693, 0.029315467923879623, 0.22701790928840637, -0.12292446196079254, -0.1612911969423294, 0.24090014398097992], "conv2_weight": [0.0805998146533966, 0.09062910825014114, 0.03327323868870735, -0.0377846322953701, -0.027759099379181862, 0.03727651387453079, -0.028730036690831184, 0.04481317847967148, 0.04934998229146004, 0.03838270902633667, 0.026792021468281746, -0.021711569279432297, -0.016199598088860512, 0.018951350823044777, 0.06164664030075073, -0.08350820094347, 0.027141284197568893, -0.014219106175005436, -0.3974851071834564, -0.5216860771179199, -0.2580386996269226, -0.3529186546802521, -0.504260241985321, -0.09434353560209274, -0.48661869764328003, -0.23826071619987488, -0.1710890531539917, 0.06693180650472641, 0.06777946650981903, 0.02150791883468628, 0.03805823251605034, 0.07735979557037354, 0.039050474762916565, 0.03978718817234039, 0.03993171080946922, 0.010800137184560299, 5.799974343840418e-41, -5.446566871137699e-41, -5.816229406026586e-41, -5.664749042033073e-41, 5.09259887904925e-41, 4.936634359969898e-41, 4.939156697205683e-41, -5.150612635472298e-41, 5.630277099810683e-41, 0.044856440275907516, 0.010545692406594753, 0.0238654762506485, 0.062377601861953735, 0.08131012320518494, 0.03356930986046791, -0.016123665496706963, 0.012966525740921497, 0.0035508142318576574, 0.07951263338327408, 0.0879141166806221, 0.09441216289997101, 0.1059647873044014, 0.05897641181945801, 0.05973464250564575, 0.0691276416182518, 0.08036906272172928, 0.0752907395362854, 0.04754961282014847, 0.03101482428610325, 0.03152301907539368, 0.0562276616692543, -0.003020762000232935, 0.06557666510343552, -0.131596177816391, -0.007413906045258045, 0.03950775787234306, 0.15348714590072632, 0.2845742404460907, 0.2134166806936264, 0.2699918746948242, 0.44820794463157654, 0.36391934752464294, 0.3144020140171051, 0.44779494404792786, 0.25327903032302856, -0.007748798001557589, 0.026129133999347687, 0.007493310607969761, -0.04639212787151337, 0.0426163375377655, 0.013573403470218182, -0.041711606085300446, -0.036108534783124924, 0.0024015011731535196, -0.039089031517505646, 0.0022087697871029377, 0.025086792185902596, -0.06769371032714844, -0.02726460061967373, 0.015348011627793312, -0.10734253376722336, -0.052408959716558456, -0.004231178667396307, 0.07295649498701096, 0.08543197810649872, -0.0006523546762764454, 0.015833642333745956, 0.05940323323011398, 0.011559766717255116, 0.03424443304538727, 0.00953956600278616, -0.013332276605069637, 0.09215932339429855, 0.09523254632949829, 0.04602161422371864, 0.09894265979528427, 0.10812051594257355, 0.07052875310182571, -0.008752520196139812, 0.030264949426054955, 0.04008735716342926, 0.0623331293463707, 0.050766315311193466, 0.03488991782069206, 0.06676893681287766, 0.04751083627343178, 0.05127314105629921, 0.04344642162322998, 0.03116501495242119, 0.04717003554105759, 0.07332971692085266, 0.04216094687581062, 0.036489423364400864, 0.038185965269804, 0.04841507226228714, -0.0005666851648129523, 0.050153471529483795, 0.01157701388001442, 0.05294855684041977, 0.09292957186698914, 0.08626923710107803, 0.03405158594250679, 0.06181379035115242, 0.09553254395723343, 0.051336463540792465, 0.047520045191049576, 0.07031644880771637, 0.06629633903503418, 0.005197117570787668, 0.09654481709003448, 0.026771316304802895, -0.026286091655492783, 0.0064743896946311, -0.012982486747205257, 0.0023556496016681194, 0.05953975021839142, 0.05468856543302536, 0.015863103792071342, -0.04753199219703674, -0.016890155151486397, -0.017249494791030884, -0.0389426052570343, -0.020075276494026184, -0.038030438125133514, 0.05401381105184555, 0.08484846353530884, -0.25880181789398193, -0.3147214353084564, -0.18527568876743317, -0.2278280407190323, -0.32783278822898865, -0.11012579500675201, -0.2772883176803589, -0.19448243081569672, -0.055100228637456894, 0.07289623469114304, 0.05742209777235985, 0.039005640894174576, 0.005771454889327288, 0.05049549415707588, 0.040336672216653824, 0.038757700473070145, 0.0471489280462265, 0.029385829344391823, 5.106051344306768e-41, -5.597486715745482e-41, -5.370616494371294e-41, 5.446426741291267e-41, 5.615283206242407e-41, -5.467306088409706e-41, -5.181581331533876e-41, -5.310921179791057e-41, -5.11628082309634e-41, -0.001824108068831265, -0.04236019402742386, -0.014469032175838947, 0.04159335419535637, -0.01988540217280388, 0.05615922808647156, 0.007994076237082481, -0.03091767430305481, -0.014799747616052628, 0.055267032235860825, 0.01244629267603159, 0.013951251283288002, 0.03485595062375069, 0.08244383335113525, 0.02278199978172779, 0.08241979032754898, 0.05118391290307045, 0.035878270864486694, 0.05928601324558258, 0.002973825903609395, 0.018109453842043877, 0.06195196136832237, 0.038295187056064606, -0.015190315432846546, -0.09095067530870438, -0.04827108606696129, 0.028481537476181984, 0.04788761958479881, 0.12410780042409897, 0.07504512369632721, 0.13150352239608765, 0.2755663990974426, 0.24416115880012512, 0.18449293076992035, 0.2896884083747864, 0.16001933813095093, 0.019879590719938278, -0.022293059155344963, 0.057188358157873154, -0.03206503391265869, -0.0010725175961852074, -0.02996543049812317, -0.04084518179297447, 0.027504028752446175, 0.008546078577637672, -0.06887102127075195, -0.035061903297901154, -0.01579182781279087, -0.07962140440940857, -0.055897314101457596, -0.031243538483977318, -0.11569740623235703, -0.06807146221399307, -0.03096863627433777, 0.06753682345151901, 0.029110368341207504, 0.0636133924126625, 0.03376395255327225, 0.058562085032463074, 0.05269420146942139, 0.05341964215040207, -0.014154140837490559, 0.07108093798160553, 0.09457004815340042, 0.05871095508337021, 0.031212998554110527, 0.021238138899207115, 0.08300542086362839, 0.0005837410571984947, -0.001551902387291193, 0.0520402230322361, 0.028057051822543144, 0.048474881798028946, 0.03538902848958969, 0.015368151478469372, 0.07376797497272491, 0.0017722032498568296, 0.04913890361785889, 0.05832698196172714, 0.04107893630862236, -0.018121784552931786, 0.023906556889414787, 0.014111354947090149, 0.005313022993505001, 0.039622750133275986, 0.04127264395356178, 0.03787919878959656, 0.016729962080717087, 0.04337536543607712, 0.018183590844273567, 0.03124173730611801, 0.03409234806895256, 0.014007234014570713, 0.08723564445972443, 0.05699430778622627, 0.016260839998722076, 0.05850440636277199, 0.07737018167972565, 0.0752968043088913, 0.05573079735040665, 0.016602003946900368, 0.0814376100897789, 0.17014922201633453, 0.10555236041545868, 0.09788022935390472, 0.09899488836526871, 0.07688640803098679, -0.005718381609767675, 0.002019793028011918, 0.06444445997476578, -0.0296629648655653, -0.028590964153409004, 0.04860800504684448, 0.018754303455352783, 0.03376222029328346, -0.026284920051693916, -0.0025363960303366184, 0.1168111190199852, 0.2658049464225769, 0.1694612056016922, 0.17222867906093597, 0.24704153835773468, 0.20828606188297272, 0.11675287783145905, 0.19301940500736237, 0.12207242846488953, 0.15034517645835876, 0.13937939703464508, 0.1993180811405182, 0.18578755855560303, 0.15714623034000397, 0.189662903547287, 0.2087763547897339, 0.183480367064476, 0.22091546654701233, -5.315405334876896e-41, -5.560912825826604e-41, 6.24278465856706e-41, 5.029260188461768e-41, -5.242397684885573e-41, -6.02880638306466e-41, 5.786241618890035e-41, -5.926371465322516e-41, 5.99209236329935e-41, -0.001978501444682479, 0.05990918353199959, 0.048978291451931, -0.06706252694129944, -0.05685018002986908, 0.0049257599748671055, -0.02294207736849785, -0.01918933354318142, 0.023997211828827858, 0.018265612423419952, 0.08060873299837112, 0.08997242152690887, -0.029451923444867134, 0.06196989864110947, 0.004572611302137375, -0.060794647783041, -0.03307542949914932, -0.01618443801999092, 0.16204792261123657, 0.16111695766448975, 0.11934491991996765, -0.0015018038684502244, 0.11923535168170929, 0.03939618542790413, 0.11167173832654953, 0.19607402384281158, 0.14392296969890594, 0.027029456570744514, -0.06668160855770111, 0.006702460814267397, -0.08174712210893631, -0.1509598195552826, -0.026758292689919472, -0.024549372494220734, -0.1604275405406952, 0.03231289982795715, 0.08570664376020432, 0.037664901465177536, 0.07669753581285477, 0.05293712019920349, 0.0731697529554367, 0.006784334313124418, 0.03345354646444321, 0.04036913439631462, 0.05350644513964653, 0.0022534257732331753, -0.0110349515452981, -0.02082248032093048, -0.0120223518460989, -0.02442746050655842, -0.03850960731506348, -0.03539958596229553, -0.04737914726138115, -0.05901262164115906, 0.13350531458854675, 0.04872868210077286, 0.1024877279996872, 0.10188060998916626, 0.058321211487054825, 0.12198328226804733, 0.027262141928076744, 0.04243738576769829, 0.03863653168082237, 0.1318112015724182, 0.1428823322057724, 0.17171664535999298, 0.11184383183717728, 0.131887286901474, 0.17321452498435974, 0.17741958796977997, 0.17146210372447968, 0.16974924504756927, 0.0719866082072258, 0.04615747556090355, 0.08466015756130219, 0.06582320481538773, 0.06448645889759064, 0.07914061099290848, 0.047427449375391006, 0.009929989464581013, 0.01580330915749073, 0.0756884515285492, 0.02001390978693962, 0.0495331846177578, 0.07101167738437653, 0.05023226514458656, 0.053788576275110245, -0.003957277629524469, -0.041888657957315445, 0.015056104399263859, 0.17688260972499847, 0.14638638496398926, 0.17997434735298157, 0.12544040381908417, 0.12840649485588074, 0.18341901898384094, 0.17100012302398682, 0.1956886649131775, 0.196446493268013, 0.05083063617348671, 0.13525713980197906, 0.04811117425560951, 0.009039551019668579, 0.049126047641038895, 0.06979712098836899, 0.008675303310155869, 0.042448557913303375, 0.07868696749210358, -0.014126114547252655, 0.0032809339463710785, -0.008751299232244492, -0.027513286098837852, 0.01274092122912407, 0.05834934487938881, -0.018263885751366615, -0.029442688450217247, -0.014361240901052952, -0.28541767597198486, -0.37076327204704285, -0.1737501323223114, -0.2436341494321823, -0.3610644042491913, -0.15393048524856567, -0.31056278944015503, -0.2294178009033203, -0.0502316989004612, 0.05953327938914299, 0.049732837826013565, 0.018410619348287582, 0.01697942614555359, 0.0809980109333992, 0.05016331002116203, 0.05885433778166771, 0.06311700493097305, 0.019020888954401016, 5.270423654172069e-41, -5.434515704344506e-41, -5.682265272837133e-41, 5.788063306893657e-41, 5.094000177513575e-41, -5.119083420024989e-41, 5.731731108627799e-41, -5.699641373794761e-41, -5.289761572979752e-41, -0.004002261906862259, -0.0237392857670784, 0.017502181231975555, -0.028113404288887978, -0.016849610954523087, 0.03367038071155548, -0.061267346143722534, -0.05152524635195732, -0.03040548413991928, 0.012904655188322067, -0.010022121481597424, -0.009011578746140003, 0.04557562619447708, 0.03309868276119232, 0.030396144837141037, -0.034227270632982254, 0.003584008663892746, -0.0026508765295147896, 0.06153120845556259, 0.01187328714877367, 0.05930531397461891, 0.0183281060308218, -0.0165664441883564, 0.0004078334313817322, -0.07527803629636765, -0.021662596613168716, 0.039182499051094055, 0.21174325048923492, 0.2550431191921234, 0.19078393280506134, 0.23819628357887268, 0.382191926240921, 0.3552008867263794, 0.2057819962501526, 0.3661141097545624, 0.23998312652111053, -0.008833270519971848, -0.028286151587963104, -0.0009060819866135716, -0.04943935573101044, 0.021580813452601433, 0.009154433384537697, -0.046242937445640564, -0.004848649259656668, -0.020006295293569565, -0.04801368713378906, -0.011352185159921646, 0.006639326922595501, -0.07308608293533325, -0.038480114191770554, -0.0043095252476632595, -0.11070744693279266, -0.05706663429737091, -0.002718640025705099, 0.06601376086473465, 0.03220725432038307, -0.012096046470105648, 0.04610682651400566, 0.08017000555992126, -0.043013449758291245, -0.008316677995026112, -0.027407297864556313, 0.029086224734783173, 0.07003176212310791, 0.052263688296079636, 0.0498841218650341, 0.04066776484251022, 0.05907691270112991, -0.011549253016710281, 0.020878739655017853, 0.027938656508922577, 0.05084040388464928, 0.03860002011060715, 0.03333594650030136, -0.017048338428139687, 0.05598600581288338, 0.006795816123485565, 0.023167245090007782, 0.00979999452829361, 0.0003569480904843658, 0.01370182540267706, 0.02072524093091488, 0.007190586533397436, -0.010816979221999645, -0.008611530065536499, 0.01693475991487503, -0.00206350558437407, -0.02632233500480652, 0.02238606847822666, 0.03675958514213562, 0.0653606578707695, 0.03185287490487099, 0.03909839689731598, 0.07531823962926865, 0.1079348549246788, 0.025032049044966698, 0.027087073773145676, 0.023008422926068306, 0.021532095968723297, 0.05579901486635208, 0.10445205867290497, 0.050744522362947464, -0.03351135924458504, 0.027939394116401672, -0.030859246850013733, -0.013622717931866646, 0.020193547010421753, 0.06552231311798096, -0.07034347951412201, 0.007449879311025143, 0.0718197152018547, 0.02187136374413967, -0.019716698676347733, 0.013248386792838573, -0.03994625806808472, -0.04894135147333145, 0.06753645092248917, -0.3365548253059387, -0.4036858081817627, -0.1938616782426834, -0.25876519083976746, -0.4053092896938324, -0.18631871044635773, -0.3308570981025696, -0.329349160194397, -0.0759558156132698, 0.060613468289375305, 0.04687034338712692, 0.021818857640028, 0.056416623294353485, 0.07085861265659332, 0.03460700437426567, 0.05823253467679024, 0.05087266117334366, -0.009441357105970383, 6.09200494380571e-41, -5.686749427922973e-41, -5.021272787215117e-41, -4.933131113809086e-41, 5.133376664361102e-41, 5.543256465176111e-41, -5.257251448607416e-41, 5.417559992926175e-41, 5.313723776719706e-41, 0.05476778745651245, 0.026524577289819717, 0.027217572554945946, 0.03377251327037811, 0.04119928553700447, 0.0019874898716807365, -0.003519670572131872, -0.014757458120584488, 0.009436109103262424, 0.005900081247091293, 0.011710382997989655, -0.005902595818042755, 0.04368392750620842, 0.018207697197794914, 0.011519953608512878, 0.044228583574295044, 0.07924116402864456, 0.0784391537308693, 0.0707051083445549, -0.0016213315539062023, 0.028577735647559166, 0.08794545382261276, 0.04020414128899574, 0.010918733663856983, -0.07855468988418579, -0.007472490891814232, 0.04362795874476433, 0.13445474207401276, 0.1955060511827469, 0.12437907606363297, 0.21719302237033844, 0.3386576175689697, 0.31224608421325684, 0.22393064200878143, 0.40561583638191223, 0.20080602169036865, 0.023430725559592247, 0.014815461821854115, 0.027087070047855377, -0.033979382365942, 0.020807486027479172, -0.006672123447060585, -0.07005433738231659, -0.025149859488010406, 0.03805617243051529, -0.043510403484106064, -0.00844377651810646, 0.007160417269915342, -0.05509559065103531, -0.03092961013317108, -0.008448241278529167, -0.10112972557544708, -0.052904997020959854, -0.004933434072881937, -0.02392866089940071, 0.06247254088521004, -0.0521119087934494, 0.047695036977529526, 0.08699052780866623, 0.03781510889530182, 0.02281409315764904, -0.04011186584830284, 0.07421141862869263, 0.06522390991449356, 0.0321841798722744, 0.08577176928520203, 0.044878121465444565, 0.08214955776929855, 0.06981166452169418, -0.04151032492518425, 0.022980306297540665, 0.06545708328485489, 0.048513829708099365, 0.04248868301510811, -0.013032364659011364, 0.06016581878066063, 0.018135879188776016, 0.015527170151472092, 0.016640061512589455, 0.04548799991607666, 0.018384862691164017, 0.011971697211265564, 0.05623398348689079, 0.008160448633134365, 0.02206265553832054, -0.001354313106276095, 0.016503212973475456, 0.026463473215699196, 0.05125717446208, 0.001253102207556367, 0.08888493478298187, 0.06568620353937149, 0.048763442784547806, 0.090298131108284, 0.1293812394142151, 0.029959462583065033, 0.07492312043905258, 0.04327425733208656, 0.04793122038245201, -0.07606734335422516, 0.0414486788213253, -0.031132739037275314, -0.07404614239931107, -0.05019703879952431, -0.03834783658385277, -0.058817341923713684, 0.028808459639549255, 0.05374349281191826, 0.009175497107207775, 0.06512758880853653, 0.006932759657502174, 0.0031928769312798977, 0.028453217819333076, -0.03485654667019844, -0.07733415067195892, 0.014934001490473747, 0.0013305266620591283, -0.24904295802116394, -0.3463016152381897, -0.21313631534576416, -0.24339328706264496, -0.37291550636291504, -0.12456388771533966, -0.32507655024528503, -0.2726270258426666, -0.08317797631025314, 0.041326750069856644, 0.05875237658619881, 0.03099076822400093, 0.027391180396080017, 0.07119768112897873, 0.03703939914703369, 0.05709385126829147, 0.04269060865044594, 0.044239435344934464, 5.224601194388648e-41, 6.192758303390664e-41, -5.090076541813466e-41, -5.393737919032653e-41, -5.301672609926513e-41, 5.244359502735628e-41, 5.419101421236933e-41, -5.162803932111924e-41, -5.315685594569761e-41, 0.06152254715561867, -0.02776016853749752, 0.041537005454301834, 0.07121209800243378, 0.022839520126581192, 0.04169033467769623, -0.03467142954468727, -0.03443768620491028, 0.023429160937666893, 0.06201104074716568, -0.007829688489437103, 0.052262451499700546, 0.020264388993382454, 0.09287199378013611, 0.10134372115135193, 0.059886496514081955, 0.019548485055565834, 0.055569838732481, 0.060714226216077805, 0.014784025028347969, 0.03511785343289375, 0.09555310755968094, 0.015135510824620724, 0.009622782468795776, -0.09314551204442978, -0.011248532682657242, 0.058826297521591187, 0.08223378658294678, 0.1615915447473526, 0.1164356917142868, 0.1789192259311676, 0.30840814113616943, 0.30154988169670105, 0.20822100341320038, 0.3270738422870636, 0.15267357230186462, 0.014901005662977695, 0.007850456051528454, -0.015477671287953854, -0.021764084696769714, 0.016227228567004204, 0.00339752365835011, 0.01646462082862854, -0.009709294885396957, 0.04525109753012657, -0.08973966538906097, -0.055725544691085815, -0.038290366530418396, -0.09553349018096924, -0.07538866996765137, -0.049334269016981125, -0.13655318319797516, -0.08955630660057068, -0.040352363139390945, 0.049491897225379944, 0.014131378382444382, -0.052723925560712814, 0.02776462770998478, 0.048028815537691116, -0.007075455971062183, 0.02840259298682213, -0.030787458643317223, 0.061885081231594086, 0.12114706635475159, 0.10708755999803543, 0.0728297159075737, 0.0862409844994545, 0.06476692855358124, 0.04110296815633774, -0.015231146477162838, 0.034140001982450485, 0.046919114887714386, 0.049744609743356705, 0.050511423498392105, -0.03329566493630409, 0.059657707810401917, 0.0323362834751606, 0.040591560304164886, 0.04763074591755867, 0.05056131258606911, -0.015900416299700737, 0.0537562295794487, 0.0402284637093544, -0.039621125906705856, -0.022489363327622414, 0.018343862146139145, 0.012929124757647514, -0.01908850483596325, 0.025379227474331856, 0.0017900506500154734, 0.0841478779911995, 0.0637269914150238, 0.06529051065444946, 0.10218759626150131, 0.08683173358440399, 0.06802039593458176, 0.050635334104299545, 0.0843898206949234, 0.09441064298152924, -4.911410987612051e-41, -4.942099423980765e-41, -4.909309039915564e-41, -4.937615268894925e-41, 5.200919250341559e-41, -4.914213584540701e-41, -4.92093981716946e-41, 4.937615268894925e-41, -4.917856960547946e-41, 4.978953573592508e-41, 4.986660715146294e-41, -5.062751221759132e-41, -4.918837869472973e-41, 5.014966944125655e-41, -5.056165118976805e-41, 4.981055521288995e-41, -5.024916163222362e-41, 5.113197966474825e-41, -5.497293875546257e-41, 5.310640920098192e-41, 4.931449555651896e-41, 4.924443063330272e-41, 4.961857732327745e-41, -4.963539290484935e-41, -4.938035658434223e-41, -6.02880638306466e-41, 4.914633974079998e-41, -4.984839027142672e-41, 5.098904722138712e-41, -4.969564873881531e-41, 5.014266294893493e-41, -5.044113952183612e-41, 5.101707319067362e-41, 4.978112794513913e-41, -4.998431622246622e-41, -5.002915777332462e-41, 4.91813722024081e-41, 5.143746272997106e-41, -5.852803295945463e-41, 4.912251766690646e-41, -4.97853318405321e-41, -6.273753354628639e-41, -4.977272015435318e-41, -5.231607686710272e-41, 4.947144098452334e-41, 4.917716830701513e-41, -4.917856960547946e-41, -4.917576700855081e-41, -4.918277350087243e-41, -4.909028780222699e-41, -4.977272015435318e-41, -4.928366699030382e-41, -4.922341115633785e-41, -4.904965014676157e-41, 4.910710338379889e-41, 4.910009689147727e-41, 4.931029166112599e-41, 4.922341115633785e-41, 4.923322024558812e-41, -4.92430293348384e-41, -4.956112408624013e-41, 4.917856960547946e-41, -4.931169295959031e-41, 4.939997476284278e-41, -4.935233061505573e-41, 4.933691633194816e-41, 4.933131113809086e-41, 4.907767611604807e-41, -4.919678648551568e-41, -4.906926832526212e-41, -4.922200985787352e-41, 4.910990598072754e-41, 4.928787088569679e-41, 5.629296190885655e-41, 4.913512935308539e-41, -5.034164733086905e-41, -5.180600422608849e-41, 4.927245660258922e-41, 4.984278507756942e-41, 5.096662644595792e-41, 4.933971892887681e-41, -4.937475139048493e-41, -4.955271629545418e-41, 4.915755012851458e-41, 4.915895142697891e-41, -4.954010460927526e-41, -4.92374241409811e-41, -4.910850468226321e-41, 4.921640466401623e-41, -4.910710338379889e-41, 4.995348765625108e-41, 5.103108617531686e-41, -4.922901635019515e-41, 4.918417479933675e-41, 5.307838323169542e-41, 5.246881839971413e-41, -4.936073840584168e-41, 5.518453482357562e-41, 5.76564253146446e-41, -4.907487351911942e-41, -5.005998633953977e-41, 5.031502266004688e-41, -4.955131499698986e-41, -4.998431622246622e-41, -5.026877981072416e-41, 5.004457205643219e-41, -5.044394211876476e-41, 5.088114723963411e-41, -4.936494230123466e-41, -4.914353714387133e-41, -4.968163575417206e-41, 4.919118129165838e-41, -4.951207863998876e-41, -4.937615268894925e-41, -5.073541219934433e-41, 5.003476296718192e-41, 4.999132271478785e-41, 4.973628639428073e-41, 4.923041764865947e-41, -4.942519813520062e-41, -4.99548889547154e-41, -4.919958908244433e-41, 4.922761505173082e-41, -4.992406038850026e-41, -4.964239939717097e-41, 4.932990983962654e-41, 4.908468260836969e-41, -4.929347607955409e-41, -4.916455662083621e-41, 4.914073454694269e-41, -4.954430850466823e-41, 4.922761505173082e-41, 4.905945923601185e-41, -4.913092545769241e-41, -6.214758689280564e-41, -4.935233061505573e-41, -4.92093981716946e-41, 4.957373577241905e-41, -5.034164733086905e-41, -4.916455662083621e-41, -4.939857346437845e-41, -4.914774103926431e-41, -4.989603441921376e-41, -4.908047871297672e-41, 0.0829455628991127, 0.08020380884408951, -0.010713406838476658, 0.08677515387535095, 0.03209615498781204, 0.017605850473046303, 0.0008833650499582291, 0.07094113528728485, 0.0008845487609505653, -0.03449007868766785, 0.031016826629638672, -0.01806763932108879, 0.017039814963936806, 0.027971377596259117, -0.007872474379837513, -0.017280319705605507, -0.020715391263365746, 0.008311718702316284, 0.023312712088227272, -0.01523234136402607, 0.08225890249013901, 0.04643067717552185, 0.0034516332671046257, 0.12489701062440872, -0.09203317761421204, -0.08308663219213486, 0.06177511066198349, 0.27040407061576843, 0.15546290576457977, 0.203950896859169, 0.27965298295021057, 0.2795180678367615, 0.2835555374622345, 0.2572871744632721, 0.18907539546489716, 0.20669110119342804, -5.355902860495883e-41, 5.291443131136942e-41, -5.218855870684916e-41, 5.125809652653748e-41, -5.189288473087663e-41, 5.957200031537662e-41, 5.849860569170381e-41, -4.947003968605902e-41, -4.914493844233566e-41, 0.03857223317027092, 0.0037720445543527603, -0.010167859494686127, -0.046124715358018875, -0.05802466347813606, -0.051510442048311234, -0.034056372940540314, -0.04699333757162094, -0.05282294750213623, 0.061584290117025375, 0.03197336941957474, 0.04091475158929825, 0.036219023168087006, 0.008192394860088825, 0.020495789125561714, -0.09908019751310349, -0.10938680171966553, -0.07507369667291641, 0.2655338943004608, 0.25835028290748596, 0.19303587079048157, 0.04619497433304787, 0.13595113158226013, 0.07332067936658859, 0.09133949875831604, 0.16693080961704254, 0.182157501578331, 0.17264145612716675, 0.06750667840242386, 0.154713973402977, 0.16932031512260437, 0.22787296772003174, 0.2407406121492386, 0.007544990628957748, 0.07654934376478195, 0.042705975472927094, 0.02654411643743515, 0.009696101769804955, 0.03779523819684982, -0.014741913415491581, 0.0329282321035862, 0.024614881724119186, 0.04952241852879524, 0.02588096261024475, 0.046363309025764465, -0.03944895789027214, -0.031696684658527374, -0.021424153819680214, -0.08058115839958191, -0.06893347203731537, -0.05282602086663246, -0.13083907961845398, -0.09364635497331619, -0.061234310269355774, 0.0699520856142044, 0.03369450941681862, 0.024629833176732063, 0.06747318804264069, 0.07217702269554138, 0.09719741344451904, 0.09054531902074814, 0.09081193059682846, 0.050214096903800964, 0.25797414779663086, 0.24568302929401398, 0.270224392414093, 0.14892716705799103, 0.2031579613685608, 0.20196063816547394, 0.1763257533311844, 0.2460419088602066, 0.28221333026885986, 0.05074484646320343, 0.0005132733494974673, -0.01634562946856022, 0.051124174147844315, 0.00028615930932573974, -0.021153254434466362, -0.003875677241012454, -0.038505520671606064, -0.05545041710138321, 0.022426454350352287, -0.033000461757183075, -0.02998027205467224, -0.015399819239974022, -0.04810691624879837, -0.05693214386701584, -0.07567243278026581, -0.05128047615289688, -0.053578875958919525, 0.25426146388053894, 0.2099720537662506, 0.20559272170066833, 0.3077109754085541, 0.3091970980167389, 0.3057929575443268, 0.2671723961830139, 0.23757760226726532, 0.2929786443710327, 0.011581869795918465, 0.1365719884634018, -0.012624952010810375, -0.0014667119830846786, 0.005911599844694138, 0.044918887317180634, -0.048459336161613464, 0.07116833329200745, 0.06335676461458206, 0.02347518317401409, 0.017733197659254074, 0.027112921699881554, -0.04082686826586723, -0.03706076368689537, 0.08238540589809418, -0.07934481650590897, -0.0023229315411299467, 0.009274046868085861, -0.316719114780426, -0.38917383551597595, -0.20440742373466492, -0.2880425751209259, -0.4012084901332855, -0.09877947717905045, -0.3892348110675812, -0.19018495082855225, -0.1261976957321167, 0.037144310772418976, 0.06573548167943954, 0.04690470173954964, 0.04953707382082939, 0.04527087137103081, 0.01757647469639778, 0.047926172614097595, 0.02898002788424492, -0.013026218861341476, 5.616684504706732e-41, 5.296207545915646e-41, 5.254588981525199e-41, 5.704265658727033e-41, 5.106892123385363e-41, -5.498414914317717e-41, -5.292844429601267e-41, 5.222779506385026e-41, 6.090183255802087e-41, -0.003983934409916401, 0.038467999547719955, -0.04209211468696594, 0.04376039654016495, -0.01733625866472721, 0.0231382567435503, -0.03749921917915344, 0.024345500394701958, -0.018328720703721046, 0.07926149666309357, -0.007943560369312763, 0.06320661306381226, 0.027493387460708618, 0.08708257973194122, 0.029296670109033585, 0.0558982752263546, 0.04794624075293541, 0.06968340277671814, 0.07232183963060379, -0.010949632152915001, 0.04529755935072899, 0.05225827917456627, 0.04426020011305809, 0.030933618545532227, -0.10292356461286545, -0.04133065417408943, 0.04358208552002907, 0.11717599630355835, 0.20365318655967712, 0.1410578042268753, 0.19734378159046173, 0.36566993594169617, 0.29276296496391296, 0.25146907567977905, 0.3696519434452057, 0.2033139169216156, -0.007545420899987221, 0.04246378317475319, 0.06390327960252762, -0.015841037034988403, 0.0343882255256176, -0.04057738184928894, -0.030571242794394493, -0.05128590762615204, 0.02266949787735939, -0.06841816753149033, -0.029756512492895126, -0.015074699185788631, -0.07879873365163803, -0.05163050815463066, -0.03361150994896889, -0.12012536078691483, -0.07487838715314865, -0.03891337290406227, -0.0009556291624903679, -0.022749604657292366, 0.026700694113969803, 0.08913599699735641, -0.00948252808302641, 0.03758605569601059, 0.034663159400224686, 0.0696568712592125, 0.010130726732313633, 0.07544233649969101, 0.10155989974737167, 0.06407959014177322, 0.10001487284898758, 0.06078892573714256, 0.060035668313503265, 0.011790595017373562, 0.017422351986169815, 0.0697455108165741, 0.04954800009727478, 0.07111096382141113, -0.0022929974365979433, 0.06923317164182663, 0.06115974113345146, -0.006431013345718384, 0.01999691128730774, 0.018808498978614807, 0.025175223127007484, 0.06865786761045456, 0.009246593341231346, 0.03219348192214966, 0.003751651616767049, 0.021762680262327194, 0.02917551063001156, 0.05634564161300659, 0.014356704428792, 0.02341582626104355, 0.07335076481103897, 0.07185842096805573, 0.01367984153330326, 0.043015435338020325, 0.11767357587814331, 0.05464968457818031, 0.05388109013438225, 0.04375090450048447, 0.06932733207941055, 0.11846888065338135, 0.07539338618516922, 0.07014033943414688, 0.17579881846904755, 0.07267305254936218, 0.09981025755405426, 0.12469550222158432, 0.07927626371383667, -0.0005128259072080255, 0.08345888555049896, 0.03523387014865875, -0.0022035834845155478, 0.05696794018149376, -0.04431288316845894, 0.032953668385744095, 0.0709780603647232, -0.05613170936703682, -0.05238312482833862, 0.11336115002632141, 0.2616926431655884, 0.16658425331115723, 0.16653473675251007, 0.24385544657707214, 0.2061295360326767, 0.10902655869722366, 0.18399184942245483, 0.11682991683483124, 0.14432919025421143, 0.13389737904071808, 0.18744008243083954, 0.21114185452461243, 0.1780429482460022, 0.19923588633537292, 0.16974735260009766, 0.1599477380514145, 0.18716296553611755, 5.53526906392946e-41, 5.255289630757361e-41, 5.161823023186896e-41, -5.176116267523009e-41, 5.521536338979077e-41, -4.979514092978237e-41, -5.239875347649788e-41, 4.981616040674725e-41, -5.050980314658803e-41, -0.01944495178759098, 0.04825817048549652, -0.008478575386106968, -0.09008347988128662, 0.021920762956142426, -0.024603884667158127, -0.05543696507811546, -0.015990160405635834, -0.04738457128405571, 0.07665623724460602, 0.05477999150753021, 0.0559137687087059, -0.02564459666609764, 0.06873815506696701, 0.03997619450092316, -0.043134622275829315, -0.03684576228260994, -0.007507416885346174, 0.13730114698410034, 0.19715191423892975, 0.08354155719280243, 0.03089413233101368, 0.06488746404647827, 0.028670145198702812, 0.17048299312591553, 0.193738654255867, 0.16659390926361084, 0.027317140251398087, -0.06936849653720856, 0.007259389851242304, -0.07156824320554733, -0.1436322182416916, -0.019733604043722153, -0.00909030344337225, -0.1545594036579132, 0.04670216888189316, 0.03158939629793167, 0.06951363384723663, -0.004461182747036219, 0.0038979097735136747, 0.06273996084928513, 0.03540729358792305, 0.037176478654146194, 0.030148031190037727, 0.008810980245471, -0.021481357514858246, -0.03519407659769058, -0.04432264342904091, -0.03721689060330391, -0.04860052838921547, -0.06273563206195831, -0.06031522527337074, -0.07207293063402176, -0.08450165390968323, 0.06452517956495285, 0.02126430720090866, 0.11619817465543747, 0.11879745125770569, 0.10550601035356522, 0.1465376913547516, 0.032470833510160446, 0.11820139735937119, 0.05064225569367409, 0.16602542996406555, 0.18628275394439697, 0.17477527260780334, 0.15247628092765808, 0.08049894869327545, 0.09264735132455826, 0.1177922785282135, 0.21289566159248352, 0.21683833003044128, 0.05224582925438881, 0.07478687912225723, 0.11046744883060455, 0.033071450889110565, 0.08354486525058746, 0.07470866292715073, 0.03862200677394867, 0.032950159162282944, 0.0598411001265049, 0.0722287967801094, 0.06894806772470474, 0.08766719698905945, 0.054592590779066086, -0.005937241483479738, 0.05935145169496536, -0.030220763757824898, -0.00269216182641685, 0.02804075926542282, 0.1478872448205948, 0.10599645972251892, 0.146482452750206, 0.1636192947626114, 0.15771284699440002, 0.1816723644733429, 0.15633809566497803, 0.1638849675655365, 0.18771904706954956, 0.12396790087223053, 0.14716318249702454, 0.09142092615365982, 0.05508927255868912, 0.0016601213719695807, 0.07419890910387039, 0.0245515089482069, 0.07742277532815933, 0.14100754261016846, -0.07740079611539841, 0.059505533427000046, -0.05532645061612129, -0.004162076860666275, -0.054433271288871765, 0.007942304946482182, -0.07691524922847748, 0.04992596432566643, 0.03675675764679909, -0.2899017333984375, -0.43085727095603943, -0.2607984244823456, -0.35002705454826355, -0.5132743120193481, -0.11104424297809601, -0.4335061311721802, -0.146783709526062, -0.19998085498809814, 0.059506114572286606, 0.06237361580133438, -0.007386654149740934, 0.00614209147170186, 0.049705084413290024, -0.0077973357401788235, -0.026384616270661354, 0.02700946293771267, -0.03055613301694393, 6.235778166245436e-41, -5.773349673018246e-41, -5.857988100263465e-41, -5.414196876611796e-41, 5.337405720766796e-41, 5.736495523406504e-41, 5.686188908537243e-41, 5.174014319826522e-41, 5.046776419265829e-41, 0.027861518785357475, -0.04993720352649689, -0.019310124218463898, 0.08288979530334473, -0.01561602670699358, 0.07732052356004715, -0.010106402449309826, 0.0559685118496418, -0.004186141770333052, 0.06379630416631699, 0.02613559179008007, 0.03267877548933029, 0.07473457604646683, 0.020073512569069862, 0.016354937106370926, 0.09795613586902618, 0.046578299254179, 0.02279640920460224, 0.05553022772073746, 0.03364674001932144, 0.057296112179756165, 0.08198270201683044, 0.06617718935012817, 0.023978183045983315, -0.11852558702230453, 0.006143244449049234, 0.04352007806301117, 0.24826426804065704, 0.329590380191803, 0.2527473568916321, 0.26466068625450134, 0.443148136138916, 0.3184053599834442, 0.34304919838905334, 0.45977652072906494, 0.27237948775291443, -0.08291224390268326, -0.005794229451566935, -0.021586600691080093, -0.11577171087265015, -0.0318695567548275, -0.062075164169073105, -0.11853062361478806, -0.07811977714300156, -0.056020282208919525, -0.050286248326301575, 0.015404850244522095, 0.030216794461011887, -0.08028467744588852, -0.01690070889890194, 0.016537019982933998, -0.10800521075725555, -0.030625268816947937, 0.008383397944271564, -0.017408689484000206, 0.023746641352772713, -0.000868654518853873, 0.019977308809757233, 0.051450494676828384, 0.03587156906723976, -0.021590959280729294, -0.025012483820319176, 0.001695075654424727, 0.01900283247232437, 0.07860107719898224, -0.0379064716398716, 0.09259424358606339, 0.07581324875354767, 0.02877136692404747, -0.07579415291547775, 0.0421995148062706, 0.04835336282849312, 0.06275644153356552, 0.05938100814819336, 0.03219139203429222, 0.06339365243911743, 0.04843767732381821, 0.05414825305342674, 0.06636906415224075, 0.051200706511735916, 0.027608675882220268, 0.04610688239336014, 0.025086570531129837, 0.07064568251371384, 0.006481097545474768, 0.06374013423919678, 0.017214646562933922, 0.08841004967689514, 0.05823144689202309, 0.07980913668870926, -0.05079752206802368, 0.021114222705364227, -0.05879335105419159, 0.017278918996453285, 0.09220211207866669, 0.03633396700024605, -0.02911154180765152, 0.035985518246889114, 0.07383891195058823, 5.043413302951449e-41, 4.949666435688119e-41, 4.997450713321595e-41, -4.994788246239378e-41, -4.944201371677252e-41, -4.908188001144104e-41, -5.021132657368685e-41, -4.981195651135427e-41, -5.014546554586358e-41, 4.906506442986914e-41, 4.950226955073849e-41, -4.944902020909414e-41, -4.952328902770336e-41, 4.94013760613071e-41, -4.93789552858779e-41, 4.933271243655518e-41, 4.948265137223794e-41, 4.929908127341139e-41, 5.495612317389068e-41, 5.045375120801504e-41, -4.979934482517535e-41, 4.956953187702608e-41, 4.916035272544323e-41, -5.930995750254788e-41, 5.057146027901832e-41, 5.01468668443279e-41, -4.960176174170555e-41, -4.946863838759469e-41, -4.95877487570623e-41, -4.938175788280655e-41, 4.908328130990537e-41, -4.960876823402717e-41, -4.94069812551644e-41, -4.99492837608581e-41, -4.955972278777581e-41, -4.946723708913037e-41, -5.002635517639597e-41, 5.428349991101476e-41, 5.027718760151011e-41, -5.023094475218739e-41, 4.90510514452259e-41, 4.953029552002498e-41, 6.150018700228757e-41, 6.281600626028857e-41, -5.021272787215117e-41, -4.906786702679779e-41, 4.976991755742453e-41, -4.951207863998876e-41, 5.061490053141239e-41, 4.953309811695363e-41, -4.960316304016987e-41, -5.059107845751887e-41, -4.984698897296239e-41, -4.99604941485727e-41, 4.911270857765619e-41, -4.915054363619296e-41, 5.063451870991294e-41, 4.925704231948164e-41, 5.044254082030044e-41, -5.080547712256057e-41, -4.929487737801841e-41, 4.96213799202061e-41, 4.924723323023137e-41, -4.952889422156066e-41, 4.996609934243e-41, -4.924022673790975e-41, -5.076904336248812e-41, -5.031362136158256e-41, 4.917576700855081e-41, 4.953169681848931e-41, 4.92430293348384e-41, -4.904824884829725e-41, -5.193212108787772e-41, 5.010763048732681e-41, -6.100692994284524e-41, 4.945182280602279e-41, -5.335724162609606e-41, 5.793948760443821e-41, 4.970125393267261e-41, 5.028559539229606e-41, -4.983577858524779e-41, -4.960736693556285e-41, 4.908328130990537e-41, -4.951768383384606e-41, -4.910009689147727e-41, 4.931309425805464e-41, 4.939857346437845e-41, -5.135198352364725e-41, -4.908047871297672e-41, -4.959755784631258e-41, -4.964099809870664e-41, -4.949386175995254e-41, -5.050700054965938e-41, -5.245200281814223e-41, -4.949666435688119e-41, 4.951908513231039e-41, 4.961297212942015e-41, 4.938315918127088e-41, -4.97685162589602e-41, -4.910430078687024e-41, -4.922481245480217e-41, -4.933971892887681e-41, -4.91869773962654e-41, -4.939436956898548e-41, 4.911971506997781e-41, 4.919958908244433e-41, 4.93789552858779e-41, 4.914353714387133e-41, -4.947844747684497e-41, 4.949526305841686e-41, 4.932010075037626e-41, -4.92150033655519e-41, 4.944902020909414e-41, 4.938876437512818e-41, -4.915895142697891e-41, 4.966061627720719e-41, 4.930048257187571e-41, -5.020432008136522e-41, -4.949806565534551e-41, 4.907347222065509e-41, -4.962838641252772e-41, -4.936213970430601e-41, 4.904824884829725e-41, -4.911831377151349e-41, -5.00109408932884e-41, 4.927525919951787e-41, -4.965360978488557e-41, -4.917016181469351e-41, -4.965501108334989e-41, -4.956252538470445e-41, 4.935653451044871e-41, 4.959755784631258e-41, 5.081248361488219e-41, -5.05924797559832e-41, 5.022533955833009e-41, -4.964380069563529e-41, -4.930468646726869e-41, -4.926685140873192e-41, -4.952188772923904e-41, 4.94462176121655e-41, 4.922200985787352e-41, -4.956252538470445e-41, -4.939296827052115e-41, 4.934672542119843e-41, -5.032202915236851e-41, -4.954570980313256e-41, 4.962838641252772e-41, -5.015387333664953e-41, -4.935233061505573e-41, -5.094420567052872e-41, 5.085312127034761e-41, 4.94350072244509e-41, -4.911270857765619e-41, 5.011183438271978e-41, 5.008100581650464e-41, 5.060088754676914e-41, 4.96101695324915e-41, -5.002635517639597e-41, 5.05756641744113e-41, 4.990444220999971e-41, 4.9418191642879e-41, 4.938596177819953e-41, 4.977832534821048e-41, -4.919958908244433e-41, -5.145708090847161e-41, -4.947984877530929e-41, -5.005438114568247e-41, 4.907487351911942e-41, -4.949246046148821e-41, 4.923602284251677e-41, 4.929347607955409e-41, 4.963679420331367e-41, -4.945602670141577e-41, -4.949666435688119e-41, -4.923462154405245e-41, -4.912532026383511e-41, 4.96101695324915e-41, -4.952469032616768e-41, -4.92206085594092e-41, -4.960876823402717e-41, 5.253888332293037e-41, 4.924583193176705e-41, -4.933131113809086e-41, -4.947284228298767e-41, 5.008661101036194e-41, -4.908468260836969e-41, 4.94013760613071e-41, 4.916035272544323e-41, -5.00109408932884e-41, 5.042292264179989e-41, -4.949105916302389e-41, -4.909168910069132e-41, 5.075222778091622e-41, -4.970826042499424e-41, 4.917016181469351e-41, -5.065974208227079e-41, -4.909869559301294e-41, -5.07564316763092e-41, 4.986100195760564e-41, -5.071299142391513e-41, 5.065273558994916e-41, -4.999132271478785e-41, 5.005157854875382e-41, -4.913512935308539e-41, -5.023654994604469e-41, -5.07452212885946e-41, 5.030801616772526e-41, 5.12875237942883e-41, 5.121325497567909e-41, 5.055184210051778e-41, 4.969424744035099e-41, -5.071299142391513e-41, 4.959475524938393e-41, 5.128612249582398e-41, -5.069617584234323e-41, -5.077184595941677e-41, 4.968163575417206e-41, 5.449649727759214e-41, -4.909168910069132e-41, 4.934532412273411e-41, -4.961437342788447e-41, -4.910850468226321e-41, -5.200358730955829e-41, -4.98189630036759e-41, 5.230766907631677e-41, 5.064432779916321e-41, 4.926264751333894e-41, 4.959755784631258e-41, 5.047897458037289e-41, -5.086433165806221e-41, -5.15131328470446e-41, 5.164905879808411e-41, -4.918557609780108e-41, 4.926124621487462e-41, 4.908328130990537e-41, 4.918277350087243e-41, 4.907767611604807e-41, -4.912532026383511e-41, 4.99492837608581e-41, 4.911410987612051e-41, 4.912251766690646e-41, -4.939997476284278e-41, 4.909309039915564e-41, -4.939717216591413e-41, -4.908047871297672e-41, -4.933971892887681e-41, -5.030381227233228e-41, -4.92093981716946e-41, -4.938175788280655e-41, 4.954430850466823e-41, -4.963399160638502e-41, -5.029820707847498e-41, -4.968023445570774e-41, 4.908608390683402e-41, -4.910289948840591e-41, -4.937755398741358e-41, 4.929207478108977e-41, -4.913512935308539e-41, -4.917436571008648e-41, 4.933831763041248e-41, 4.910149818994159e-41, -4.985679806221267e-41, -4.90622618329405e-41, 5.03892914786561e-41, 5.113758485860555e-41, 5.61206021977446e-41, 5.046916549112261e-41, -5.069477454387891e-41, -5.026037201993821e-41, -4.935513321198438e-41, -4.961437342788447e-41, 5.028559539229606e-41, -5.120344588642882e-41, -4.935653451044871e-41, 4.970125393267261e-41, 5.087133815038383e-41, -4.95989591447769e-41, 4.907207092219077e-41, -5.155797439790299e-41, 4.947564487991632e-41, -4.909168910069132e-41, -4.927385790105354e-41, -4.926685140873192e-41, -4.906506442986914e-41, 4.905245274369022e-41, 4.916735921776486e-41, 6.305002310383082e-41, 5.17331367059436e-41, 0.02717282809317112, 0.10346604883670807, 0.0707336962223053, 0.022655285894870758, 0.04597979411482811, 0.010016814805567265, -0.022646833211183548, 0.04668284207582474, 0.04343715310096741, -0.049048397690057755, -0.010227788239717484, -0.012535237707197666, -0.07266250252723694, 0.03388771414756775, 0.0672103688120842, -0.0623115636408329, 0.0146170137450099, 0.008541756309568882, -0.3027490973472595, -0.3779429495334625, -0.19767184555530548, -0.2640943229198456, -0.3969457149505615, -0.1713860183954239, -0.2753145694732666, -0.28795698285102844, -0.06850408017635345, 0.06201200932264328, 0.05501696094870567, 0.025415608659386635, 0.015752742066979408, 0.06725697964429855, 0.04527014493942261, 0.08749651163816452, 0.046627145260572433, 0.020650168880820274, -5.443484014516184e-41, -5.027999019843876e-41, -5.539893348861732e-41, -5.582212562484341e-41, -5.670354235890372e-41, 4.945742799988009e-41, 5.202040289113018e-41, -5.187186525391175e-41, 5.426668432944287e-41, 0.060355011373758316, 0.003197422018274665, 0.03682199865579605, 0.004021809436380863, 0.06318831443786621, 0.06492475420236588, -0.023255065083503723, -0.04067728668451309, -0.006964945700019598, 0.02829047106206417, 0.02179734781384468, -0.024257712066173553, 0.06551570445299149, 0.023954061791300774, 0.04219181090593338, 0.009758717380464077, 0.03901148587465286, -0.005152332130819559, 0.04906804859638214, 0.02208111435174942, 0.05851205438375473, 0.0935087725520134, 0.011623422615230083, 0.05289033427834511, -0.10171134024858475, -0.04487720504403114, 0.025646930560469627, 0.11958640068769455, 0.1968517303466797, 0.13124379515647888, 0.18158406019210815, 0.29583537578582764, 0.30968570709228516, 0.18256931006908417, 0.37503957748413086, 0.22986669838428497, -0.024347392842173576, -0.018290432170033455, 0.03855355829000473, -0.010586043819785118, -0.016851970925927162, 0.03686803579330444, -0.06500134617090225, -0.050542544573545456, 0.0055794320069253445, -0.07463667541742325, -0.04359222576022148, -0.03326038271188736, -0.08812271803617477, -0.06632282584905624, -0.04305446520447731, -0.12201114743947983, -0.08509592711925507, -0.036833666265010834, 0.040125492960214615, -0.03682748228311539, -0.039106763899326324, 0.026697270572185516, 0.0500374473631382, 0.06144067645072937, 0.05770694091916084, 0.015633057802915573, 0.012922139838337898, 0.08523660153150558, 0.05369448661804199, 0.05696859210729599, 0.019746260717511177, 0.05055462196469307, 0.0677451491355896, -0.034534867852926254, 0.06804327666759491, 0.06342214345932007, 0.05216420069336891, 0.06927147507667542, -0.01403027307242155, 0.05555473640561104, 0.03221913054585457, 0.037641383707523346, 0.005567115731537342, 0.04074423387646675, 0.0043273428454995155, 0.046409767121076584, 0.050262052565813065, 0.0004669685149565339, 0.022644830867648125, 0.015849750488996506, 0.05079609528183937, 0.021688593551516533, 0.03505483642220497, 0.00447495374828577, 0.04158064350485802, 0.09556087106466293, 0.06097083166241646, 0.08526255935430527, 0.06795237213373184, 0.08302568644285202, 0.04298866167664528, 0.0876951664686203, 0.07831038534641266, 0.04548332840204239, 0.09512940049171448, 0.06961116939783096, -0.01840296946465969, 0.022328849881887436, -0.033149655908346176, -0.03645627945661545, -0.016494503244757652, 0.06034426391124725, 0.0037625618278980255, -0.03735034540295601, -0.04980314150452614, 0.03291507810354233, 0.0380668081343174, 0.020380696281790733, -0.081436388194561, -0.027189336717128754, -0.00426669605076313, -0.3800177276134491, -0.43427708745002747, -0.2703939974308014, -0.30830392241477966, -0.47706058621406555, -0.1847192496061325, -0.39388540387153625, -0.29703864455223083, -0.12229301780462265, 0.07267957180738449, 0.07376974076032639, 0.021216273307800293, 0.02332060970366001, 0.05853566527366638, 0.03995551913976669, 0.06251723319292068, 0.05676966905593872, 0.010720610618591309, 5.163084191804788e-41, 5.05252174296956e-41, 5.309239621633867e-41, -6.170898047347197e-41, 5.011603827811276e-41, 5.086573295652653e-41, -5.045094861108639e-41, 5.91642224622581e-41, 5.571142304616175e-41, 0.01774178445339203, -0.03644506260752678, 0.04693371802568436, 0.02764415368437767, 0.05271095782518387, 0.061389707028865814, -0.044362422078847885, 0.0005346006364561617, 0.04750613123178482, 0.10801048576831818, 0.03407306596636772, 0.07073728740215302, 0.03960413113236427, 0.03559041768312454, 0.10593721270561218, 0.05428790673613548, 0.12451846152544022, 0.05618847906589508, 0.05233932286500931, 0.0446738637983799, 0.06300806999206543, 0.07551583647727966, 0.009489755146205425, 0.021578917279839516, -0.1091366708278656, -0.007806393317878246, 0.03116518259048462, 0.13729748129844666, 0.2515679895877838, 0.15009571611881256, 0.2391790896654129, 0.36458277702331543, 0.33990955352783203, 0.28414371609687805, 0.4535865783691406, 0.23580105602741241, -0.012921846471726894, -0.02299071103334427, 0.0076829250901937485, -0.0814719945192337, 0.030155612155795097, 0.02859022282063961, -0.05696588382124901, 0.03355296328663826, -0.022721625864505768, -0.03554217517375946, 0.0011434141779318452, 0.013981248252093792, -0.05058538541197777, -0.024812836199998856, 0.006797030568122864, -0.10255207121372223, -0.050871070474386215, 0.005228107329457998, 0.02296089380979538, -0.010306700132787228, 0.021928589791059494, 0.023635203018784523, 0.07950209081172943, 0.023363420739769936, 0.007165026385337114, 0.01551536750048399, 0.05500400811433792, 0.06979093700647354, 0.09546331316232681, 0.06387877464294434, 0.03706566244363785, 0.08553308248519897, 0.00904776994138956, -0.041635606437921524, 0.04367833212018013, 0.0553874671459198, 0.062228407710790634, 0.07880780100822449, 0.00546744279563427, 0.07074728608131409, 0.0333859845995903, 0.04394170269370079, 0.05185139179229736, 0.06804663687944412, 0.02461226098239422, 0.038848135620355606, 0.03324976935982704, 0.04228874295949936, 0.02979988418519497, 0.053712937980890274, 0.016088329255580902, 0.036341343075037, 0.06785343587398529, 0.05407332256436348, 0.054556310176849365, 0.043901652097702026, 0.018953006714582443, 0.07317478954792023, 0.11493972688913345, 0.036651190370321274, 0.06518696248531342, 0.05606123432517052, 0.040593236684799194, -5.019310969365062e-41, -4.951628253538174e-41, 4.925143712562435e-41, -4.994788246239378e-41, 4.924162803637407e-41, 4.945742799988009e-41, 4.928646958723247e-41, -4.912672156229944e-41, 4.918837869472973e-41, 4.946723708913037e-41, 4.929347607955409e-41, 4.953870331081093e-41, -4.952048643077471e-41, 4.945742799988009e-41, 4.948965786455956e-41, 4.941398774748602e-41, 4.908047871297672e-41, 4.925143712562435e-41, -4.984138377910509e-41, -5.214231585752644e-41, 4.973628639428073e-41, -4.909729429454862e-41, -4.975870716970993e-41, 5.040190316483502e-41, 4.967743185877909e-41, -4.925984491641029e-41, 5.949072500444578e-41, -4.954150590773958e-41, 4.936494230123466e-41, 4.971386561885154e-41, 4.945882929834442e-41, 4.958634745859798e-41, 4.957513707088338e-41, 4.915334623312161e-41, -4.959755784631258e-41, -4.968724094802936e-41, -4.961997862174177e-41, 6.233816348395381e-41, 4.931029166112599e-41, -4.94350072244509e-41, 4.916175402390756e-41, 4.94125864490217e-41, -4.907347222065509e-41, -5.111656538164068e-41, -5.061069663601942e-41, 4.914353714387133e-41, 4.916315532237188e-41, 4.941398774748602e-41, 4.928927218416112e-41, 4.913933324847836e-41, 4.931589685498329e-41, 4.929627867648274e-41, 4.931869945191194e-41, -4.964520199409962e-41, 4.934532412273411e-41, 5.006278893646841e-41, -4.934812671966276e-41, 4.950927604306011e-41, -4.952609162463201e-41, -4.967603056031477e-41, -5.438859729583912e-41, 4.989323182228511e-41, -6.134184027581887e-41, 5.05476382051248e-41, -4.938035658434223e-41, 5.046496159572964e-41, 4.940417865823575e-41, -4.956112408624013e-41, 5.007820321957599e-41, -5.050139535580208e-41, 4.987641624071321e-41, -5.066674857459241e-41, -4.932010075037626e-41, 4.995909285010838e-41, -4.941538904595035e-41, -5.228945219628055e-41, -5.030100967540363e-41, 4.922481245480217e-41, -4.988062013610619e-41, 5.966728861095071e-41, 4.933831763041248e-41, 4.947564487991632e-41, 4.926124621487462e-41, 4.924443063330272e-41, 4.931309425805464e-41, -4.933271243655518e-41, -4.916315532237188e-41, -4.907207092219077e-41, 4.928086439337517e-41, -4.952048643077471e-41, -5.026037201993821e-41, 4.929487737801841e-41, 4.936213970430601e-41, 5.245760801199953e-41, 4.911831377151349e-41, -6.026704435368173e-41, -5.019871488750792e-41, 5.192931849094907e-41, 4.953029552002498e-41, -4.906506442986914e-41, 4.936634359969898e-41, -4.920519427630163e-41, 4.930608776573301e-41, -4.907627481758374e-41, 4.940277735977143e-41, -4.914353714387133e-41, -4.917856960547946e-41, 4.939717216591413e-41, -4.92430293348384e-41, -4.921360206708758e-41, -4.913653065154971e-41, -4.917576700855081e-41, -4.907907741451239e-41, -4.941538904595035e-41, -4.948545396916659e-41, 4.944902020909414e-41, 4.917016181469351e-41, -5.048177717730153e-41, -4.96213799202061e-41, 4.908188001144104e-41, -5.099745501217307e-41, -4.910009689147727e-41, -4.933551503348383e-41, -5.004036816103922e-41, 5.0350055121655e-41, -4.946583579066604e-41, -4.90566566390832e-41, -4.939436956898548e-41, 4.938035658434223e-41, -4.949946695380984e-41, -4.933411373501951e-41, 5.472771152420573e-41, -5.052101353430263e-41, -4.919678648551568e-41, -4.942659943366495e-41, 4.909869559301294e-41, 4.927946309491084e-41, 4.94125864490217e-41, -4.911831377151349e-41, 4.930048257187571e-41, -4.933691633194816e-41, 4.928086439337517e-41, 4.943780982137955e-41, 4.952188772923904e-41, 0.027293125167489052, 0.0941174179315567, 0.0248192697763443, -0.05411789193749428, 0.039999086409807205, -0.0038812020793557167, -0.032114580273628235, 0.014000708237290382, 0.0660095065832138, 0.035624291747808456, -0.041487038135528564, 0.06561130285263062, -0.05578179284930229, -0.024869201704859734, -0.04004458338022232, -0.010524846613407135, -0.04663607105612755, -0.008545726537704468, -0.23028123378753662, -0.3770233392715454, -0.1724207103252411, -0.2350536435842514, -0.35069921612739563, -0.12783245742321014, -0.31388410925865173, -0.2516219913959503, -0.0594305582344532, 0.04780902341008186, 0.07129783183336258, 0.027213204652071, 0.053791921585798264, 0.06824243068695068, 0.05957091599702835, 0.08099506050348282, 0.04159189388155937, 0.040047481656074524, -5.296627935454944e-41, -5.687309947308703e-41, 5.17331367059436e-41, 5.127771470503803e-41, 5.25122586521082e-41, -5.531765817768648e-41, -5.004597335489652e-41, -5.413356097533201e-41, 4.931869945191194e-41, 0.04664725065231323, 0.03271515294909477, 0.008090639486908913, 0.04119467735290527, 0.055120665580034256, 0.050742264837026596, -0.0626528263092041, -0.023987680673599243, -0.048610538244247437, 0.03359319269657135, -0.001541727571748197, 0.05610088258981705, 0.046704910695552826, 0.03636904060840607, 0.011470754630863667, -0.017352450639009476, 0.038639239966869354, -0.00597665598616004, 0.04450362175703049, 0.02385883964598179, 0.022246047854423523, 0.05348141863942146, 0.04597288742661476, 0.06164912134408951, -0.10731684416532516, -0.015482913702726364, 0.03718334063887596, 0.15000782907009125, 0.20451226830482483, 0.12856243550777435, 0.1998569220304489, 0.34461548924446106, 0.3364580571651459, 0.15935038030147552, 0.32553744316101074, 0.17353612184524536, 0.03161616995930672, -0.007829723879694939, 0.02450983040034771, 0.0035237157717347145, -0.027379753068089485, -0.01666281931102276, -0.013297058641910553, 0.041816867887973785, 0.003655180800706148, -0.0819307416677475, -0.04273264855146408, -0.021586956456303596, -0.09649275988340378, -0.05708685144782066, -0.027469443157315254, -0.1306581050157547, -0.0725078210234642, -0.03042876161634922, 0.02153099700808525, -0.014889616519212723, 0.005170382559299469, 0.039907123893499374, 0.058842819184064865, 0.02677636221051216, -0.04357215017080307, -0.020135022699832916, 0.014506837353110313, 0.07184900343418121, 0.04970724508166313, 0.11552645266056061, 0.06427576392889023, 0.08190664649009705, 0.061574824154376984, -0.0020345274824649096, 0.02873353101313114, 0.09105943888425827, 0.0063099330291152, 0.034141309559345245, 0.013582815416157246, 0.058231107890605927, 0.030621478334069252, 0.011325688101351261, 0.016660230234265327, 0.02430790662765503, 4.7690402425359935e-05, 0.0050600264221429825, 0.01352381706237793, -0.030385416001081467, -0.027768153697252274, -0.03277244418859482, -0.028575323522090912, -0.03977501764893532, 0.04315895214676857, 0.0032702062744647264, 0.03509371355175972, 0.06128519028425217, 0.06205957755446434, 0.0673399567604065, 0.10866063833236694, 0.05172256380319595, 0.035161375999450684, 0.07719873636960983, 0.05181972309947014, 0.06458859890699387, 0.12827569246292114, 0.07350317388772964, 0.002282150322571397, -8.113068179227412e-05, 0.012152453884482384, -0.02515772171318531, 0.06014508008956909, 0.09094972908496857, -0.036381643265485764, -0.049237512052059174, 0.038664232939481735, 0.027592409402132034, 0.07333002239465714, -0.003488041926175356, -0.004611703101545572, 0.001464950037188828, -0.020643409341573715, -0.34609517455101013, -0.3770473003387451, -0.2329040765762329, -0.2638978958129883, -0.38580018281936646, -0.21577104926109314, -0.3214185833930969, -0.3243083655834198, -0.006759038660675287, 0.06865616887807846, 0.045799970626831055, 0.023049473762512207, 0.026586398482322693, 0.07299033552408218, 0.04016028717160225, 0.07220854610204697, 0.035294029861688614, 0.014981844462454319, -5.20834613220248e-41, 5.24954430705363e-41, 5.200919250341559e-41, -5.284156379122453e-41, -5.460439725934515e-41, 5.029400318308201e-41, 5.59566502774186e-41, -4.942099423980765e-41, 5.19195094016988e-41, 0.05949605256319046, -0.04712795093655586, 0.04177568480372429, 0.0803615003824234, 0.03138132393360138, 0.02757311426103115, 0.021169302985072136, 0.031726986169815063, 0.054983943700790405, 0.08324716240167618, 0.00034598945057950914, 0.051583051681518555, 0.08866128325462341, 0.019958363845944405, 0.08336032181978226, 0.026531394571065903, 0.03757640719413757, 0.047932207584381104, 0.05208028480410576, -0.0038842307403683662, 0.021382851526141167, 0.09397443383932114, 0.06057994067668915, 0.02458646148443222, -0.10605435073375702, -0.019311439245939255, -0.00890982523560524, 0.06965936720371246, 0.1674407571554184, 0.08716560900211334, 0.1666741669178009, 0.2898499071598053, 0.27846476435661316, 0.20260582864284515, 0.35936254262924194, 0.2132304459810257, -0.010574079118669033, 0.03972356766462326, 0.03192371875047684, 0.004187141545116901, 0.018224753439426422, 0.01461696531623602, -0.01109342835843563, -0.035982318222522736, 0.017161324620246887, -0.07703341543674469, -0.04296106472611427, -0.03462230786681175, -0.08930560201406479, -0.06442421674728394, -0.0424337163567543, -0.12301739305257797, -0.07880260050296783, -0.033947840332984924, -0.032886307686567307, -0.024145912379026413, 0.05041779950261116, -0.03995285928249359, 0.03619595244526863, 0.060087885707616806, 0.055141232907772064, 0.03888709098100662, -0.03717346861958504, 0.07896623015403748, 0.04703250154852867, 0.03701130673289299, 0.0865061804652214, 0.06865926831960678, 0.019696786999702454, -0.040661029517650604, 0.058283884078264236, 0.04472348466515541, 0.07818562537431717, 0.053628236055374146, -0.025882016867399216, 0.07270270586013794, 0.06279568374156952, 0.04817146807909012, 0.0594189390540123, 0.016822809353470802, 0.012376357801258564, 0.0687483549118042, 0.009670744650065899, 0.009942957200109959, 0.023649105802178383, 0.036815088242292404, 0.029015466570854187, -0.013036142103374004, 0.03673458844423294, 0.05796460062265396, 0.06585986912250519, 0.07649751007556915, 0.015910137444734573, 0.0923570916056633, 0.08034544438123703, 0.03454580903053284, 0.0507979579269886, 0.033328283578157425, 0.02605855092406273, -0.11808011680841446, -0.002385694533586502, -0.04561248794198036, -0.07407400012016296, -0.08333192020654678, 0.013389252126216888, -0.10432353615760803, 0.02081798017024994, 0.024012278765439987, -0.06402347981929779, 0.032477881759405136, 0.04835432767868042, 0.04967569187283516, 0.011854431591928005, 0.03553680330514908, 0.03244919329881668, 0.011194526217877865, -0.015713391825556755, -0.10603926330804825, -0.25953516364097595, -0.10849680751562119, -0.13422709703445435, -0.21285562217235565, -0.03197503462433815, -0.254562646150589, -0.1582961529493332, -0.01682235300540924, 0.05038554593920708, 0.06654831022024155, 0.051264360547065735, 0.021242955699563026, 0.08489616215229034, 0.05102241411805153, 0.05563971400260925, 0.03693735599517822, 0.004157319664955139, -6.037634563389907e-41, 5.014546554586358e-41, 4.974469418506668e-41, 5.248143008589305e-41, -4.939156697205683e-41, -6.241523489949168e-41, -5.033043694315445e-41, 5.15131328470446e-41, -5.16882951550852e-41, 0.00701542105525732, 0.006720134988427162, 0.024924932047724724, 0.02141137421131134, 0.02198592945933342, 0.029729647561907768, -0.03931392729282379, -0.015544377267360687, 0.016933323815464973, 0.05009884014725685, 0.014999211765825748, -0.0228091012686491, 0.04808804392814636, -0.00735115772113204, 0.04258899763226509, 0.0146125927567482, 0.02646360546350479, -0.03880646824836731, 0.061087172478437424, 0.013306277804076672, 0.05557261407375336, 0.06576429307460785, 0.033654678612947464, 0.03268695995211601, -0.09205901622772217, -0.014281515963375568, 0.026010259985923767, 0.11440909653902054, 0.14752483367919922, 0.12621097266674042, 0.1342126727104187, 0.3061237633228302, 0.28361645340919495, 0.14182999730110168, 0.2179945558309555, 0.1319323182106018, 0.010207073763012886, 0.019675562158226967, 0.01753961853682995, 0.017758462578058243, -0.00653279572725296, -0.00019598464132286608, -0.022251194342970848, 0.005302994512021542, 0.039037492126226425, -0.07349667698144913, -0.05179709941148758, -0.03092239983379841, -0.08318508416414261, -0.0713077187538147, -0.041364267468452454, -0.11822909116744995, -0.07490237802267075, -0.034291405230760574, 0.013326636515557766, -0.025710329413414, -0.029023703187704086, -0.02664310298860073, -0.009863417595624924, 0.028634309768676758, 0.008876797743141651, 0.05225273594260216, -0.03663499653339386, 0.09176374226808548, 0.052994661033153534, 0.0691029354929924, 0.0787259191274643, 0.059535715728998184, 0.08672116696834564, -0.02317456714808941, 0.06155887991189957, 0.06551440805196762, 0.014235630631446838, 0.021369582042098045, -0.03223245590925217, 0.007196937222033739, 0.010007030330598354, -0.0233206395059824, 0.013516469858586788, -0.010987544432282448, -0.006283815950155258, -0.03028138168156147, -0.02043721452355385, 0.009776853956282139, -0.041485495865345, 0.026949729770421982, -0.002839315915480256, 0.010650505311787128, -0.03304991126060486, -0.012235283851623535, 0.06252411007881165, 0.07635242491960526, 0.02587534673511982, 0.10241490602493286, 0.108576200902462, 0.0595189668238163, 0.024885674938559532, 0.07374031096696854, 0.05525204911828041, 0.06878675520420074, 0.1281730681657791, 0.04995467886328697, -0.01074665505439043, -0.0019452598644420505, 0.010731312446296215, -0.05020584911108017, 0.07769762724637985, 0.06518498808145523, 0.013608886860311031, -0.0080461036413908, 0.04028502479195595, 0.04304508492350578, -0.030126579105854034, 0.06937897205352783, -0.034513574093580246, -0.043677836656570435, 0.04650823399424553, -0.27764949202537537, -0.3673546612262726, -0.20289771258831024, -0.253583699464798, -0.38363251090049744, -0.0982043594121933, -0.338133841753006, -0.16941167414188385, -0.07750275731086731, 0.07170689105987549, 0.0503297820687294, 0.02657928876578808, 0.03689619153738022, 0.07958292961120605, 0.04450947791337967, 0.05577563866972923, 0.03455531597137451, 0.013316362164914608, -5.267761187089852e-41, 4.917997090394378e-41, -5.264117811082608e-41, 5.944448215512306e-41, -4.920799687323028e-41, -5.17387418998009e-41, 5.2653789797005e-41, 5.304615336701595e-41, -5.814267588176531e-41, 0.03782736882567406, -0.018100209534168243, -0.015380391851067543, 0.034475989639759064, 0.060990553349256516, 0.01856287568807602, 0.01676217094063759, 0.03254041448235512, 0.03916657716035843, 0.0009059389121830463, 0.00016348619828931987, -0.014668840914964676, 0.04779082536697388, 0.041543737053871155, 0.059714075177907944, 0.08979867398738861, 0.07772853225469589, 0.005058010574430227, 0.03872176632285118, 0.039625540375709534, 0.044614650309085846, 0.07983856648206711, 0.00483305798843503, 0.02148067206144333, -0.08834194391965866, -0.044990524649620056, 0.055467329919338226, 0.09804940223693848, 0.1895177811384201, 0.1251118779182434, 0.17747290432453156, 0.33103618025779724, 0.2810496985912323, 0.2192797064781189, 0.3517124056816101, 0.187131866812706, -0.032511889934539795, 0.014213042333722115, 0.027373194694519043, -0.04339808225631714, 0.04733481630682945, -0.03228505328297615, -0.02429588884115219, -0.03157612308859825, -0.009577828459441662, -0.06800172477960587, -0.026461174711585045, -0.010839826427400112, -0.08094637840986252, -0.04942772164940834, -0.025031305849552155, -0.11731714010238647, -0.06362081319093704, -0.022553198039531708, 0.057957153767347336, 0.0022835845593363047, 0.0353270098567009, 0.03737059235572815, 0.05908910185098648, 0.042845871299505234, 0.02547525241971016, -0.00044457265175879, 0.002087187021970749, 0.0759957954287529, 0.08964582532644272, 0.04226984828710556, 0.07017654925584793, 0.055302634835243225, 0.06077853590250015, -0.020792696624994278, 0.02111782133579254, 0.03815465420484543, 0.030011536553502083, 0.04929342120885849, -0.008634354919195175, 0.05044548586010933, 0.029236996546387672, 0.010278361849486828, 0.041282836347818375, 0.03260542079806328, 0.024007001891732216, 0.06345868110656738, 0.00517901498824358, 0.03798225149512291, 0.015773944556713104, 0.01233359333127737, -0.007964485324919224, 0.041883401572704315, 0.042212046682834625, 0.024990728124976158, 0.03398030623793602, 0.07771798223257065, 0.03036312200129032, 0.02120351418852806, 0.08137831091880798, 0.03762305900454521, 0.020246127620339394, 0.03422824293375015, 0.014457027427852154, -0.04777514934539795, 0.023252958431839943, -0.003571419743821025, -0.09803827852010727, -0.030814368277788162, -0.006115170195698738, -0.07664547860622406, 0.04782494902610779, 0.07247933000326157, -0.06640233844518661, -0.026940064504742622, 0.022473648190498352, -0.019937532022595406, 0.014688026160001755, 0.0371854342520237, -0.05599214881658554, -0.04718024283647537, 0.018433719873428345, -0.1897219717502594, -0.34704697132110596, -0.09797459840774536, -0.17923708260059357, -0.26529598236083984, 0.004222667310386896, -0.2877545654773712, -0.17762982845306396, -0.005419730208814144, 0.0958067774772644, 0.04450495168566704, 0.027963384985923767, 0.057215090841054916, 0.070715993642807, 0.06695079803466797, 0.048173967748880386, 0.04509434103965759, 0.02762075699865818, -5.081388491334652e-41, 5.079987192870327e-41, 5.508224003567991e-41, -5.119784069257152e-41, -5.423585576322772e-41, -5.773069413325381e-41, -5.859529528574223e-41, 5.559791787055144e-41, -5.293404948986996e-41, 0.008600765839219093, -0.004131247755140066, -0.010274519212543964, -0.023459725081920624, -0.008427419699728489, -0.008759645745158195, -0.05190447345376015, -0.01275603100657463, -0.020667683333158493, 0.025141088292002678, 0.020129414275288582, -0.014762766659259796, -0.0114946523681283, 0.01001950167119503, 0.0280828345566988, -0.0914800837635994, -0.06508110463619232, -0.05333138257265091, 0.05947932228446007, 0.016388176009058952, 0.05714229866862297, 0.027817722409963608, -0.018367670476436615, 0.017543788999319077, -0.09128422290086746, -0.0024589502718299627, 0.05966167151927948, 0.21023249626159668, 0.17258182168006897, 0.168431356549263, 0.2073894888162613, 0.3590962588787079, 0.3347203731536865, 0.17669714987277985, 0.2377956211566925, 0.15094609558582306, -0.02344394661486149, -0.03534137085080147, 0.04803367331624031, -0.0583074577152729, -0.04187650606036186, -0.02282528392970562, -0.022635892033576965, -0.004575282800942659, -0.021782992407679558, -0.0788622498512268, -0.03365716710686684, -0.01536062452942133, -0.08659689128398895, -0.05350121483206749, -0.02511345036327839, -0.12204858660697937, -0.06271666288375854, -0.025980066508054733, -0.020643925294280052, 0.052803508937358856, -0.04583839327096939, 0.04914947971701622, -0.022465044632554054, 0.044968944042921066, 0.017407339066267014, 0.04839235916733742, -0.03578251227736473, 0.11199989169836044, 0.058596085757017136, 0.06342486292123795, 0.05571700632572174, 0.06471942365169525, 0.002455991692841053, -0.030145132914185524, 0.029908105731010437, 0.06395266205072403, 0.001678686123341322, 0.0059235296212136745, -0.04449203237891197, -0.013599044643342495, -0.029584161937236786, 0.009790209122002125, -0.022155769169330597, -0.031041067093610764, -0.05570955201983452, -0.044005878269672394, -0.014945968054234982, -0.025835201144218445, -0.05232048034667969, -0.007054620422422886, -0.024097466841340065, -0.033552490174770355, 0.0003793596988543868, -0.0030029851477593184, 0.09372720867395401, 0.09259547293186188, 0.023228000849485397, 0.07503242790699005, 0.10925653576850891, 0.07764679938554764, 0.07309867441654205, 0.08118462562561035, 0.06121433153748512, 0.023563330993056297, 0.018098458647727966, 0.058453477919101715, 0.11713424324989319, 0.019189562648534775, 0.06632299721240997, -0.0006000032881274819, -0.017442435026168823, 0.0173035915941, -0.012527420185506344, 0.04116809368133545, -0.05721016600728035, 0.04296039044857025, 0.010073049925267696, 0.015583712607622147, 0.01048016082495451, -0.013976574875414371, -0.0549657829105854, -0.0002234558342024684, 0.16134217381477356, 0.05386652052402496, 0.0484013669192791, 0.1450945883989334, 0.10285670310258865, -0.02706809528172016, 0.07008733600378036, 0.025189120322465897, 0.14670699834823608, 0.12009038776159286, 0.16679932177066803, 0.14444102346897125, 0.18152205646038055, 0.16450032591819763, 0.17713001370429993, 0.17328980565071106, 0.17027072608470917, -5.253748202446604e-41, -5.891198873867963e-41, -5.220397298995674e-41, -6.032449759071905e-41, -5.57142256430904e-41, 5.046356029726531e-41, 5.707348515348547e-41, 5.135198352364725e-41, -5.235531322410382e-41, -0.027227899059653282, 0.015879709273576736, -0.001269727130420506, -0.1237521693110466, -0.061406832188367844, -0.10231086611747742, -0.06182577461004257, -0.04031606391072273, -0.06272104382514954, 0.007855311036109924, 0.018631964921951294, 0.041779372841119766, -0.07322334498167038, -0.03504385054111481, -0.007924704812467098, -0.13869868218898773, -0.1189354881644249, -0.037656378000974655, 0.12384931743144989, 0.1413336992263794, 0.0768401026725769, 0.04156719148159027, 0.04484763741493225, 0.0326664038002491, 0.11231903731822968, 0.20252405107021332, 0.13074956834316254, 0.07028369605541229, 0.0041364324279129505, 0.07005757093429565, -0.0005456859362311661, -0.07406201213598251, 0.046644117683172226, 0.03663819283246994, -0.07668909430503845, 0.08234836161136627, -0.004039631225168705, -0.017202328890562057, 0.031187038868665695, -0.02153763361275196, 0.013193877413868904, -0.01651543192565441, 0.0023993770591914654, 0.06165817752480507, 0.057850033044815063, -0.05429049953818321, -0.06547747552394867, -0.07339045405387878, -0.07089859992265701, -0.08353765308856964, -0.09579647332429886, -0.10291478037834167, -0.11244002729654312, -0.12035252898931503, 0.047028228640556335, 0.12830466032028198, 0.038078129291534424, 0.0247286856174469, 0.09253272414207458, 0.025839094072580338, 0.049268689006567, 0.09280076622962952, 0.12148229777812958, 0.12747357785701752, 0.10573690384626389, 0.17032833397388458, 0.14023494720458984, 0.06688647717237473, 0.11750931292772293, 0.12106762081384659, 0.15220345556735992, 0.20584729313850403, 0.056037597358226776, 0.040756963193416595, 0.046103257685899734, 0.036300040781497955, 0.04343428090214729, 0.04165777936577797, -0.002483565593138337, -0.04590742290019989, 0.01416886318475008, 0.003105378244072199, -0.026425061747431755, 0.06245763599872589, -0.002245938405394554, 0.0011513016652315855, 0.0012659303611144423, -0.06074872240424156, -0.08776846528053284, 0.0008192097302526236, 0.16636933386325836, 0.1302320957183838, 0.1649802327156067, 0.11045937985181808, 0.11252937465906143, 0.1378270983695984, 0.17421971261501312, 0.1583109050989151, 0.21776483952999115, -0.14015859365463257, -0.03241261839866638, -0.06533917784690857, -0.10407119989395142, -0.07892527431249619, -0.009189746342599392, -0.14776137471199036, 0.023352626711130142, 0.030364837497472763, 0.004905325826257467, -0.0011041468242183328, -0.02749723009765148, -0.041203077882528305, 0.03750085085630417, 0.04568728804588318, -0.05678216367959976, 0.015430682338774204, -0.00949498638510704, 0.03461566939949989, -0.22211727499961853, -0.09480900317430496, -0.07001947611570358, -0.16892030835151672, -0.017833426594734192, -0.1613079458475113, -0.13525795936584473, -0.03145529702305794, 0.06883599609136581, 0.0512797050178051, 0.0612909309566021, 0.033361706882715225, 0.08852726966142654, 0.09128259122371674, 0.0811869353055954, 0.07706248760223389, 0.04263445734977722, -5.70748864519498e-41, 4.94350072244509e-41, -5.282474820965263e-41, -5.697819685791139e-41, -5.815248497101558e-41, 5.13043393758602e-41, -5.015667593357818e-41, 5.388272855021787e-41, -5.138561468679104e-41, 0.0008330965065397322, -0.030991246923804283, -0.019073328003287315, -0.005640912335366011, 0.0047507621347904205, -0.00061738834483549, -0.03019142895936966, 0.0031895902939140797, 0.0039161513559520245, -0.004555829335004091, -0.033078208565711975, 0.023062095046043396, -0.00434368709102273, 0.01643175072968006, 0.0014987608883529902, -0.007075098343193531, -0.027260808274149895, -0.01652779057621956, 0.06819156557321548, -0.017479337751865387, 0.017888261005282402, 0.05493602156639099, 0.014283858239650726, 0.02499236725270748, -0.04431196302175522, -0.023493023589253426, 0.03007374331355095, 0.08645400404930115, 0.06906069815158844, 0.0701073408126831, 0.10074827820062637, 0.22939559817314148, 0.21202197670936584, 0.07620490342378616, 0.16531074047088623, 0.08361411094665527, 0.020972909405827522, 0.02186841331422329, 0.015446248464286327, -0.016184551641345024, 0.05107499286532402, 0.0488993376493454, -0.017526276409626007, 0.011403215117752552, -0.00030716430046595633, -0.07630477845668793, -0.05521998926997185, -0.02674250677227974, -0.08989065140485764, -0.07352125644683838, -0.03856634721159935, -0.12879948318004608, -0.0792594626545906, -0.03571110591292381, 0.006583079230040312, 0.015651052817702293, 0.01308449823409319, 0.03352177143096924, 0.05803213268518448, 0.04856071621179581, 0.0025208359584212303, 0.06741900742053986, 0.04259876161813736, 0.13079316914081573, 0.13394556939601898, 0.10766830295324326, 0.0953797847032547, 0.1075620949268341, 0.10613877326250076, 0.036573413759469986, 0.05505812168121338, 0.08493952453136444, -0.02244577184319496, -0.030688205733895302, -0.03270728513598442, -0.002079571131616831, -0.023621464148163795, -0.0021341838873922825, -0.024543775245547295, -0.012094494886696339, -0.04850585758686066, -0.020794428884983063, -0.05716622993350029, -0.022062810137867928, -0.04969727620482445, -0.029598606750369072, -0.02778964303433895, -0.035532623529434204, 0.002138551091775298, -0.0024076143745332956, 0.07550082355737686, 0.08151795715093613, 0.07136018574237823, 0.11330472677946091, 0.15445539355278015, 0.10604797303676605, 0.07772021740674973, 0.10582814365625381, 0.1181429848074913, 0.04539809376001358, 0.08329683542251587, 0.08657445013523102, 0.033054083585739136, 0.04601028934121132, 0.02654840797185898, 0.05328761413693428, 0.02503124065697193, 0.11148657649755478, -0.05677850544452667, -0.040265489369630814, 0.04948493465781212, -0.022372357547283173, 0.050279028713703156, -0.025448445230722427, 0.021990185603499413, 0.062092121690511703, 0.0405801497399807, -0.19233177602291107, -0.23969295620918274, -0.15903089940547943, -0.19314618408679962, -0.291888564825058, -0.21962496638298035, -0.19879384338855743, -0.2155785709619522, -0.06895918399095535, 0.04274464771151543, 0.05238785222172737, 0.028798893094062805, 0.016047222539782524, 0.053584493696689606, 0.04323406144976616, 0.05465327575802803, 0.037298183888196945, -0.0018354419153183699, 5.258933006764606e-41, 5.26706053785769e-41, -5.447267520369861e-41, -4.909869559301294e-41, 5.522797507596969e-41, 5.222359116845728e-41, 4.94462176121655e-41, 5.194753537098529e-41, 5.07676420640238e-41, -0.015729451552033424, -0.0397256501019001, -0.03358037397265434, 0.0721307247877121, 0.05411919951438904, 0.05101391300559044, 0.011414464563131332, -0.007581136655062437, -0.005998669657856226, 0.021134115755558014, 0.026823708787560463, 0.019971735775470734, 0.06392394006252289, 0.004821596201509237, 0.0441160686314106, 0.022378815338015556, 0.0443078838288784, 0.029512403532862663, 0.031317584216594696, -0.015167536213994026, 0.033356066793203354, 0.045760203152894974, 0.03552961349487305, 0.03185411915183067, -0.05561645328998566, -0.011374054476618767, 0.021098587661981583, 0.012941635213792324, 0.08890830725431442, 0.009690288454294205, 0.06606824696063995, 0.15221217274665833, 0.16858258843421936, 0.13919179141521454, 0.295166552066803, 0.1486852914094925, 0.01372822280973196, 0.03795755282044411, 0.007084001321345568, -0.01089339517056942, 0.031942736357450485, -0.02456631511449814, -0.04909784719347954, -0.019588155671954155, -0.02038385532796383, -0.06634434312582016, -0.04257890582084656, -0.030457327142357826, -0.08025611191987991, -0.07017800211906433, -0.046279579401016235, -0.11848928779363632, -0.07784320414066315, -0.030359001830220222, 0.0212249718606472, 0.006993590388447046, 0.030020195990800858, 0.042563095688819885, 0.07658997923135757, 0.011531872674822807, 0.018752427771687508, 0.026973072439432144, 0.03154568374156952, 0.03715557977557182, 0.05134023353457451, 0.021256383508443832, 0.02053740993142128, 0.04864661023020744, 0.06455168128013611, -0.04441140219569206, 0.03494265303015709, 0.06459039449691772, 0.0800713375210762, 0.05742073804140091, -0.013350391760468483, 0.08984972536563873, -0.005140647757798433, 0.032266389578580856, 0.08028741925954819, 0.07098795473575592, 0.012099764309823513, 0.03720363229513168, 0.04544823244214058, 0.03181944787502289, 0.019863314926624298, 0.016989167779684067, 7.527054094680352e-06, 0.022883376106619835, 0.05215918645262718, 0.04434601217508316, 0.02486928179860115, 0.022837193682789803, 0.019113624468445778, 0.019208874553442, 0.07687113434076309, 0.05561777576804161, 0.013960599899291992, 0.05943950638175011, 0.019040148705244064, -0.02334083802998066, 0.07046321779489517, -0.00795067846775055, -0.03942965716123581, -0.0005069424514658749, 0.01978573389351368, -0.03838741034269333, 0.05136728286743164, 0.0452907532453537, -0.039153896272182465, 0.0491899698972702, -0.03945077210664749, 0.03344839811325073, -0.05591422691941261, -0.03595109283924103, -0.02397775463759899, -0.03161677345633507, 0.02089647203683853, -0.33854448795318604, -0.37484726309776306, -0.17897698283195496, -0.24668580293655396, -0.3923798203468323, -0.0991671085357666, -0.3966083824634552, -0.24294401705265045, -0.07578776031732559, 0.08899250626564026, 0.05053138732910156, 0.044250041246414185, 0.05008906498551369, 0.08518137782812119, 0.04425720497965813, 0.04176833853125572, 0.05677415430545807, 0.0011141013819724321, -6.173140124890117e-41, 5.260054045536066e-41, -5.23034651809238e-41, -5.410693630450984e-41, -5.439420248969642e-41, 6.212516611737644e-41, -4.957373577241905e-41, 5.004597335489652e-41, -5.865835371663684e-41, -0.003794232616201043, 0.01746545359492302, -0.02328084595501423, 0.011614258401095867, -0.006999077275395393, 0.05795124173164368, -0.010723419487476349, -0.010769986547529697, -0.001516179065220058, 0.0393727570772171, -0.0040268683806061745, 0.03334249183535576, 0.01631447859108448, 0.04159087315201759, 0.033351268619298935, 0.020171644166111946, 0.08378328382968903, 0.0354529544711113, 0.07384812086820602, 0.0027758015785366297, 0.043943632394075394, 0.07985680550336838, 0.03670746088027954, 0.011874227784574032, -0.11413276940584183, -0.04469572752714157, 0.03937864676117897, 0.16891218721866608, 0.22172613441944122, 0.17017512023448944, 0.23260511457920074, 0.3756372034549713, 0.32582005858421326, 0.23914530873298645, 0.34810468554496765, 0.17337055504322052, 0.007413922809064388, 0.01764107681810856, -0.01215014886111021, -0.04337393864989281, -0.021116508170962334, -0.020953578874468803, -0.00637810630723834, 0.028168993070721626, -0.004961797501891851, -0.05757909640669823, -0.013168352656066418, 0.0003294004709459841, -0.06636195629835129, -0.035420339554548264, -0.015203380025923252, -0.11343774944543839, -0.055314820259809494, -0.018765442073345184, 0.016264447942376137, -0.045248184353113174, -0.0014272964326664805, 0.0689830556511879, 0.026906777173280716, 0.018075181171298027, -0.060006581246852875, -0.0024093501269817352, 0.04369746521115303, 0.05264806002378464, 0.05733218416571617, 0.07774055004119873, 0.06832124292850494, 0.10517555475234985, 0.007989584468305111, 0.008527089841663837, 0.03328435868024826, 0.06068796291947365, 0.05588351562619209, 0.014009938575327396, 0.0070166816003620625, 0.03531258925795555, 0.042360033839941025, 0.020194636657834053, 0.02641509473323822, 0.015074655413627625, 0.0015616596210747957, 0.015360871329903603, 0.024714553728699684, 0.03710239753127098, -0.02113364078104496, 0.012093434110283852, -0.003422773675993085, 0.018546465784311295, 0.021277224645018578, 0.023400677368044853, 0.06172150373458862, 0.08047165721654892, 0.05300344154238701, 0.06663328409194946, 0.12418003380298615, 0.08209004998207092, 0.054638467729091644, 0.04635767266154289, 0.07651146501302719, -4.954851240006121e-41, 4.940277735977143e-41, 4.933271243655518e-41, -4.904684754983292e-41, 4.930608776573301e-41, 4.945742799988009e-41, -4.930328516880436e-41, -4.943780982137955e-41, 4.934252152580546e-41, -4.906926832526212e-41, -4.948685526763091e-41, -4.923602284251677e-41, 4.937194879355628e-41, -4.951488123691741e-41, 4.907066962372644e-41, -4.932430464576924e-41, -4.948965786455956e-41, -4.940557995670008e-41, -4.978813443746075e-41, 6.06888351914435e-41, 5.023094475218739e-41, -5.146268610232891e-41, 5.113057836628393e-41, 4.970405652960126e-41, 4.954010460927526e-41, 4.957793966781203e-41, -4.987081104685591e-41, -5.004737465336084e-41, -4.927666049798219e-41, -4.912391896537079e-41, -4.97797266466748e-41, 4.91813722024081e-41, 4.972087211117316e-41, 4.953169681848931e-41, -4.967462926185044e-41, -5.675398910361942e-41, -4.919398388858703e-41, -4.907207092219077e-41, 5.293965468372726e-41, -4.9638195501778e-41, -4.9638195501778e-41, 5.0022151281003e-41, -5.984245091899131e-41, -4.948965786455956e-41, -5.051120444505236e-41, -5.245760801199953e-41, 4.935793580891303e-41, 4.946583579066604e-41, -5.809082783858529e-41, 4.925283842408867e-41, 4.919398388858703e-41, 4.916035272544323e-41, -4.956813057856175e-41, -4.961297212942015e-41, -4.991285000078566e-41, 4.935373191352006e-41, 5.013986035200628e-41, -4.998151362553758e-41, -4.965501108334989e-41, -4.922200985787352e-41, 5.007960451804031e-41, 4.947564487991632e-41, 4.971386561885154e-41, -4.995629025317973e-41, -4.997030323782298e-41, -4.998711881939487e-41, 4.957934096627635e-41, -4.95653279816331e-41, -5.001794738561002e-41, -4.994788246239378e-41, -4.950927604306011e-41, -4.981756170521157e-41, 4.904824884829725e-41, -5.193772628173502e-41, 5.000253310250245e-41, 5.096662644595792e-41, -5.329978838905874e-41, -4.922481245480217e-41, -5.003336166871759e-41, 5.109974980006878e-41, 5.112217057549798e-41, 5.717718123984551e-41, 4.908468260836969e-41, 4.956252538470445e-41, 5.003896686257489e-41, 4.915614883005026e-41, 4.925283842408867e-41, -4.983437728678347e-41, 4.996189544703703e-41, -4.99492837608581e-41, 6.138808312514159e-41, 4.920659557476595e-41, -5.061490053141239e-41, 4.917856960547946e-41, 4.952889422156066e-41, 5.255429760603794e-41, 5.675398910361942e-41, 5.146548869925756e-41, 5.007119672725436e-41, -4.932010075037626e-41, 4.935793580891303e-41, 4.934112022734113e-41, -4.940838255362873e-41, 4.938736307666385e-41, 4.908047871297672e-41, -4.936354100277033e-41, 4.90622618329405e-41, 4.927806179644652e-41, -4.922901635019515e-41, -4.933411373501951e-41, 4.934392282426978e-41, -4.906646572833347e-41, -4.910430078687024e-41, -4.923462154405245e-41, 4.913793195001404e-41, 4.917997090394378e-41, -4.921640466401623e-41, -4.931449555651896e-41, -4.955692019084716e-41, -6.260581149063985e-41, -4.923602284251677e-41, -4.928226569183949e-41, -4.938876437512818e-41, -4.940277735977143e-41, 4.915474753158593e-41, -4.947844747684497e-41, -5.048177717730153e-41, 5.447828039755591e-41, 5.02085239767582e-41, 5.023795124450902e-41, -5.044394211876476e-41, 5.043413302951449e-41, -5.043413302951449e-41, 5.026177331840254e-41, 4.9802147422104e-41, 6.149738440535892e-41, 4.949666435688119e-41, 4.920519427630163e-41, 4.927385790105354e-41, 4.918557609780108e-41, 4.935513321198438e-41, 4.929207478108977e-41, 4.919538518705135e-41, -4.941118515055737e-41, 0.05964087322354317, 0.12456332892179489, 0.02632797136902809, 0.01024246122688055, -0.012703867629170418, 0.011682331562042236, -0.04627395421266556, 0.006986028514802456, 0.04633430019021034, -0.0009264875552617013, 0.022326624020934105, -0.010081250220537186, -0.013876715674996376, 0.03827223926782608, -0.0067711323499679565, -0.002047507558017969, -0.03756462410092354, 0.039832111448049545, -0.3939001262187958, -0.46182021498680115, -0.2728731632232666, -0.33531859517097473, -0.4861932396888733, -0.1729305386543274, -0.4078041911125183, -0.2957507073879242, -0.07860544323921204, 0.07268548756837845, 0.06299395859241486, 0.018649747595191002, 0.042235977947711945, 0.07448764890432358, 0.024456936866044998, 0.052514318376779556, 0.06313225626945496, 0.0017143543809652328, -5.701182802105518e-41, -5.124548484035856e-41, 5.348475978634962e-41, -5.193772628173502e-41, 5.672316053740427e-41, 5.510045691571613e-41, 5.384909738707407e-41, 6.185891940915472e-41, -4.995208635778675e-41, 0.01915905810892582, 0.036298226565122604, -0.022999238222837448, 0.05295315757393837, 0.021857233718037605, 0.01904178410768509, 0.01162774208933115, 0.014749497175216675, -0.017314404249191284, 0.08986906707286835, 0.02020665444433689, 0.07123880088329315, 0.05600500851869583, 0.1000773087143898, 0.08199962973594666, 0.054184239357709885, 0.08142600208520889, 0.0574481375515461, 0.0494198240339756, 0.028415007516741753, 0.06707434356212616, 0.07740084081888199, 0.05862196162343025, 0.033320311456918716, -0.11627215892076492, -0.04650884494185448, 0.04154106229543686, 0.15514013171195984, 0.25388118624687195, 0.1611821949481964, 0.2382480651140213, 0.38213878870010376, 0.3564191162586212, 0.2809526324272156, 0.42987731099128723, 0.22065411508083344, -0.03217368572950363, 0.011119326576590538, 0.014092118479311466, -0.001576302805915475, 0.00640096003189683, 0.031034061685204506, -0.011408299207687378, 0.017866449430584908, -0.020163390785455704, -0.04086202383041382, 0.0032816054299473763, 0.027510086074471474, -0.06194441393017769, -0.01651580072939396, 0.022457441315054893, -0.1041475459933281, -0.03446593135595322, 0.02296997606754303, 0.05770402401685715, 0.046540576964616776, 0.013601901941001415, 0.04213263839483261, -0.007171079982072115, 0.024928627535700798, 0.03011176362633705, -0.02574470080435276, -0.00013758160639554262, 0.0877605751156807, 0.08429664373397827, 0.057499293237924576, 0.07578380405902863, 0.09545156359672546, 0.04931012541055679, -0.017895258963108063, 0.040373463183641434, 0.06688380241394043, 0.03659052029252052, 0.04242188110947609, 0.01460113562643528, 0.057135239243507385, 0.04279327392578125, 0.029390176758170128, 0.034014057368040085, 0.03364529088139534, 0.04419321194291115, 0.051298368722200394, 0.002719523850828409, 0.02521989680826664, 0.012490584515035152, 0.05776933208107948, 0.04092568904161453, -0.010238866321742535, 0.06569693237543106, 0.02678806334733963, 0.06722254306077957, 0.08909514546394348, 0.05923296883702278, 0.07815569639205933, 0.08456213772296906, 0.04018481820821762, 0.06347460299730301, 0.060166265815496445, 0.027562802657485008, -0.1253434121608734, -0.029837876558303833, -0.039141878485679626, -0.09353864192962646, -0.06242350488901138, -0.015007349662482738, -0.10370339453220367, -0.004315241705626249, 0.027115629985928535, 0.027659106999635696, -0.03540728613734245, 0.04149845615029335, -0.029975129291415215, 0.05933019891381264, -0.002546737901866436, -0.002721254015341401, 0.011009884998202324, 0.047729067504405975, -0.033806998282670975, -0.19078414142131805, -0.10462866723537445, -0.12615501880645752, -0.20837949216365814, -0.07531627267599106, -0.19867481291294098, -0.1615850180387497, -0.02797255851328373, 0.05928916856646538, 0.06311041861772537, 0.04722629860043526, 0.03167878836393356, 0.051519885659217834, 0.043366190046072006, 0.05745929107069969, 0.03904274106025696, 0.015052319504320621, -6.099151565973766e-41, -5.738317211410126e-41, 5.059107845751887e-41, -6.050386379415263e-41, -5.300691701001486e-41, -5.181160941994579e-41, -4.939857346437845e-41, 5.050840184812371e-41, 5.249123917514332e-41, 0.029649147763848305, -0.019173238426446915, 0.016145596280694008, 0.04638759046792984, -0.012346324510872364, 0.009382950142025948, -0.024184200912714005, -0.0025349624920636415, 0.01760610193014145, 0.04513249918818474, -0.0053421505726873875, 0.047757185995578766, 0.018749142065644264, 0.03360392898321152, 0.05522315576672554, 0.07155825197696686, 0.07885883748531342, 0.008628015406429768, 0.05278889462351799, -0.021956149488687515, 0.002963180420920253, 0.04205549508333206, 0.017681259661912918, 0.0007116576889529824, -0.06341646611690521, -0.007601130288094282, 0.02926837094128132, 0.049871478229761124, 0.08273021131753922, 0.06773404031991959, 0.09189914166927338, 0.19911517202854156, 0.201926589012146, 0.12166984379291534, 0.21861423552036285, 0.09426946938037872, -0.012531471438705921, -0.0018048787023872137, 0.028066452592611313, -0.04038204997777939, -0.008268258534371853, -0.007686214987188578, 0.01657898537814617, 0.017733892425894737, 0.0087850047275424, -0.05628711357712746, -0.03335268050432205, -0.015670575201511383, -0.07161150872707367, -0.05725385621190071, -0.030285336077213287, -0.10679026693105698, -0.06171966716647148, -0.020036738365888596, 0.02060028538107872, 0.007771883625537157, -0.019150344654917717, 0.0609164759516716, 0.06931823492050171, -0.01922738365828991, 0.04478088766336441, 0.015848344191908836, 0.015035883523523808, 0.09739863127470016, 0.07162056118249893, 0.08908002078533173, 0.07680214196443558, 0.06993935257196426, 0.03689815104007721, -0.038237594068050385, 0.06155329942703247, 0.058024898171424866, 0.002269396325573325, -0.003299855161458254, -0.037560272961854935, 0.011920361779630184, 0.025626935064792633, 0.014700019732117653, 0.03408508002758026, 0.007023191079497337, -0.02971901372075081, 0.004299409221857786, 0.0017826430266723037, -0.034162383526563644, -0.004052846226841211, -0.014125136658549309, -0.013707300648093224, 0.014073289930820465, 0.012211455963551998, 0.008912624791264534, 0.04855908453464508, 0.06397992372512817, 0.03139316663146019, 0.07803425192832947, 0.09074196219444275, 0.05548044666647911, 0.0380755253136158, 0.058437999337911606, 0.0729263424873352, 0.01957644149661064, 0.06729522347450256, 0.05990856885910034, 0.017383310943841934, -0.012985887937247753, -0.0015315766213461757, -0.0011206894414499402, 0.0013571021845564246, 0.03004457615315914, 0.021110454574227333, 0.012122133746743202, 0.03054661862552166, -0.03163658827543259, 0.03182898461818695, 0.06339497864246368, -0.04096941277384758, -0.013638436794281006, -0.03670760616660118, -0.3048354685306549, -0.3340284824371338, -0.2002628743648529, -0.25132450461387634, -0.3938088119029999, -0.1730247139930725, -0.30953270196914673, -0.29682379961013794, -0.01968557760119438, 0.05545881390571594, 0.04594821855425835, 0.04310089349746704, 0.021275300532579422, 0.061987075954675674, 0.027094107121229172, 0.06778472661972046, 0.038652487099170685, -0.015410630032420158, -5.26425794092904e-41, -4.989042922535646e-41, -5.336424811841768e-41, -5.658863588482909e-41, 5.168969645354953e-41, -5.162944061958356e-41, 4.914073454694269e-41, 5.979620806966859e-41, 5.522096858364807e-41, -0.004491612780839205, -0.0021605221554636955, 0.015153099782764912, 0.03283170610666275, 0.051517266780138016, 0.03772269934415817, 0.03125382214784622, 0.008845910429954529, 0.05544721335172653, 0.08808062970638275, 0.055055152624845505, 0.05655423551797867, 0.035921890288591385, 0.017551934346556664, 0.08451499044895172, 0.07207943499088287, 0.1075349897146225, 0.04367062449455261, 0.05433819070458412, 0.025624141097068787, 0.030098536983132362, 0.0985250174999237, 0.01356505323201418, 