{
  "format": "vision_only_vla",
  "num_params": 28004,
  "weights": {
    "conv1_weight": [
      0.4447256922721863,
      0.4360570013523102,
      0.5112117528915405,
      0.48696616291999817,
      0.5115322470664978,
      -0.3515734076499939,
      -0.3065780997276306,
      -0.8967033624649048,
      -0.8645991683006287,
      0.305554062128067,
      0.26632338762283325,
      0.33850470185279846,
      0.3938536047935486,
      0.31638258695602417,
      -0.20981262624263763,
      -0.2969776690006256,
      -0.5263208746910095,
      -0.5011196136474609,
      0.46974724531173706,
      0.416924387216568,
      0.1571265161037445,
      0.6343815922737122,
      0.4727826416492462,
      -0.4392549395561218,
      -0.1777120977640152,
      -0.6988908052444458,
      -0.9602736830711365,
      -0.23321305215358734,
      -0.13309195637702942,
      0.08934422582387924,
      -0.22636325657367706,
      -0.1238710805773735,
      0.183903768658638,
      -0.08337872475385666,
      -0.022326791658997536,
      0.13508287072181702,
      0.16051998734474182,
      0.2420460730791092,
      0.31510457396507263,
      0.1131567731499672,
      0.20792002975940704,
      0.2500130534172058,
      0.14518582820892334,
      0.19007815420627594,
      0.2715224623680115,
      -0.6093670725822449,
      -0.37331923842430115,
      -0.07895459979772568,
      -0.6155151724815369,
      -0.42711398005485535,
      -0.05772487819194794,
      -0.5788601636886597,
      -0.49791833758354187,
      -0.2671871781349182,
      -0.501621663570404,
      -0.2528947591781616,
      0.13161535561084747,
      -0.4611368179321289,
      -0.06352853775024414,
      -0.4921334683895111,
      0.1469353288412094,
      -0.24406811594963074,
      -0.21358908712863922,
      -0.16221514344215393,
      -0.19339977204799652,
      0.12036141008138657,
      -0.16482675075531006,
      -0.09053181111812592,
      -0.42862194776535034,
      0.37988966703414917,
      0.08931732177734375,
      0.044585879892110825,
      0.15816880762577057,
      0.17125025391578674,
      0.4397382140159607,
      0.10640428960323334,
      0.3508850634098053,
      0.04896922409534454,
      0.8071112632751465,
      0.26865479350090027,
      0.2877442538738251,
      -0.000293060700641945,
      -0.09558594226837158,
      -0.16702939569950104,
      -0.024111308157444,
      0.06113984063267708,
      0.022367209196090698,
      -0.23004454374313354,
      -0.028196878731250763,
      -0.03499219939112663,
      0.026445049792528152,
      -0.0791698545217514,
      0.00733362277969718,
      0.06756129115819931,
      0.10044662654399872,
      0.03675362095236778,
      -0.28850939869880676,
      0.04267440363764763,
      0.14936929941177368,
      0.5088093876838684,
      0.32397201657295227,
      0.31624487042427063,
      0.3169703781604767,
      0.3846491873264313,
      0.4145544767379761,
      0.08178165555000305,
      0.37386074662208557,
      0.3457585871219635,
      -0.1377333253622055,
      0.38398030400276184,
      0.2285383641719818,
      -0.8526473045349121,
      -0.6488232016563416,
      -0.33514824509620667,
      0.10058267414569855,
      -0.043615855276584625,
      -0.15742218494415283,
      0.29360613226890564,
      0.6799668669700623,
      0.5451614260673523,
      -0.4815908372402191,
      -0.42546847462654114,
      -0.0892980769276619,
      0.0650557279586792,
      -0.05191708356142044,
      -0.07461187988519669,
      0.22827385365962982,
      0.6056385040283203,
      0.5824182033538818,
      -0.6711001396179199,
      -0.5129151940345764,
      -0.05319690331816673,
      0.04053197428584099,
      -0.21664130687713623,
      -0.17965109646320343,
      -0.033407047390937805,
      0.10443457216024399,
      -0.19698680937290192,
      -0.2244083136320114,
      0.2575935423374176,
      0.27383142709732056,
      -0.26715630292892456,
      -0.36515238881111145,
      0.029438192024827003,
      0.057820774614810944,
      0.2845478355884552,
      -0.08835196495056152,
      -0.18866479396820068,
      0.2815113663673401,
      0.37820199131965637,
      -0.3610371947288513,
      -0.3846054673194885,
      -0.08921393752098083,
      0.10557246208190918,
      0.381425142288208,
      0.11184114217758179,
      -0.035894423723220825,
      0.4370034337043762,
      0.5350890159606934,
      -0.23915468156337738,
      -0.2430468052625656,
      0.023273110389709473,
      4.90622618329405e-41,
      4.917156311315783e-41,
      4.950647344613146e-41,
      4.925984491641029e-41,
      4.951908513231039e-41,
      4.930889036266166e-41,
      4.935933710737736e-41,
      4.908468260836969e-41,
      4.94350072244509e-41,
      4.935933710737736e-41,
      4.935933710737736e-41,
      4.945462540295144e-41,
      4.918277350087243e-41,
      4.910710338379889e-41,
      4.911551117458484e-41,
      4.936213970430601e-41,
      4.906506442986914e-41,
      4.944341501523685e-41,
      4.907347222065509e-41,
      4.925564102101732e-41,
      4.934392282426978e-41,
      4.916455662083621e-41,
      4.91869773962654e-41,
      4.941679034441467e-41,
      4.948545396916659e-41,
      4.916455662083621e-41,
      4.950647344613146e-41,
      0.09285430610179901,
      0.030957497656345367,
      -0.4172040820121765,
      0.5998139977455139,
      -0.3191535174846649,
      0.426628977060318,
      -0.16563035547733307,
      -0.05148209631443024,
      0.17299620807170868,
      -0.04856191948056221,
      -0.03395453467965126,
      -0.4913749098777771,
      0.3222784101963043,
      -0.41511473059654236,
      0.11327306181192398,
      -0.3045795261859894,
      -0.1916865110397339,
      0.0910506546497345,
      -0.0175472442060709,
      0.0460815504193306,
      -0.36149534583091736,
      0.4383032023906708,
      -0.3665083050727844,
      0.2677571773529053,
      -0.1483622044324875,
      -0.019741300493478775,
      0.2363486886024475,
      0.010666976682841778,
      -0.0023078115191310644,
      0.11241976916790009,
      -0.24256156384944916,
      0.015645118430256844,
      0.21387316286563873,
      -0.10642091929912567,
      0.1572425812482834,
      0.06960273534059525,
      -0.3748549520969391,
      -0.2320563942193985,
      0.030546460300683975,
      -0.7162051200866699,
      -0.32028669118881226,
      0.030039401724934578,
      -0.710232138633728,
      -0.503196120262146,
      -0.5801106691360474,
      0.3065662086009979,
      0.37811794877052307,
      0.4131210446357727,
      -0.08989038318395615,
      0.14952564239501953,
      0.3344739079475403,
      -0.014269919134676456,
      0.018525565043091774,
      -0.15856386721134186,
      -0.22052758932113647,
      -0.11542391031980515,
      -0.29031598567962646,
      0.3847592771053314,
      0.22352711856365204,
      -0.40799519419670105,
      0.5893224477767944,
      0.17414812743663788,
      0.08436540514230728,
      -0.2817489206790924,
      -0.14761972427368164,
      -0.4784669876098633,
      0.2259969413280487,
      -0.11332310736179352,
      -0.6316530108451843,
      0.5723236203193665,
      -0.1417299211025238,
      0.0640241950750351,
      -0.19964849948883057,
      0.198172464966774,
      -0.15462471544742584,
      0.3300909399986267,
      0.0770544707775116,
      -0.5294203162193298,
      0.42031702399253845,
      0.15596365928649902,
      0.16257011890411377,
      -0.6289049983024597,
      -0.19993315637111664,
      -0.22315731644630432,
      -0.4247779846191406,
      -0.11122757941484451,
      0.34435713291168213,
      0.1385299563407898,
      0.025283189490437508,
      0.15354512631893158,
      0.030895862728357315,
      0.26180604100227356,
      0.2980082035064697,
      0.17254295945167542,
      0.30163517594337463,
      0.5365515351295471,
      0.2849331796169281,
      0.2374524176120758,
      0.16885940730571747,
      -0.5810468196868896,
      -0.2620290219783783,
      -0.225227490067482,
      -0.4653022885322571,
      -0.2331082820892334,
      0.31694960594177246,
      -0.19421952962875366,
      -0.018828142434358597,
      0.16536417603492737,
      -0.5970179438591003,
      -0.44349440932273865,
      -0.5864814519882202,
      -0.20096434652805328,
      0.11264511942863464,
      0.3522794544696808,
      0.5223103761672974,
      0.5982435345649719,
      0.14214003086090088,
      -0.1841484159231186,
      -0.3722420930862427,
      -0.4595649242401123,
      0.00011811961303465068,
      0.14144621789455414,
      0.2356247752904892,
      0.31663140654563904,
      0.4055154323577881,
      -0.012294797226786613,
      -0.7441730499267578,
      -0.3073574900627136,
      -0.35589244961738586,
      -0.39280185103416443,
      0.14171858131885529,
      0.4868200421333313,
      0.29456961154937744,
      0.5605350732803345,
      0.35145825147628784,
      -2.044676927770439e-12,
      -2.827314554351701e-12,
      -5.631227363751823e-13,
      -4.761791221746803e-12,
      -3.027390187496093e-12,
      -5.606960208626166e-13,
      -4.986615287361218e-12,
      -4.1511152154560804e-12,
      -5.3522740709952e-13,
      -2.3425967832224615e-09,
      -3.7162812827062908e-09,
      -1.8949153357539217e-09,
      -1.8579038307819928e-09,
      -2.016124378556583e-09,
      -8.933458417459406e-10,
      -1.145076478081819e-09,
      -1.4696417416359964e-09,
      -5.189839114017047e-10,
      4.9468623641857334e-12,
      -5.7370748776652825e-12,
      -1.303901864951884e-12,
      5.59561858654023e-12,
      1.1229716158703273e-13,
      2.5771114300736364e-13,
      5.7236901850055144e-12,
      1.9907221758628385e-13,
      1.911634235239254e-13,
      4.941538904595035e-41,
      4.916455662083621e-41,
      -4.945742799988009e-41,
      4.930748906419734e-41,
      4.915334623312161e-41,
      -4.918977999319405e-41,
      4.949666435688119e-41,
      4.908047871297672e-41,
      6.07280715484446e-41,
      4.952328902770336e-41,
      4.944761891062982e-41,
      4.932990983962654e-41,
      4.937475139048493e-41,
      4.946023059680874e-41,
      4.93901656735925e-41,
      4.930608776573301e-41,
      4.906366313140482e-41,
      4.946863838759469e-41,
      4.950647344613146e-41,
      4.949105916302389e-41,
      4.914353714387133e-41,
      4.947144098452334e-41,
      4.938736307666385e-41,
      4.930889036266166e-41,
      4.929767997494706e-41,
      4.941118515055737e-41,
      4.944201371677252e-41,
      -2.7448803464641894e-26,
      -1.008957431120049e-27,
      -4.2725819934648477e-29,
      -5.449561777942055e-28,
      -2.0113075021575157e-28,
      -3.2921209821615004e-31,
      -2.2829880273534613e-29,
      -1.734951985146994e-30,
      -3.854858868737007e-33,
      -1.7527491890904095e-18,
      -3.602306427195197e-19,
      -1.0120973554771399e-19,
      -7.268673856929563e-20,
      -4.3034058443374194e-20,
      -3.1580134141688952e-21,
      -5.455336111350345e-21,
      -1.3559772256570747e-21,
      -1.6264210340205755e-22,
      -4.313642891042295e-23,
      -4.9102094842848225e-24,
      -7.987229484352454e-25,
      -1.0868243927009183e-25,
      -1.0388346558293803e-25,
      -9.456340101065633e-28,
      -4.643606800017148e-28,
      -6.42235705768369e-29,
      -9.038257573642006e-31,
      4.919958908244433e-41,
      4.936914619662763e-41,
      4.912672156229944e-41,
      4.917856960547946e-41,
      4.935653451044871e-41,
      4.952188772923904e-41,
      4.938596177819953e-41,
      4.920239167937298e-41,
      4.927245660258922e-41,
      4.920239167937298e-41,
      4.929207478108977e-41,
      4.926264751333894e-41,
      4.949526305841686e-41,
      4.939296827052115e-41,
      4.931309425805464e-41,
      4.92150033655519e-41,
      4.910289948840591e-41,
      4.926404881180327e-41,
      4.927245660258922e-41,
      4.951067734152444e-41,
      4.919538518705135e-41,
      4.946583579066604e-41,
      4.905525534061887e-41,
      4.934252152580546e-41,
      4.909729429454862e-41,
      4.922761505173082e-41,
      4.943921111984387e-41
    ],
    "conv1_bias": [
      -0.0947566032409668,
      -0.2114751636981964,
      -0.34004345536231995,
      -0.5291931629180908,
      0.057512201368808746,
      -0.11114829033613205,
      -9.262248128850397e-23,
      -0.09645438194274902,
      0.4799104630947113,
      -0.15034383535385132,
      0.005545242223888636,
      -0.07521988451480865,
      -0.00027726576081477106,
      -4.938736307666385e-41,
      -5.956371182946896e-07,
      -2.41693891199072e-25
    ],
    "conv2_weight": [
      0.04277084395289421,
      0.16096094250679016,
      -0.1223360002040863,
      0.17719537019729614,
      0.18397115170955658,
      -0.7110651731491089,
      0.47858548164367676,
      0.13872602581977844,
      0.18199671804904938,
      -0.06498268246650696,
      -0.035706184804439545,
      0.015362974256277084,
      -0.020643550902605057,
      -0.015374692156910896,
      -0.005301968660205603,
      -0.03456081449985504,
      -0.024267401546239853,
      -0.012821188196539879,
      -0.017592309042811394,
      0.18176844716072083,
      0.0013453721767291427,
      0.012393158860504627,
      0.0071427179500460625,
      -0.15365269780158997,
      -0.17266370356082916,
      -0.25754573941230774,
      -0.12866073846817017,
      -0.16024936735630035,
      0.031024744734168053,
      -0.02380383387207985,
      0.022884264588356018,
      0.0559341162443161,
      0.025929966941475868,
      -0.1348511278629303,
      -0.057357512414455414,
      -0.20167680084705353,
      -0.0581187903881073,
      -0.12949010729789734,
      -0.2379097044467926,
      -0.1345098614692688,
      -0.16533493995666504,
      -0.24255943298339844,
      0.33398666977882385,
      0.1413981318473816,
      0.05882216617465019,
      -0.3138255178928375,
      -0.01990514062345028,
      -0.2069891393184662,
      0.07318275421857834,
      0.04968319088220596,
      -0.2839060425758362,
      0.1466434746980667,
      0.13543856143951416,
      0.12751072645187378,
      -4.925003582716002e-41,
      -4.950787474459579e-41,
      -5.738177081563693e-41,
      -4.918557609780108e-41,
      -4.919118129165838e-41,
      -4.928506828876814e-41,
      -4.916595791930053e-41,
      -4.931869945191194e-41,
      -4.916595791930053e-41,
      -0.01822575367987156,
      0.019529342651367188,
      0.03370331972837448,
      0.225093811750412,
      0.10930105298757553,
      0.0033802208490669727,
      0.30376696586608887,
      0.29877912998199463,
      0.3751351535320282,
      -0.08434470742940903,
      -0.0322539359331131,
      0.04753918945789337,
      0.019436845555901527,
      -0.06961565464735031,
      -0.22690005600452423,
      0.28546851873397827,
      0.12362617254257202,
      0.0632113516330719,
      0.23412206768989563,
      0.11935193091630936,
      0.10066008567810059,
      0.4817504286766052,
      0.30052047967910767,
      0.02972184494137764,
      0.25891920924186707,
      0.3106585741043091,
      0.22708694636821747,
      0.009530901908874512,
      -0.14458748698234558,
      -0.3011557161808014,
      0.22936071455478668,
      -0.13433325290679932,
      0.04978290945291519,
      -0.3833291828632355,
      -0.15293695032596588,
      -0.134198397397995,
      0.18444141745567322,
      -0.005001905839890242,
      -0.4351872205734253,
      0.3934326767921448,
      0.16381697356700897,
      0.2370115965604782,
      -0.35039806365966797,
      0.13066917657852173,
      0.18925915658473969,
      2.2538045053001946e-36,
      4.907487351911942e-41,
      -4.913092545769241e-41,
      5.185960799535081e-35,
      5.668812807579615e-41,
      -4.950787474459579e-41,
      5.188307564162635e-41,
      -4.949246046148821e-41,
      6.257077902903173e-41,
      -4.920659557476595e-41,
      4.91869773962654e-41,
      -4.947284228298767e-41,
      -4.914914233772863e-41,
      4.94350072244509e-41,
      4.948405267070227e-41,
      -5.538772310090272e-41,
      4.939997476284278e-41,
      4.904824884829725e-41,
      4.906926832526212e-41,
      4.931589685498329e-41,
      4.913933324847836e-41,
      -4.92430293348384e-41,
      4.914353714387133e-41,
      4.906646572833347e-41,
      -4.944902020909414e-41,
      4.909589299608429e-41,
      4.910850468226321e-41,
      -6.249370761349387e-41,
      4.952889422156066e-41,
      4.919678648551568e-41,
      -5.532186207307945e-41,
      4.927385790105354e-41,
      4.939436956898548e-41,
      4.918277350087243e-41,
      4.947003968605902e-41,
      4.939717216591413e-41,
      -5.516351534661075e-41,
      -4.935233061505573e-41,
      -5.72556539538477e-41,
      5.809923562937124e-41,
      4.908468260836969e-41,
      4.936494230123466e-41,
      4.961297212942015e-41,
      5.067795896230701e-41,
      4.958354486166933e-41,
      -4.949946695380984e-41,
      4.95653279816331e-41,
      -4.940557995670008e-41,
      4.983577858524779e-41,
      5.035145642011933e-41,
      5.038508758326312e-41,
      4.948265137223794e-41,
      4.945882929834442e-41,
      4.977272015435318e-41,
      4.970265523113694e-41,
      4.928646958723247e-41,
      4.972647730503046e-41,
      4.972787860349478e-41,
      4.917856960547946e-41,
      5.008941360729059e-41,
      4.905385404215455e-41,
      5.001794738561002e-41,
      5.020432008136522e-41,
      -5.38168675223946e-41,
      5.64709268138258e-41,
      5.008240711496896e-41,
      5.886014069549962e-41,
      5.424846744940664e-41,
      5.117121602174934e-41,
      5.59398346958467e-41,
      5.687029687615838e-41,
      6.22022375329143e-41,
      -4.957233447395473e-41,
      5.004597335489652e-41,
      -5.032903564469013e-41,
      -5.041731744794259e-41,
      -4.988902792689214e-41,
      -4.914353714387133e-41,
      -5.059948624830482e-41,
      -5.032202915236851e-41,
      -4.947704617838064e-41,
      -5.070738623005783e-41,
      -5.012444606889871e-41,
      5.565957500298173e-41,
      -4.928646958723247e-41,
      -5.21002769035967e-41,
      -5.177797825680199e-41,
      -5.203861977116641e-41,
      -4.933551503348383e-41,
      -5.153415232400947e-41,
      -4.951067734152444e-41,
      -4.908888650376267e-41,
      4.965781368027854e-41,
      -4.968303705263639e-41,
      -4.920659557476595e-41,
      4.927245660258922e-41,
      4.958354486166933e-41,
      -4.984698897296239e-41,
      4.948825656609524e-41,
      5.175415618290847e-41,
      5.446566871137699e-41,
      4.962278121867042e-41,
      -5.237913529799734e-41,
      -4.999692790864515e-41,
      5.088394983656276e-41,
      -5.289761572979752e-41,
      5.140102896989861e-41,
      5.164345360422681e-41,
      -5.960142758312744e-41,
      6.187573499072662e-41,
      6.076030141312407e-41,
      -5.892740302178721e-41,
      -4.906646572833347e-41,
      -5.895262639414505e-41,
      -5.947671201980254e-41,
      5.703004490109141e-41,
      5.872421474446011e-41,
      -5.061069663601942e-41,
      5.205263275580965e-41,
      -5.16770847673706e-41,
      -5.298729883151431e-41,
      5.099885631063739e-41,
      -5.15243432347592e-41,
      -5.059388105444752e-41,
      -4.91813722024081e-41,
      -5.204702756195236e-41,
      5.109834850160445e-41,
      5.024355643836632e-41,
      4.993246817928621e-41,
      5.158740166565382e-41,
      5.02029187829009e-41,
      5.065133429148484e-41,
      -4.933971892887681e-41,
      5.260614564921796e-41,
      5.185504967233986e-41,
      5.024495773683064e-41,
      4.936774489816331e-41,
      5.613321388392352e-41,
      -4.950507214766714e-41,
      5.005438114568247e-41,
      -5.05196122358383e-41,
      5.055044080205345e-41,
      -4.907066962372644e-41,
      5.509905561725181e-41,
      -5.005578244414679e-41,
      -5.027718760151011e-41,
      -4.975450327431695e-41,
      4.989323182228511e-41,
      -4.958915005552663e-41,
      -5.02085239767582e-41,
      -5.016648502282845e-41,
      -4.940277735977143e-41,
      -4.904824884829725e-41,
      -4.928506828876814e-41,
      5.513128548193128e-41,
      -5.81875174326237e-41,
      6.150298959921622e-41,
      -5.843975115620217e-41,
      5.241416775960546e-41,
      6.026284045828876e-41,
      -5.235671452256814e-41,
      -5.62901593119279e-41,
      -5.571562694155473e-41,
      5.640786838293119e-41,
      5.748546690199697e-41,
      -5.882090433849852e-41,
      5.271824952636394e-41,
      -5.813566938944369e-41,
      5.415598175076121e-41,
      4.922341115633785e-41,
      -5.651716966314852e-41,
      5.023654994604469e-41,
      4.940557995670008e-41,
      4.942519813520062e-41,
      -4.958494616013365e-41,
      -5.03724758970842e-41,
      4.970405652960126e-41,
      5.011603827811276e-41,
      -4.994227726853648e-41,
      -5.041591614947827e-41,
      -0.16496188938617706,
      -0.304267942905426,
      -0.11602511256933212,
      -0.09114743769168854,
      -0.3139592111110687,
      -0.13543033599853516,
      -0.015201712027192116,
      -0.0740382969379425,
      -0.019650239497423172,
      0.03641437366604805,
      0.031832240521907806,
      0.0033496657852083445,
      -0.04558861628174782,
      0.054841428995132446,
      0.014043156057596207,
      -0.04398980364203453,
      0.009759649634361267,
      0.04389473795890808,
      0.03773834556341171,
      0.05299987643957138,
      0.15500397980213165,
      0.16979841887950897,
      0.1183592677116394,
      0.15700531005859375,
      0.0888013169169426,
      0.03812367096543312,
      0.08014038950204849,
      0.05299069732427597,
      0.13731206953525543,
      0.21380706131458282,
      0.17444436252117157,
      0.16307757794857025,
      0.26342079043388367,
      0.20449931919574738,
      0.0805482491850853,
      0.03000054694712162,
      0.17165732383728027,
      0.05947563052177429,
      0.05227287858724594,
      -0.10633713006973267,
      0.09437558799982071,
      0.03741522133350372,
      0.007743410766124725,
      0.1976577192544937,
      0.42402201890945435,
      -0.019228853285312653,
      0.041805338114500046,
      0.09519704431295395,
      -0.06375313550233841,
      0.12215471267700195,
      0.19344483315944672,
      0.03203101456165314,
      -0.05799560621380806,
      0.11535851657390594,
      -4.9254239722553e-41,
      -4.914493844233566e-41,
      -4.906086053447617e-41,
      -4.913372805462106e-41,
      -4.932430464576924e-41,
      -4.908888650376267e-41,
      -4.92318189471238e-41,
      -4.948825656609524e-41,
      -4.919678648551568e-41,
      0.036659251898527145,
      0.03282703831791878,
      0.009399163536727428,
      0.012292987667024136,
      -0.07950466126203537,
      -0.008387165144085884,
      0.010867788456380367,
      0.19384092092514038,
      -0.022256111726164818,
      0.24221637845039368,
      0.08145370334386826,
      0.045095980167388916,
      0.0439460352063179,
      0.04057574272155762,
      -0.0471058152616024,
      0.13928493857383728,
      0.006801489740610123,
      0.1472783088684082,
      0.16284486651420593,
      -0.06487395614385605,
      0.0958448052406311,
      -0.010581321083009243,
      -0.006120269652456045,
      -0.053541216999292374,
      -0.016963567584753036,
      0.015586258843541145,
      0.21899470686912537,
      -0.06940962374210358,
      0.018315967172384262,
      -0.015050867572426796,
      -0.2479301393032074,
      -0.11977792531251907,
      -0.1040363609790802,
      -0.45014718174934387,
      -0.20629552006721497,
      -0.046635352075099945,
      0.1378745585680008,
      0.0032334087882190943,
      0.24154773354530334,
      0.02420065365731716,
      -0.18424518406391144,
      -0.2381892055273056,
      -0.15990540385246277,
      -0.06318669766187668,
      0.14719794690608978,
      4.912532026383511e-41,
      4.910430078687024e-41,
      4.950787474459579e-41,
      4.935793580891303e-41,
      4.915194493465728e-41,
      4.92486345286957e-41,
      4.934812671966276e-41,
      4.90622618329405e-41,
      4.928366699030382e-41,
      -4.929347607955409e-41,
      4.929908127341139e-41,
      -4.907907741451239e-41,
      4.966902406799314e-41,
      -4.959195265245528e-41,
      -4.906926832526212e-41,
      -4.968583964956504e-41,
      4.964660329256394e-41,
      4.935793580891303e-41,
      -4.949666435688119e-41,
      4.908047871297672e-41,
      4.948965786455956e-41,
      -4.914493844233566e-41,
      4.947284228298767e-41,
      4.926264751333894e-41,
      4.934112022734113e-41,
      4.906926832526212e-41,
      4.953309811695363e-41,
      -4.943360592598657e-41,
      -4.931169295959031e-41,
      4.93845604797352e-41,
      4.956252538470445e-41,
      6.246848424113602e-41,
      5.081668751027517e-41,
      -4.914073454694269e-41,
      -4.910009689147727e-41,
      -4.922341115633785e-41,
      -0.02758391760289669,
      -0.0410352498292923,
      -0.03615004941821098,
      -0.034814342856407166,
      -0.042812421917915344,
      -0.039234042167663574,
      -0.040580227971076965,
      -0.0424555242061615,
      -0.04281821474432945,
      -0.021136658266186714,
      -0.019485080614686012,
      -0.019811591133475304,
      -0.021104030311107635,
      -0.017637858167290688,
      -0.015687992796301842,
      -0.021959347650408745,
      -0.018837109208106995,
      -0.019290350377559662,
      -0.04219573363661766,
      -0.04629634693264961,
      -0.04068419709801674,
      -0.03457657992839813,
      -0.03208858519792557,
      -0.03386124223470688,
      -0.02654723823070526,
      -0.03004869632422924,
      -0.02999373897910118,
      -0.053008679300546646,
      -0.04701141268014908,
      -0.04830285161733627,
      -0.042107414454221725,
      -0.038136158138513565,
      -0.04072057455778122,
      -0.033772729337215424,
      -0.03094116412103176,
      -0.03344627842307091,
      -0.028838302940130234,
      -0.04051832854747772,
      -0.026877423748373985,
      -0.04026714712381363,
      -0.0313667431473732,
      -0.03281616419553757,
      -0.035466793924570084,
      -0.03821343928575516,
      -0.038190215826034546,
      -0.04141642525792122,
      -0.04231204465031624,
      -0.04361570626497269,
      -0.040136776864528656,
      -0.03949573636054993,
      -0.04200714826583862,
      -0.03766011446714401,
      -0.029909975826740265,
      -0.03497622162103653,
      1.5621395020600196e-40,
      2.5618538524786306e-40,
      2.4812791907799536e-40,
      5.141784455147051e-41,
      1.5103054718646446e-40,
      9.735801340589532e-41,
      -5.035285771858365e-41,
      -4.119817485114962e-43,
      5.357164029113776e-41,
      -0.01987108215689659,
      -0.018078705295920372,
      -0.028160231187939644,
      -0.008405682630836964,
      -0.01879228465259075,
      -0.01801816187798977,
      -0.01845581643283367,
      -0.02142861858010292,
      -0.018592603504657745,
      -0.03614358603954315,
      -0.04584196209907532,
      -0.03863762691617012,
      -0.042448557913303375,
      -0.04483403265476227,
      -0.04190667346119881,
      -0.040206391364336014,
      -0.046525999903678894,
      -0.04551556706428528,
      -0.0256991945207119,
      -0.03909236565232277,
      -0.028520869091153145,
      -0.017736701294779778,
      -0.021666398271918297,
      -0.015806924551725388,
      -0.03135212883353233,
      -0.04056853801012039,
      -0.020338740199804306,
      -0.03746092692017555,
      -0.036634236574172974,
      -0.034084420651197433,
      -0.02376183494925499,
      -0.02467772550880909,
      -0.023542748764157295,
      -0.03620164096355438,
      -0.03393026813864708,
      -0.03366169333457947,
      -0.027437882497906685,
      -0.03863513097167015,
      -0.03141138330101967,
      -0.010684979148209095,
      -0.008119741454720497,
      -0.012394409626722336,
      -0.03578248620033264,
      -0.03768746182322502,
      -0.024417033419013023,
      -5.367813897442644e-41,
      5.329138059827279e-41,
      -4.918277350087243e-41,
      5.053782911587453e-41,
      5.028559539229606e-41,
      -5.411954799068876e-41,
      5.580390874480719e-41,
      -5.447127390523429e-41,
      4.929627867648274e-41,
      1.152567986907162e-40,
      2.1863058640395796e-41,
      -1.317725023912485e-40,
      -5.182422110612471e-41,
      -5.727387083388392e-41,
      -1.4955497990353043e-40,
      -3.907660897616185e-41,
      5.018470190286467e-41,
      5.333902474605984e-41,
      5.520695559900482e-41,
      -5.271965082482827e-41,
      5.090496931352763e-41,
      -5.380565713468e-41,
      4.964099809870664e-41,
      -4.908748520529834e-41,
      -4.944761891062982e-41,
      -4.907347222065509e-41,
      5.901848742196832e-41,
      -5.313163257333976e-41,
      5.363189612510372e-41,
      5.715756306134496e-41,
      -5.163644711190518e-41,
      -6.24614777488144e-41,
      -5.560912825826604e-41,
      5.72892851169915e-41,
      5.512287769114533e-41,
      -5.728788381852717e-41,
      0.02765352837741375,
      0.2194642275571823,
      -0.010959265753626823,
      0.08051078766584396,
      0.20554816722869873,
      -0.5442820191383362,
      0.488752156496048,
      0.219638392329216,
      0.1884842962026596,
      -0.07733727991580963,
      -0.031993113458156586,
      -0.0026835135649889708,
      -0.05154847726225853,
      -0.0143626993522048,
      -0.00868536438792944,
      -0.056765563786029816,
      -0.01209155935794115,
      -0.01670890487730503,
      -0.03285536170005798,
      0.11326787620782852,
      -0.03782758116722107,
      0.03928585723042488,
      -0.06764358282089233,
      -0.12378229945898056,
      -0.19861949980258942,
      -0.2636018991470337,
      0.01939236745238304,
      -0.0925949439406395,
      -0.03843969479203224,
      -0.12027077376842499,
      -0.046516548842191696,
      -0.06500455737113953,
      -0.04760407656431198,
      -0.11031413823366165,
      -0.14254023134708405,
      -0.026927778497338295,
      -0.144587904214859,
      -0.12093256413936615,
      -0.18463216722011566,
      0.10116823017597198,
      -0.02803197130560875,
      -0.18415091931819916,
      0.2841838002204895,
      0.185082346200943,
      0.18405219912528992,
      -0.174475759267807,
      -0.02615620754659176,
      -0.12907417118549347,
      0.0029695613775402308,
      0.08201280236244202,
      -0.3093062937259674,
      0.11917611211538315,
      0.05047691985964775,
      0.1873994618654251,
      -4.938035658434223e-41,
      -4.936914619662763e-41,
      -4.906086053447617e-41,
      -4.923041764865947e-41,
      -4.920799687323028e-41,
      -4.935653451044871e-41,
      -4.920519427630163e-41,
      -4.925704231948164e-41,
      -4.94237968367363e-41,
      -0.02506706304848194,
      -0.02753639966249466,
      -0.038895487785339355,
      0.1572379618883133,
      0.11789512634277344,
      0.15486589074134827,
      0.10049305111169815,
      0.08962062001228333,
      0.05495964735746384,
      -0.1358889937400818,
      -0.10299225151538849,
      -0.042489681392908096,
      0.0206175334751606,
      -0.02398143708705902,
      -0.3615436255931854,
      0.2619084119796753,
      0.08077863603830338,
      0.12506569921970367,
      0.1528235673904419,
      0.09314607083797455,
      -0.027690095826983452,
      0.35632097721099854,
      0.2532447576522827,
      -0.02893306501209736,
      0.2676624655723572,
      0.3159559965133667,
      0.1080378070473671,
      -0.19203482568264008,
      -0.1840677112340927,
      -0.3239942193031311,
      0.1103934794664383,
      -0.1414845585823059,
      -0.13322868943214417,
      -0.3993469476699829,
      -0.13305304944515228,
      -0.006479089614003897,
      -0.00655093090608716,
      -0.009511006996035576,
      -0.33568093180656433,
      0.26839202642440796,
      -0.006276555359363556,
      0.1236257255077362,
      -0.27459779381752014,
      0.11494593322277069,
      0.1582915037870407,
      -7.413697043670698e-39,
      5.453573363459323e-41,
      -4.94237968367363e-41,
      -9.68954556721439e-33,
      6.102374552441713e-41,
      -4.925283842408867e-41,
      4.94462176121655e-41,
      5.864013683660062e-41,
      -4.921780596248055e-41,
      -4.912532026383511e-41,
      -4.918277350087243e-41,
      -4.955972278777581e-41,
      4.929627867648274e-41,
      4.947564487991632e-41,
      -4.931449555651896e-41,
      4.910149818994159e-41,
      4.949946695380984e-41,
      -4.942239553827197e-41,
      -4.945182280602279e-41,
      -4.941538904595035e-41,
      4.927806179644652e-41,
      -4.910430078687024e-41,
      -4.93845604797352e-41,
      4.914774103926431e-41,
      -4.944761891062982e-41,
      -4.909729429454862e-41,
      -4.926685140873192e-41,
      4.954570980313256e-41,
      4.944201371677252e-41,
      4.940838255362873e-41,
      4.943921111984387e-41,
      4.934952801812708e-41,
      4.913793195001404e-41,
      4.922761505173082e-41,
      4.941959294134332e-41,
      4.947704617838064e-41,
      -0.22387169301509857,
      -0.3748924732208252,
      -0.3573342561721802,
      -0.23713034391403198,
      0.05623064935207367,
      0.10591647028923035,
      0.043981872498989105,
      0.02544119581580162,
      0.36476099491119385,
      0.056235674768686295,
      0.0574360229074955,
      0.15906238555908203,
      0.08270285278558731,
      0.06785661727190018,
      0.18514829874038696,
      0.09100773930549622,
      0.09602584689855576,
      0.09786523133516312,
      -0.0662289410829544,
      0.027677828446030617,
      0.1015687808394432,
      0.07160389423370361,
      -0.1124233677983284,
      -0.0530296191573143,
      -0.15540504455566406,
      -0.1979084461927414,
      -0.1716093122959137,
      -0.13731758296489716,
      0.13771407306194305,
      0.3227262794971466,
      -0.12246669828891754,
      -0.006920110434293747,
      0.18631282448768616,
      0.0073641217313706875,
      0.039813801646232605,
      -0.36653265357017517,
      -0.00813725683838129,
      0.07127557694911957,
      -0.11546386778354645,
      -0.08688764274120331,
      -0.30090275406837463,
      0.015034166164696217,
      -0.07880401611328125,
      0.019231194630265236,
      -0.0026160231791436672,
      -0.08585647493600845,
      -0.03637220337986946,
      0.18533362448215485,
      -0.15928904712200165,
      -0.05580538138747215,
      0.15564154088497162,
      -0.03270084783434868,
      -0.1354653388261795,
      -0.2177991271018982,
      -4.917997090394378e-41,
      -4.929347607955409e-41,
      -4.94237968367363e-41,
      -4.93901656735925e-41,
      -4.92206085594092e-41,
      -4.911270857765619e-41,
      4.928927218416112e-41,
      4.907066962372644e-41,
      -4.923322024558812e-41,
      0.16957613825798035,
      0.04544069990515709,
      0.11278925836086273,
      0.15536710619926453,
      0.04803718626499176,
      0.08044913411140442,
      0.17292387783527374,
      0.11617370694875717,
      -0.02008979022502899,
      0.6097179651260376,
      0.4496414065361023,
      0.6614792943000793,
      0.5111305117607117,
      0.42320457100868225,
      0.7116758227348328,
      0.5104997158050537,
      0.4750521183013916,
      0.656146228313446,
      -0.03823476284742355,
      -0.08466167002916336,
      -0.32072052359580994,
      0.12778156995773315,
      0.08099102973937988,
      -0.21539804339408875,
      0.1816692054271698,
      0.17658814787864685,
      0.08885905146598816,
      -0.33448025584220886,
      -0.6865693926811218,
      -0.34663885831832886,
      -0.15526068210601807,
      -0.5667911171913147,
      -0.2513318955898285,
      -0.23740065097808838,
      -0.3702704608440399,
      -0.34597063064575195,
      -0.2090829312801361,
      -0.41037309169769287,
      -0.3087323307991028,
      -0.07861658185720444,
      -0.12091391533613205,
      -0.16503244638442993,
      0.2556789815425873,
      -0.003835237817838788,
      0.09593857079744339,
      -4.933411373501951e-41,
      -5.715896435980929e-41,
      4.922761505173082e-41,
      -1.1250078764925336e-36,
      -4.923602284251677e-41,
      -5.064713039609186e-41,
      1.4485004777100327e-25,
      -1.0749550199595803e-36,
      4.934952801812708e-41,
      4.927946309491084e-41,
      -4.947564487991632e-41,
      -4.920099038090865e-41,
      -5.706227476577088e-41,
      -4.938596177819953e-41,
      -4.913793195001404e-41,
      4.92037929778373e-41,
      4.945042150755847e-41,
      4.93789552858779e-41,
      -4.941538904595035e-41,
      -4.932850854116221e-41,
      -4.933831763041248e-41,
      -4.933411373501951e-41,
      -4.940978385209305e-41,
      -4.945882929834442e-41,
      -4.911130727919186e-41,
      -4.914353714387133e-41,
      -4.948125007377362e-41,
      4.946723708913037e-41,
      4.934672542119843e-41,
      5.014266294893493e-41,
      4.916035272544323e-41,
      4.947284228298767e-41,
      6.090743775187817e-41,
      4.945182280602279e-41,
      4.925704231948164e-41,
      4.910289948840591e-41,
      -0.025674350559711456,
      -0.022001078352332115,
      -0.023117035627365112,
      -0.036829084157943726,
      -0.045603107661008835,
      -0.04697180539369583,
      -0.039586152881383896,
      -0.045710623264312744,
      -0.04177115857601166,
      -0.0017841955414041877,
      -0.0015021134167909622,
      -0.0012597846798598766,
      -0.002578835003077984,
      -0.0023697654251009226,
      -0.0016022849595174193,
      -0.00199061818420887,
      -0.0015342597616836429,
      -0.0005264300853013992,
      -0.03916381299495697,
      -0.03800337761640549,
      -0.04129242151975632,
      -0.022457297891378403,
      -0.0413002111017704,
      -0.019933240488171577,
      -0.03762819617986679,
      -0.036828428506851196,
      -0.030927646905183792,
      -0.050042763352394104,
      -0.048126380890607834,
      -0.03514605760574341,
      -0.04868054389953613,
      -0.051517315208911896,
      -0.029294317588210106,
      -0.04325312003493309,
      -0.04879927262663841,
      -0.04056001827120781,
      -0.021910792216658592,
      -0.01742933690547943,
      -0.01369421649724245,
      -0.0330224372446537,
      -0.034421466290950775,
      -0.03563037887215614,
      -0.03429320454597473,
      -0.03231080621480942,
      -0.029423177242279053,
      -0.03234165534377098,
      -0.028596730902791023,
      -0.016010276973247528,
      -0.04075423628091812,
      -0.04453536868095398,
      -0.026633894070982933,
      -0.040998149663209915,
      -0.04723450914025307,
      -0.0283651165664196,
      -4.948825656609524e-41,
      4.967462926185044e-41,
      4.972787860349478e-41,
      4.92486345286957e-41,
      -4.918977999319405e-41,
      4.969144484342234e-41,
      4.907487351911942e-41,
      -4.971947081270883e-41,
      -4.970826042499424e-41,
      -0.014995284378528595,
      -0.014647286385297775,
      -0.01294057909399271,
      -0.01665850169956684,
      -0.012881345115602016,
      -0.014096659608185291,
      -0.018758494406938553,
      -0.01559459324926138,
      -0.015384511090815067,
      -0.00020014570327475667,
      -0.00580810010433197,
      -0.0015522518660873175,
      -0.008313741534948349,
      -0.006339051760733128,
      -0.004935802426189184,
      -0.009697760455310345,
      -0.00910742674022913,
      -0.0063751148991286755,
      -0.03496180474758148,
      -0.029554052278399467,
      -0.0282709039747715,
      -0.021083513274788857,
      -0.031917911022901535,
      -0.03514343500137329,
      -0.028643732890486717,
      -0.030008617788553238,
      -0.027805030345916748,
      -0.032117702066898346,
      -0.04297569766640663,
      -0.033120978623628616,
      -0.03880864009261131,
      -0.044090285897254944,
      -0.024851735681295395,
      -0.040454693138599396,
      -0.04400845617055893,
      -0.031758446246385574,
      -0.024080853909254074,
      -0.03558139130473137,
      -0.030821960419416428,
      -0.032310083508491516,
      -0.038929831236600876,
      -0.026539387181401253,
      -0.035567570477724075,
      -0.028762804344296455,
      -0.02726077288389206,
      5.020151748443657e-41,
      -4.952188772923904e-41,
      -4.9582143563205e-41,
      -5.013705775507763e-41,
      -4.925844361794597e-41,
      -4.97965422282467e-41,
      4.996890193935865e-41,
      -4.940417865823575e-41,
      4.944902020909414e-41,
      2.7047022179319024e-40,
      -5.845236284238109e-41,
      4.718031799535227e-41,
      -9.434522170759696e-41,
      1.7335743561855177e-40,
      -6.224007259145108e-41,
      2.5545671004641415e-42,
      -3.210655041461021e-41,
      -6.967536224315855e-41,
      -5.652599784347377e-40,
      -2.5006451355569226e-40,
      -4.0711083504950315e-40,
      -4.355950289338337e-40,
      -2.5755865774290138e-40,
      -1.795595826216534e-40,
      -4.349896679972454e-40,
      -5.6585132638668276e-40,
      -3.049898081633678e-40,
      5.108153292003256e-41,
      4.984418637603374e-41,
      5.052942132508858e-41,
      -5.076624076555947e-41,
      4.99941253117165e-41,
      4.956252538470445e-41,
      -4.928787088569679e-41,
      4.933691633194816e-41,
      -4.939857346437845e-41,
      -0.07746314257383347,
      0.2961026132106781,
      0.5746098756790161,
      0.43431663513183594,
      0.4724870026111603,
      0.48976290225982666,
      0.40648284554481506,
      0.4384719729423523,
      0.47075584530830383,
      -0.20343080163002014,
      -0.17515750229358673,
      -0.1919405609369278,
      -0.1358354389667511,
      -0.10282053053379059,
      -0.24875789880752563,
      -0.049315012991428375,
      -0.1684902459383011,
      -0.21251694858074188,
      -0.4314168691635132,
      -0.3151228427886963,
      -0.04842708632349968,
      -0.7439783215522766,
      -0.18097470700740814,
      0.033028583973646164,
      -0.07594304531812668,
      0.02815959043800831,
      0.36880162358283997,
      -0.16940391063690186,
      0.020592160522937775,
      -0.008333449251949787,
      -0.19477346539497375,
      -0.09325762093067169,
      -0.0988893061876297,
      -0.4400113523006439,
      -0.1556171178817749,
      0.0042747692205011845,
      -0.09174218773841858,
      0.07801516354084015,
      0.19147555530071259,
      -0.2647222578525543,
      -0.237725630402565,
      0.07795621454715729,
      0.4005630314350128,
      0.04826810210943222,
      0.25672680139541626,
      -0.11818566173315048,
      0.08632836490869522,
      0.10701420158147812,
      0.04269956424832344,
      0.029212402179837227,
      0.04067002609372139,
      -0.09736031293869019,
      -0.2639907896518707,
      0.062160294502973557,
      4.923322024558812e-41,
      4.925564102101732e-41,
      4.938035658434223e-41,
      4.913092545769241e-41,
      4.934672542119843e-41,
      4.904965014676157e-41,
      4.921079947015893e-41,
      4.907907741451239e-41,
      4.929207478108977e-41,
      -0.4641629755496979,
      -0.2256244271993637,
      -0.2222035974264145,
      -0.15908865630626678,
      -0.019442539662122726,
      -0.1424684077501297,
      -0.3935510218143463,
      -0.28381311893463135,
      -0.32686999440193176,
      -0.7570652365684509,
      -0.2153693288564682,
      -0.09525328129529953,
      -0.6116684675216675,
      -0.1297755092382431,
      0.10705253481864929,
      -0.5320702195167542,
      -0.1260657161474228,
      0.015792641788721085,
      -0.14413271844387054,
      -0.10855952650308609,
      -0.26885300874710083,
      -0.058718495070934296,
      -0.0584401860833168,
      -0.32009193301200867,
      -0.4431118667125702,
      -0.1828741431236267,
      -0.37416526675224304,
      0.34443986415863037,
      0.3572195768356323,
      0.27137115597724915,
      0.31795379519462585,
      0.277450829744339,
      0.08462119847536087,
      0.333435982465744,
      0.19630995392799377,
      0.12586398422718048,
      0.2729206383228302,
      0.3710603713989258,
      0.25414055585861206,
      0.31489622592926025,
      0.2130928784608841,
      0.30338117480278015,
      0.32281118631362915,
      0.14586789906024933,
      0.2425844371318817,
      3.9796058158916847e-13,
      1.4824235589072643e-11,
      7.412970931541807e-11,
      6.9979714873629004e-15,
      1.7345029763599779e-13,
      2.074978210087064e-12,
      -4.702389433465954e-17,
      4.6137651702881245e-15,
      3.193331829434015e-14,
      -4.94237968367363e-41,
      -4.937755398741358e-41,
      -4.925984491641029e-41,
      -4.905945923601185e-41,
      -4.950927604306011e-41,
      -4.935793580891303e-41,
      -4.937194879355628e-41,
      -4.927806179644652e-41,
      -4.907907741451239e-41,
      4.694840870470037e-37,
      -5.105877262231688e-32,
      -3.573562635652324e-30,
      -1.681754338974786e-40,
      1.3559821311259342e-36,
      -3.0710756024651843e-33,
      4.950507214766714e-41,
      -1.3571281354308345e-39,
      3.476453109966398e-37,
      4.907487351911942e-41,
      4.914633974079998e-41,
      4.924162803637407e-41,
      4.938876437512818e-41,
      4.950086825227416e-41,
      4.925984491641029e-41,
      4.917716830701513e-41,
      4.926124621487462e-41,
      4.938315918127088e-41,
      4.924723323023137e-41,
      4.925143712562435e-41,
      4.938315918127088e-41,
      4.925704231948164e-41,
      4.930188387034004e-41,
      4.904824884829725e-41,
      4.94406124183082e-41,
      4.912111636844214e-41,
      4.954711110159688e-41,
      4.964099809870664e-41,
      -5.619767361328246e-41,
      -5.05868745621259e-41,
      4.940417865823575e-41,
      -6.285664391575399e-41,
      -4.960736693556285e-41,
      4.941679034441467e-41,
      4.914633974079998e-41,
      4.925984491641029e-41,
      -4.946443449220172e-41,
      -4.914353714387133e-41,
      -4.932850854116221e-41,
      -4.944902020909414e-41,
      -4.931309425805464e-41,
      -4.944481631370117e-41,
      -5.408031163368767e-41,
      -4.93845604797352e-41,
      -6.288046598964752e-41,
      -4.940277735977143e-41,
      -5.044954731262206e-41,
      4.951488123691741e-41,
      -4.980635131749697e-41,
      -4.932850854116221e-41,
      -4.985259416681969e-41,
      5.140943676068456e-41,
      -5.09652251474936e-41,
      -5.026737851225984e-41,
      -4.961997862174177e-41,
      -4.953449941541796e-41,
      -4.952609162463201e-41,
      -4.965360978488557e-41,
      -4.955832148931148e-41,
      -4.956392668316878e-41,
      -4.96213799202061e-41,
      -4.959755784631258e-41,
      -4.950927604306011e-41,
      4.970966172345856e-41,
      -4.917576700855081e-41,
      -4.930468646726869e-41,
      4.983157468985482e-41,
      4.964800459102827e-41,
      4.913512935308539e-41,
      -4.96269851140634e-41,
      5.005438114568247e-41,
      4.931029166112599e-41,
      5.872561604292443e-41,
      5.55446685289071e-41,
      -5.832064078673456e-41,
      5.372438182374916e-41,
      -4.906506442986914e-41,
      -4.908328130990537e-41,
      -4.907627481758374e-41,
      5.856166412259843e-41,
      -4.957373577241905e-41,
      -5.065834078380646e-41,
      5.067936026077133e-41,
      4.941398774748602e-41,
      -4.934112022734113e-41,
      -4.940277735977143e-41,
      -4.99773097301446e-41,
      4.910990598072754e-41,
      -5.027718760151011e-41,
      -4.951488123691741e-41,
      5.885873939703529e-41,
      5.53134542822935e-41,
      5.323953255509277e-41,
      -5.489026214606741e-41,
      5.45623583054154e-41,
      5.139682507450564e-41,
      -5.084611477802599e-41,
      5.198116653412909e-41,
      -5.463242322863164e-41,
      4.931309425805464e-41,
      -4.992826428389323e-41,
      4.926965400566057e-41,
      5.363750131896102e-41,
      4.970826042499424e-41,
      4.965921497874287e-41,
      4.984558767449807e-41,
      4.968724094802936e-41,
      4.921360206708758e-41,
      5.006699283186139e-41,
      -4.940978385209305e-41,
      5.010622918886248e-41,
      4.959195265245528e-41,
      -4.908608390683402e-41,
      -4.968443835110071e-41,
      5.005858504107544e-41,
      4.935793580891303e-41,
      4.913653065154971e-41,
      -4.943360592598657e-41,
      -4.945462540295144e-41,
      5.68436722053362e-41,
      -4.95933539509196e-41,
      5.917122895457973e-41,
      4.925704231948164e-41,
      4.971386561885154e-41,
      -4.924723323023137e-41,
      -4.907207092219077e-41,
      -5.301392350233648e-41,
      5.196575225102152e-41,
      6.136986624510536e-41,
      -6.139228702053456e-41,
      -6.212937001276941e-41,
      -5.107732902463958e-41,
      -5.903810560046887e-41,
      -4.985259416681969e-41,
      5.045094861108639e-41,
      5.245200281814223e-41,
      -6.082335984401868e-41,
      -5.206384314352425e-41,
      -4.905245274369022e-41,
      -5.342450395238365e-41,
      -5.285837937279642e-41,
      -5.014546554586358e-41,
      5.123847834803694e-41,
      5.986487169442051e-41,
      -5.135618741904022e-41,
      -5.408451552908064e-41,
      -5.954677694301878e-41,
      -4.905805793754752e-41,
      -5.377342727000053e-41,
      5.464783751173922e-41,
      -5.529243480532863e-41,
      -5.269022355707745e-41,
      -5.583053341562936e-41,
      -5.646392032150418e-41,
      5.413356097533201e-41,
      -6.020678851971577e-41,
      5.277009756954396e-41,
      -5.514249586964588e-41,
      4.905525534061887e-41,
      5.989990415602863e-41,
      6.256937773056741e-41,
      -5.711552410741522e-41,
      -0.201035276055336,
      -0.051735591143369675,
      0.347828209400177,
      -0.12146249413490295,
      -0.25292930006980896,
      0.1736374944448471,
      0.12721127271652222,
      0.15119092166423798,
      0.053307101130485535,
      0.08205295354127884,
      0.053025707602500916,
      0.05053866282105446,
      0.052141234278678894,
      0.034883953630924225,
      0.008362558670341969,
      -0.018004342913627625,
      -0.025665700435638428,
      -0.04166041314601898,
      0.09869854152202606,
      -0.14929215610027313,
      -0.3018949031829834,
      0.2418542504310608,
      -0.04054129868745804,
      -0.1793655902147293,
      0.04859863966703415,
      -0.10450343787670135,
      -0.25270137190818787,
      0.11595692485570908,
      -0.03606634959578514,
      -0.31393980979919434,
      0.28370901942253113,
      -0.020384028553962708,
      -0.4124271869659424,
      0.5973799228668213,
      0.07965212315320969,
      -0.23658323287963867,
      -0.18058308959007263,
      0.15699194371700287,
      -0.023331578820943832,
      -0.022332584485411644,
      -0.1351623237133026,
      0.17842480540275574,
      0.08851880580186844,
      0.18863274157047272,
      -0.05851792171597481,
      -0.024117445573210716,
      0.13128608465194702,
      -0.00013538311759475619,
      -0.06953425705432892,
      -0.001862976816482842,
      -0.18025875091552734,
      0.21745185554027557,
      0.07562389969825745,
      -0.1221841350197792,
      -4.904684754983292e-41,
      4.939997476284278e-41,
      4.922341115633785e-41,
      4.944761891062982e-41,
      4.954570980313256e-41,
      -4.935233061505573e-41,
      4.942519813520062e-41,
      4.953309811695363e-41,
      -4.951908513231039e-41,
      0.06109403818845749,
      -0.06267990916967392,
      0.04871588945388794,
      0.0061937663704156876,
      -0.08967610448598862,
      -0.10099820792675018,
      0.09289034456014633,
      0.16024376451969147,
      -0.05347701534628868,
      -0.018658356741070747,
      0.04140930622816086,
      -0.08093073964118958,
      -0.050443001091480255,
      -0.07900325953960419,
      -0.011805067770183086,
      0.044252660125494,
      0.04859273135662079,
      0.030989209190011024,
      0.08308885991573334,
      0.15596309304237366,
      0.10911254584789276,
      0.2729074954986572,
      0.03851356357336044,
      0.13842132687568665,
      0.24609193205833435,
      0.2009526640176773,
      0.2268429398536682,
      0.037572890520095825,
      -0.098660908639431,
      0.03648843988776207,
      -0.06925004720687866,
      -0.08499472588300705,
      -0.03052562102675438,
      -0.12237238883972168,
      0.03687286004424095,
      0.012468479573726654,
      0.07114052772521973,
      -0.29673922061920166,
      -0.23387591540813446,
      -0.006073710974305868,
      -0.18005876243114471,
      -0.24024663865566254,
      0.05981751158833504,
      0.31875211000442505,
      0.06255011260509491,
      4.908468260836969e-41,
      4.922761505173082e-41,
      4.937615268894925e-41,
      4.950647344613146e-41,
      4.93845604797352e-41,
      4.951908513231039e-41,
      4.911130727919186e-41,
      4.938175788280655e-41,
      4.914073454694269e-41,
      4.932010075037626e-41,
      4.972227340963748e-41,
      4.978813443746075e-41,
      -4.953309811695363e-41,
      -4.946023059680874e-41,
      4.938175788280655e-41,
      4.909309039915564e-41,
      4.969985263420829e-41,
      5.139121988064834e-41,
      -4.938035658434223e-41,
      -4.928927218416112e-41,
      -4.911270857765619e-41,
      -4.930748906419734e-41,
      -4.927525919951787e-41,
      -4.905945923601185e-41,
      -4.952749292309633e-41,
      -4.909449169761997e-41,
      -4.925143712562435e-41,
      4.937755398741358e-41,
      4.924022673790975e-41,
      4.953029552002498e-41,
      4.95653279816331e-41,
      4.927245660258922e-41,
      -4.936213970430601e-41,
      4.929067348262544e-41,
      4.939717216591413e-41,
      4.940417865823575e-41,
      -1.219062597628853e-20,
      -1.6752293640693227e-15,
      -4.1252039778501325e-17,
      -1.167762442300102e-09,
      -3.2903106905735058e-09,
      -1.3836941370470868e-08,
      -7.898501765016362e-15,
      -1.0393307308537159e-12,
      -4.532380980942774e-12,
      -4.924022673790975e-41,
      -4.948685526763091e-41,
      -4.959475524938393e-41,
      4.987781753917754e-41,
      -4.930608776573301e-41,
      -4.931169295959031e-41,
      4.963539290484935e-41,
      4.948265137223794e-41,
      4.956112408624013e-41,
      -2.6558103627394303e-07,
      -5.095375286146009e-07,
      -4.0753954522187996e-07,
      -9.532681133350707e-08,
      -1.357050223305123e-07,
      -2.002914953891377e-07,
      -5.6604047671271474e-08,
      -1.6020017312712298e-07,
      -1.3348164884519065e-07,
      -5.4101070418255404e-05,
      -7.534603355452418e-05,
      -8.990437345346436e-05,
      -4.566199640976265e-05,
      -6.0970014601480216e-05,
      -8.030395110836253e-05,
      -3.052960164495744e-05,
      -4.296690894989297e-05,
      -5.714941653423011e-05,
      -1.1927728012257022e-29,
      -1.125905917800248e-25,
      1.2816463396157372e-32,
      -1.1290071548269905e-17,
      -1.5004274129724692e-16,
      -3.7168620886162976e-20,
      -7.40420429836908e-19,
      -6.501962215105693e-19,
      -7.920199435232688e-20,
      -1.4372397716400087e-10,
      -2.910026941638222e-10,
      -1.5505548234262534e-10,
      -8.770307258210153e-10,
      -1.176412656178627e-08,
      -3.134005277516394e-09,
      -1.451470610369654e-10,
      -3.70763530987972e-10,
      -1.1750699024926092e-10,
      4.933831763041248e-41,
      -4.949806565534551e-41,
      4.918977999319405e-41,
      -4.985399546528402e-41,
      4.955972278777581e-41,
      -4.955832148931148e-41,
      4.975450327431695e-41,
      -5.828000313126914e-41,
      -4.932430464576924e-41,
      5.16826899612279e-41,
      4.905385404215455e-41,
      -4.952609162463201e-41,
      -4.94013760613071e-41,
      4.94350072244509e-41,
      4.941959294134332e-41,
      4.924583193176705e-41,
      -4.922901635019515e-41,
      -4.909168910069132e-41,
      -7.207204538195885e-36,
      -1.2297950237386584e-21,
      4.175573021036781e-37,
      -1.8105576432392155e-20,
      -1.7057865011579952e-15,
      -1.6096743434765266e-19,
      -1.858311869553865e-17,
      -4.561928024465582e-14,
      -1.2673512304405908e-18,
      -4.928086439337517e-41,
      -2.709522227265361e-35,
      -4.931309425805464e-41,
      -1.3486595991693778e-27,
      -7.02567266835622e-29,
      -4.910351873678215e-24,
      -4.936494230123466e-41,
      -2.6507657152491525e-24,
      -3.0907376855075434e-35,
      -4.311774404186508e-08,
      -2.2995770621037082e-07,
      -1.7332145318960102e-07,
      -8.786852134790024e-08,
      -6.879560032757581e-07,
      -2.660903817286453e-07,
      -7.954029968004761e-08,
      -2.9823794989169983e-07,
      -1.9520396676853125e-07,
      -1.6473442757996782e-22,
      -7.225738964516937e-17,
      -6.3860659394808885e-18,
      -5.090672241386818e-12,
      -5.240877523626786e-11,
      -1.7323989465189982e-11,
      -1.4326783719054925e-18,
      -2.870721374373733e-14,
      -3.5199293215165824e-16,
      -5.088955503042006e-41,
      5.027999019843876e-41,
      -5.017068891822143e-41,
      -4.97741214528175e-41,
      5.032202915236851e-41,
      -4.929347607955409e-41,
      4.904824884829725e-41,
      4.990163961307106e-41,
      5.970652496795181e-41,
      5.89554289910737e-41,
      -5.262576382771851e-41,
      5.417419863079743e-41,
      4.940838255362873e-41,
      -6.114705978927772e-41,
      -5.485663098292361e-41,
      5.438859729583912e-41,
      -5.360667275274588e-41,
      5.775591750561166e-41,
      -5.711272151048657e-41,
      -4.97741214528175e-41,
      4.908468260836969e-41,
      5.249404177207197e-41,
      5.072560311009405e-41,
      -6.014232879035682e-41,
      -5.961403926930637e-41,
      -5.72276279845612e-41,
      -5.219836779609944e-41,
      -1.887226732798734e-40,
      6.120731562324368e-41,
      -2.5865167054507473e-40,
      -2.5615035278625494e-40,
      -3.13015044468556e-40,
      -4.050929652608754e-40,
      5.181721461380309e-41,
      -4.139183429891931e-40,
      -4.141173273711272e-40,
      0.022327566519379616,
      0.1290106326341629,
      -0.3069298565387726,
      -0.03788885846734047,
      -0.06755105406045914,
      0.2610359191894531,
      0.10042475908994675,
      -0.03566230461001396,
      -0.06658443063497543,
      0.09727268666028976,
      0.009385068900883198,
      0.05014839768409729,
      0.052841294556856155,
      -0.009587075561285019,
      0.00554872490465641,
      -0.01723112165927887,
      -0.018191777169704437,
      -0.0663558840751648,
      0.19645485281944275,
      -0.045515041798353195,
      -0.2949099540710449,
      0.12013330310583115,
      -0.02683834172785282,
      -0.14758501946926117,
      0.20329412817955017,
      0.044487569481134415,
      -0.06238109618425369,
      0.2693529725074768,
      0.005349352490156889,
      -0.47843632102012634,
      0.24722151458263397,
      -0.09162572771310806,
      -0.5032616257667542,
      0.48609909415245056,
      0.026290426030755043,
      -0.20206589996814728,
      0.20988768339157104,
      0.1596318930387497,
      -0.12459556013345718,
      0.05387696251273155,
      -0.07036081701517105,
      0.24037563800811768,
      0.1680506020784378,
      0.2100164145231247,
      -0.10622941702604294,
      0.13647784292697906,
      -0.07254888117313385,
      -0.30576035380363464,
      0.1403219848871231,
      0.0871916264295578,
      0.018901841714978218,
      0.2815452218055725,
      0.04558601975440979,
      -0.11790241301059723,
      4.942099423980765e-41,
      4.913232675615674e-41,
      4.937194879355628e-41,
      4.947003968605902e-41,
      4.952749292309633e-41,
      4.953309811695363e-41,
      4.927525919951787e-41,
      4.918277350087243e-41,
      4.945042150755847e-41,
      -0.18787318468093872,
      0.0510588139295578,
      -0.018373774364590645,
      0.10038924217224121,
      0.009416761808097363,
      -0.06613568216562271,
      0.030747802928090096,
      0.02710692584514618,
      -0.0058475155383348465,
      0.08527544885873795,
      -0.06733554601669312,
      -0.21201317012310028,
      0.0830257385969162,
      -0.11223428696393967,
      0.02286689728498459,
      0.05595202371478081,
      0.05588056892156601,
      -0.03501029685139656,
      0.04800369217991829,
      0.15837961435317993,
      -0.05868321657180786,
      0.11050748825073242,
      0.1068037897348404,
      0.1462632566690445,
      0.2964489459991455,
      0.35411807894706726,
      0.26375845074653625,
      -0.13502630591392517,
      -0.14896614849567413,
      -0.009754045866429806,
      -0.0977986752986908,
      -0.03180835023522377,
      -0.025486065074801445,
      0.04310646280646324,
      0.03957745060324669,
      0.017250055447220802,
      -0.20580270886421204,
      -0.25919508934020996,
      -0.42079150676727295,
      -0.12320394068956375,
      0.09067104756832123,
      -0.3589889705181122,
      0.21829727292060852,
      0.46877720952033997,
      0.28358709812164307,
      4.926545011026759e-41,
      4.923882543944542e-41,
      -4.926685140873192e-41,
      4.92318189471238e-41,
      4.935233061505573e-41,
      -4.945462540295144e-41,
      4.946863838759469e-41,
      5.152854713015217e-41,
      -4.94350072244509e-41,
      -4.929908127341139e-41,
      -4.947984877530929e-41,
      -4.94125864490217e-41,
      -4.933411373501951e-41,
      -4.913933324847836e-41,
      4.964800459102827e-41,
      4.917436571008648e-41,
      -4.905805793754752e-41,
      -4.974889808045966e-41,
      -4.908188001144104e-41,
      -4.929207478108977e-41,
      -4.951207863998876e-41,
      -4.905245274369022e-41,
      -4.915614883005026e-41,
      -4.928646958723247e-41,
      -4.914914233772863e-41,
      -4.931589685498329e-41,
      -4.929767997494706e-41,
      -4.942659943366495e-41,
      -4.942800073212927e-41,
      -4.915755012851458e-41,
      -4.921220076862325e-41,
      -4.908468260836969e-41,
      -4.943921111984387e-41,
      -4.94350072244509e-41,
      -4.904684754983292e-41,
      -4.935933710737736e-41,
      -0.021555708721280098,
      0.18574166297912598,
      0.007041724864393473,
      0.15792152285575867,
      0.11004079133272171,
      -0.1709982305765152,
      0.34446999430656433,
      0.15758319199085236,
      -0.0934668555855751,
      -0.00744168134406209,
      -0.01767418347299099,
      0.0038531587924808264,
      0.0012702157255262136,
      -0.01232036855071783,
      -0.015582066029310226,
      -0.002311673713847995,
      -0.015818417072296143,
      -0.006319623906165361,
      -0.0843227282166481,
      0.02519281953573227,
      -0.0017937042284756899,
      -0.04429032281041145,
      0.006161652039736509,
      -0.04936259239912033,
      0.008406085893511772,
      0.030312202870845795,
      -0.013449710793793201,
      -0.005376660730689764,
      0.04548568278551102,
      0.026693187654018402,
      -0.027373313903808594,
      -0.07952233403921127,
      -0.023025598376989365,
      -0.15141238272190094,
      -0.05734550580382347,
      -0.06650161743164062,
      -0.00010063236550195143,
      -0.03931195288896561,
      -0.06896740198135376,
      -0.056763358414173126,
      -0.05277030169963837,
      -0.09547913074493408,
      0.04044453427195549,
      -0.031728606671094894,
      -0.03515138849616051,
      -0.07397101819515228,
      0.04604480043053627,
      -0.06941071897745132,
      -0.06897716224193573,
      -0.05634624511003494,
      -0.05483917519450188,
      0.013876152224838734,
      -0.03146529570221901,
      -0.04743296653032303,
      4.929627867648274e-41,
      4.934952801812708e-41,
      4.920799687323028e-41,
      4.915194493465728e-41,
      4.915755012851458e-41,
      4.923322024558812e-41,
      4.928226569183949e-41,
      4.948545396916659e-41,
      4.941398774748602e-41,
      -0.02659052610397339,
      0.037176527082920074,
      0.06700393557548523,
      0.03443348407745361,
      0.061123281717300415,
      0.032982055097818375,
      0.045158807188272476,
      0.11785725504159927,
      0.06488890200853348,
      0.03053206391632557,
      0.07719474285840988,
      0.08686400204896927,
      -0.022766906768083572,
      0.016695616766810417,
      0.002546928822994232,
      -0.01911803148686886,
      -0.009882835671305656,
      0.016571683809161186,
      0.062376465648412704,
      0.004572832956910133,
      0.007214052602648735,
      0.2051689475774765,
      0.12325185537338257,
      0.11815851181745529,
      0.06894227862358093,
      0.03565869480371475,
      0.0758490338921547,
      -0.14245747029781342,
      -0.19081057608127594,
      -0.15511465072631836,
      -0.011496094055473804,
      -0.10031972080469131,
      0.0552971325814724,
      -0.17071066796779633,
      0.02546204999089241,
      0.01361097488552332,
      -0.07596037536859512,
      -0.03276422619819641,
      0.05157950893044472,
      0.08993032574653625,
      -0.011226029135286808,
      0.24699029326438904,
      -0.14628688991069794,
      0.23631489276885986,
      0.2619066536426544,
      4.917016181469351e-41,
      -4.953169681848931e-41,
      -4.920799687323028e-41,
      4.912672156229944e-41,
      -4.909309039915564e-41,
      -4.906926832526212e-41,
      4.953449941541796e-41,
      4.933831763041248e-41,
      -4.946163189527307e-41,
      4.92037929778373e-41,
      -4.956252538470445e-41,
      4.926404881180327e-41,
      4.925984491641029e-41,
      4.937054749509196e-41,
      4.925844361794597e-41,
      4.918417479933675e-41,
      4.957934096627635e-41,
      4.945042150755847e-41,
      4.927245660258922e-41,
      5.493370239846148e-41,
      -4.904824884829725e-41,
      4.914493844233566e-41,
      -4.91813722024081e-41,
      -4.92206085594092e-41,
      -4.935233061505573e-41,
      -4.917716830701513e-41,
      4.909028780222699e-41,
      4.926404881180327e-41,
      4.912532026383511e-41,
      4.911130727919186e-41,
      4.939857346437845e-41,
      4.909589299608429e-41,
      4.93957708674498e-41,
      4.918977999319405e-41,
      4.953870331081093e-41,
      4.908047871297672e-41,
      -0.00028259470127522945,
      -0.0008465207065455616,
      -0.00030600480386056006,
      -0.0009568470413796604,
      0.00017736836161930114,
      -0.0005254404968582094,
      0.00024752027820795774,
      -0.001015583868138492,
      -0.00037137564504519105,
      -4.220726712269695e-18,
      -2.5223749137660487e-16,
      -9.409786287488059e-17,
      -2.3571039295929332e-17,
      -5.376242855059417e-17,
      -5.916077135551529e-17,
      -2.3555918020741557e-18,
      -2.1141438114165924e-16,
      -8.284166685423657e-18,
      -0.001753767253831029,
      -0.001007147366181016,
      -0.0009676228510215878,
      -0.0013946255203336477,
      -0.001200509606860578,
      -0.0009942473843693733,
      -0.0017145589226856828,
      -0.0014881690731272101,
      -0.0008767601102590561,
      -0.003373153507709503,
      -0.0030364086851477623,
      -0.0024076136760413647,
      -0.003458765335381031,
      -0.003263481194153428,
      -0.002899653511121869,
      -0.003873765468597412,
      -0.003125294577330351,
      -0.002797194290906191,
      -8.758754847804084e-05,
      -6.727485015289858e-05,
      -8.208343933802098e-05,
      1.392488684359705e-05,
      -2.606359339552e-05,
      4.4126234570285305e-05,
      -0.00015233545855153352,
      -3.841955549432896e-05,
      -0.00020814905292354524,
      -0.0005950689082965255,
      -0.0007556612836197019,
      -0.00037140879430808127,
      -0.0005109971389174461,
      -0.0007555249612778425,
      -0.0004298162821214646,
      -0.000547588337212801,
      -0.00034447110374458134,
      -0.00040074443677440286,
      -5.996156128845892e-41,
      4.2737641344056866e-40,
      -4.2883236254500214e-40,
      -1.120828576690205e-40,
      1.6920398697029301e-40,
      -1.7069636983479894e-40,
      5.643869694914633e-41,
      -1.1437398065819157e-40,
      2.7864819963098987e-40,
      5.671725242240022e-12,
      1.696589917166147e-11,
      2.1091498339509407e-11,
      1.3418148814281494e-09,
      5.38848021758298e-10,
      -2.7139887559535225e-10,
      2.2394712750894996e-09,
      2.771502749521204e-10,
      3.776357448970202e-09,
      -7.149762677727267e-05,
      -0.0001679809356573969,
      -5.120966670801863e-05,
      -0.00020075112115591764,
      -0.0004626392328646034,
      -0.0001697664993116632,
      -0.0003252620517741889,
      -0.00040578015614300966,
      -0.00030068447813391685,
      -2.94044912152458e-06,
      -5.305794729792979e-06,
      -3.8381475064852566e-07,
      -2.754314846242778e-05,
      7.862939128244761e-06,
      -2.072515053441748e-05,
      -1.3120295989210717e-05,
      -1.316023917752318e-05,
      3.4813713227777043e-06,
      -0.0014450984308496118,
      -0.0008559885318391025,
      -0.0015943002654239535,
      -0.0007346405182033777,
      -0.0017758657922968268,
      -0.0015341421822085977,
      -0.0016908663092181087,
      -0.0009081465541385114,
      -0.0013972246088087559,
      -0.0002460242831148207,
      3.8926351408008486e-05,
      -0.00014355420717038214,
      -0.00015715122572146356,
      -0.00016904556832741946,
      -0.0004014743317384273,
      -0.00037039932794868946,
      -1.689515556790866e-05,
      3.3363171496603172e-06,
      4.910289948840591e-41,
      -4.923882543944542e-41,
      6.092985852730737e-41,
      -5.275888718182936e-41,
      -4.905945923601185e-41,
      -5.66797202850102e-41,
      6.268988939849934e-41,
      5.60813658407435e-41,
      -5.01804980074717e-41,
      -6.035812875386285e-41,
      4.909449169761997e-41,
      -4.909309039915564e-41,
      -5.173453800440792e-41,
      4.968864224649369e-41,
      4.980635131749697e-41,
      -5.641067097985984e-41,
      5.836688363605728e-41,
      -4.990163961307106e-41,
      -5.504720757407179e-41,
      -5.242818074424871e-41,
      4.919118129165838e-41,
      -5.660264886947234e-41,
      5.585575678798721e-41,
      6.172999995043684e-41,
      4.927245660258922e-41,
      5.05868745621259e-41,
      -5.316806633341221e-41,
      4.95877487570623e-41,
      5.916141986532945e-41,
      4.921220076862325e-41,
      5.020011618597225e-41,
      5.223059766077891e-41,
      -5.595244638202562e-41,
      -6.019557813200117e-41,
      -5.177377436140902e-41,
      5.273226251100719e-41,
      0.1816437840461731,
      0.1770523488521576,
      -0.6989229321479797,
      0.4014708995819092,
      -0.006129859481006861,
      0.2542113959789276,
      -0.40839171409606934,
      0.013585077598690987,
      0.028926745057106018,
      -0.03482582047581673,
      -0.011066650040447712,
      0.017708633095026016,
      -0.023033330217003822,
      -0.27041304111480713,
      -0.044160012155771255,
      -0.10003601014614105,
      -0.1269795447587967,
      -0.06929376721382141,
      0.057193901389837265,
      0.10892334580421448,
      0.025864144787192345,
      0.11325099319219589,
      0.07269791513681412,
      -0.04618677496910095,
      -0.23951104283332825,
      0.10386722534894943,
      -0.330272376537323,
      -0.12759579718112946,
      -0.05687011778354645,
      -0.004693626891821623,
      -0.22241152822971344,
      -0.1177397295832634,
      0.07484448701143265,
      -0.2032785266637802,
      -0.12891262769699097,
      -0.047471143305301666,
      -0.030527407303452492,
      -0.28154295682907104,
      -0.2859049141407013,
      0.5770527720451355,
      0.52171391248703,
      0.3328264653682709,
      -0.17776556313037872,
      -0.16037727892398834,
      -0.024916674941778183,
      -0.027482198551297188,
      -0.1081303060054779,
      -0.29249024391174316,
      -0.09618756175041199,
      -0.024030465632677078,
      0.16056551039218903,
      -0.06604791432619095,
      -0.013448168523609638,
      -0.00027217232855036855,
      -4.912391896537079e-41,
      -4.928086439337517e-41,
      -4.93957708674498e-41,
      -4.939717216591413e-41,
      -4.909449169761997e-41,
      -4.918557609780108e-41,
      -4.918277350087243e-41,
      -4.94069812551644e-41,
      -4.913372805462106e-41,
      0.18223527073860168,
      0.3551066219806671,
      0.04884684085845947,
      0.013497699983417988,
      0.09927370399236679,
      0.21223145723342896,
      -0.2190929353237152,
      0.07319479435682297,
      0.12134507298469543,
      -0.15780287981033325,
      -0.38237908482551575,
      -0.46724745631217957,
      0.17938169836997986,
      0.128220796585083,
      0.13863632082939148,
      0.27182796597480774,
      0.17491093277931213,
      0.2150229960680008,
      0.2886117994785309,
      0.05154327675700188,
      -0.010729504749178886,
      0.06799621134996414,
      -0.022639386355876923,
      0.20995092391967773,
      0.11528021097183228,
      -0.2249307781457901,
      -0.0638296827673912,
      -0.08087120950222015,
      -0.178959459066391,
      0.2709084451198578,
      -0.5187325477600098,
      -0.02564028836786747,
      0.057277578860521317,
      0.03740764781832695,
      -0.09936828911304474,
      0.051105353981256485,
      0.2939904034137726,
      0.0842725858092308,
      0.4264296889305115,
      -0.5376598238945007,
      0.44495829939842224,
      -0.015377317555248737,
      0.11699363589286804,
      0.1212872862815857,
      0.19918541610240936,
      -5.429377463128134e-22,
      -4.947846531110983e-25,
      -7.397291689296499e-25,
      3.329775150513477e-35,
      -1.639756615803844e-29,
      -1.824830437964152e-23,
      -4.931869945191194e-41,
      1.6741571489037042e-36,
      -4.118604571495834e-30,
      -4.94462176121655e-41,
      -4.948965786455956e-41,
      -4.915755012851458e-41,
      -4.907207092219077e-41,
      -4.941959294134332e-41,
      -4.928086439337517e-41,
      4.946723708913037e-41,
      -4.927666049798219e-41,
      -4.932570594423356e-41,
      4.91925825901227e-41,
      4.906926832526212e-41,
      -4.915614883005026e-41,
      4.950086825227416e-41,
      -4.919818778398e-41,
      -4.930048257187571e-41,
      4.931449555651896e-41,
      -4.909449169761997e-41,
      -4.932850854116221e-41,
      -4.93733500920206e-41,
      -5.680443584833511e-41,
      -5.755553182521321e-41,
      4.923462154405245e-41,
      -6.195140510780016e-41,
      -5.441802456358995e-41,
      4.941959294134332e-41,
      4.948405267070227e-41,
      4.911130727919186e-41,
      -0.32527098059654236,
      0.23264822363853455,
      0.004111426882445812,
      0.090326227247715,
      -0.04019367694854736,
      -0.05028147250413895,
      0.25629982352256775,
      0.013607843779027462,
      0.4067366123199463,
      0.010628880001604557,
      -0.009285949170589447,
      0.02268587239086628,
      -0.010654368437826633,
      0.008710605092346668,
      0.03095172718167305,
      -0.030617794021964073,
      0.020253347232937813,
      0.025187136605381966,
      -0.12377478927373886,
      -0.03892064467072487,
      -0.07860955595970154,
      0.0664420947432518,
      -0.17590679228305817,
      0.06712403148412704,
      -0.13819406926631927,
      -0.044351957738399506,
      -0.12498131394386292,
      -0.021697549149394035,
      0.03509613126516342,
      0.17568103969097137,
      0.005219386424869299,
      0.08073844015598297,
      0.11074849218130112,
      0.005102187395095825,
      0.018404031172394753,
      -0.03124425560235977,
      -0.063186414539814,
      0.17602846026420593,
      0.027050215750932693,
      0.0671728253364563,
      -0.2306727021932602,
      -0.11894668638706207,
      0.16005940735340118,
      0.28486204147338867,
      0.04339548572897911,
      -0.12337706238031387,
      -0.04080631211400032,
      0.0784093365073204,
      -0.08892334252595901,
      -0.035486094653606415,
      -0.1411323994398117,
      -0.0009282404789701104,
      -0.13724565505981445,
      0.0342983677983284,
      -4.931589685498329e-41,
      -4.948965786455956e-41,
      -4.915054363619296e-41,
      -4.917856960547946e-41,
      -4.950787474459579e-41,
      -4.921640466401623e-41,
      -4.917576700855081e-41,
      -4.917997090394378e-41,
      -4.914493844233566e-41,
      0.054532039910554886,
      0.0558667853474617,
      0.01249718014150858,
      -0.00861776527017355,
      0.010132339783012867,
      -0.0463571771979332,
      0.049305807799100876,
      0.02537282556295395,
      0.08027927577495575,
      0.028879817575216293,
      0.021418746560811996,
      0.04533468559384346,
      -0.021196825429797173,
      -0.06508684903383255,
      -0.02221895195543766,
      0.021663926541805267,
      0.13428643345832825,
      0.12610086798667908,
      -0.2758193612098694,
      0.003910197410732508,
      -0.057101793587207794,
      0.16516084969043732,
      -0.23707415163516998,
      -0.01702658087015152,
      0.2444257140159607,
      0.10037679225206375,
      0.0738566592335701,
      0.08536306768655777,
      -0.1372343748807907,
      -0.25631293654441833,
      -0.17778532207012177,
      -0.22774070501327515,
      -0.28595519065856934,
      -0.26789870858192444,
      -0.24719105660915375,
      -0.1544485241174698,
      0.3374690115451813,
      -0.007426748517900705,
      -0.16359780728816986,
      0.003164064371958375,
      -0.2768534719944,
      -0.37476634979248047,
      0.11386711895465851,
      -0.10183088481426239,
      0.036405764520168304,
      4.93957708674498e-41,
      4.907347222065509e-41,
      4.932990983962654e-41,
      4.92093981716946e-41,
      4.907907741451239e-41,
      4.944341501523685e-41,
      4.910009689147727e-41,
      4.915054363619296e-41,
      4.922341115633785e-41,
      4.948545396916659e-41,
      -4.912672156229944e-41,
      -4.958915005552663e-41,
      -4.946583579066604e-41,
      -4.942800073212927e-41,
      -4.907066962372644e-41,
      4.927245660258922e-41,
      4.977272015435318e-41,
      -4.953590071388228e-41,
      -4.919538518705135e-41,
      -4.944902020909414e-41,
      -4.909729429454862e-41,
      -4.936634359969898e-41,
      -4.919818778398e-41,
      -4.927245660258922e-41,
      -4.910850468226321e-41,
      -4.916175402390756e-41,
      -4.945462540295144e-41,
      4.915474753158593e-41,
      4.945462540295144e-41,
      4.948965786455956e-41,
      4.933971892887681e-41,
      4.928226569183949e-41,
      4.931309425805464e-41,
      4.947844747684497e-41,
      6.081915594862571e-41,
      -4.950787474459579e-41,
      -0.1530865877866745,
      0.20317934453487396,
      0.08497468382120132,
      0.05737549439072609,
      0.09985683858394623,
      -0.12969215214252472,
      0.41666609048843384,
      0.41496092081069946,
      0.5700644850730896,
      -0.024761123582720757,
      -0.04811263084411621,
      -0.0037314039655029774,
      -0.042442914098501205,
      0.016146427020430565,
      -0.01447446458041668,
      -0.06258480250835419,
      -0.043024443089962006,
      0.006831212434917688,
      -0.07628482580184937,
      0.03513013571500778,
      0.0052087390795350075,
      0.11332603543996811,
      -0.1273820996284485,
      0.13581404089927673,
      -0.2119748592376709,
      -0.35680148005485535,
      -0.2133340686559677,
      -0.054377153515815735,
      0.024225397035479546,
      0.14243808388710022,
      0.0733717754483223,
      0.0655006393790245,
      0.07928396016359329,
      0.02828466147184372,
      0.00047953156172297895,
      0.028892692178487778,
      -0.043978750705718994,
      0.09323526918888092,
      -0.1901530623435974,
      -0.1225597932934761,
      -0.12575548887252808,
      -0.31958138942718506,
      0.18694444000720978,
      0.2545771300792694,
      -0.0011703523341566324,
      -0.2327975332736969,
      0.014099524356424809,
      0.11732498556375504,
      -0.0035727641079574823,
      -0.10223913192749023,
      -0.2030695378780365,
      0.10635488480329514,
      0.12673938274383545,
      0.2552086114883423,
      -4.908047871297672e-41,
      -4.941398774748602e-41,
      -4.925704231948164e-41,
      -4.915755012851458e-41,
      -4.919118129165838e-41,
      -4.949386175995254e-41,
      -4.911971506997781e-41,
      -4.944341501523685e-41,
      4.94125864490217e-41,
      0.08523744344711304,
      -0.0435376800596714,
      -0.012146358378231525,
      0.0335429348051548,
      0.060491893440485,
      -0.10038913041353226,
      0.0302621778100729,
      0.10903289169073105,
      0.039951104670763016,
      -0.06718176603317261,
      -0.09489446133375168,
      0.030522234737873077,
      -0.08844359219074249,
      -0.1878342181444168,
      -0.18717455863952637,
      0.14033184945583344,
      0.06649687141180038,
      0.06400016695261002,
      0.022721564397215843,
      0.03213824704289436,
      -0.07600750029087067,
      0.062258023768663406,
      -0.08238618075847626,
      -0.07617752999067307,
      -0.06462721526622772,
      -0.0873950719833374,
      0.18840144574642181,
      -0.0939209833741188,
      -0.21971507370471954,
      -0.22610796988010406,
      -0.017610963433980942,
      -0.3340013921260834,
      -0.3056725859642029,
      -0.4872051477432251,
      -0.28774312138557434,
      -0.13265928626060486,
      0.07189658284187317,
      -0.027945172041654587,
      -0.05699729174375534,
      0.08069715648889542,
      -0.3126189708709717,
      -0.36710989475250244,
      -0.2840213179588318,
      -0.13451845943927765,
      0.3184702694416046,
      4.926545011026759e-41,
      4.948965786455956e-41,
      4.909449169761997e-41,
      4.911831377151349e-41,
      4.918417479933675e-41,
      -4.945462540295144e-41,
      4.938315918127088e-41,
      -4.943220462752225e-41,
      -4.917156311315783e-41,
      -4.909589299608429e-41,
      4.933131113809086e-41,
      -4.933971892887681e-41,
      -4.916315532237188e-41,
      4.933411373501951e-41,
      -4.913092545769241e-41,
      4.92037929778373e-41,
      -4.945882929834442e-41,
      -4.954570980313256e-41,
      4.932290334730491e-41,
      4.91869773962654e-41,
      4.925564102101732e-41,
      4.934392282426978e-41,
      4.910430078687024e-41,
      4.908888650376267e-41,
      -4.935793580891303e-41,
      -4.941679034441467e-41,
      4.933971892887681e-41,
      4.916455662083621e-41,
      4.929908127341139e-41,
      4.915614883005026e-41,
      4.915755012851458e-41,
      4.917156311315783e-41,
      4.952188772923904e-41,
      4.904824884829725e-41,
      4.951768383384606e-41,
      4.914493844233566e-41,
      0.043407682329416275,
      0.23843355476856232,
      -0.021404722705483437,
      -0.5227497220039368,
      -0.16927754878997803,
      0.3617750108242035,
      0.32481709122657776,
      -0.06188506260514259,
      -0.04924822971224785,
      0.06340793520212173,
      -0.06413906067609787,
      0.020455777645111084,
      -0.07376587390899658,
      -0.028816668316721916,
      -0.061294130980968475,
      -0.0478377565741539,
      -0.006664535496383905,
      -0.02314252033829689,
      0.03565904125571251,
      0.06666966527700424,
      -0.07497286051511765,
      0.03160874545574188,
      -0.27308768033981323,
      0.03375060856342316,
      -0.08202952146530151,
      -0.14568288624286652,
      -0.06717853993177414,
      0.36199846863746643,
      0.41093915700912476,
      0.07067461311817169,
      -0.1344228833913803,
      -0.11132948845624924,
      -0.38038870692253113,
      -0.22842007875442505,
      -0.09194037318229675,
      -0.216702401638031,
      -0.1922188252210617,
      0.0735209658741951,
      -0.20554648339748383,
      -0.07589000463485718,
      0.15481676161289215,
      0.5901357531547546,
      0.14969567954540253,
      0.28806906938552856,
      -0.17389264702796936,
      0.2972399592399597,
      0.5459234714508057,
      0.11324281245470047,
      0.0035608550533652306,
      -0.06614848226308823,
      -0.09767737984657288,
      -0.20800423622131348,
      0.009979457594454288,
      -0.34444865584373474,
      4.917156311315783e-41,
      4.928366699030382e-41,
      -4.906506442986914e-41,
      -4.947704617838064e-41,
      4.958074226474068e-41,
      4.92150033655519e-41,
      -4.926545011026759e-41,
      -4.93901656735925e-41,
      4.936634359969898e-41,
      0.23912228643894196,
      -0.07099899649620056,
      0.17746539413928986,
      0.022298773750662804,
      -0.0340600349009037,
      -0.02978823333978653,
      0.05529174208641052,
      -0.2729606628417969,
      0.01955232582986355,
      0.17412716150283813,
      0.073018878698349,
      -0.012783273123204708,
      0.010956601239740849,
      0.05794132128357887,
      0.16590633988380432,
      -0.014163540676236153,
      0.05181816592812538,
      -0.17080195248126984,
      -0.037105903029441833,
      -0.15845359861850739,
      0.11232379078865051,
      -0.007793358061462641,
      -0.014375286176800728,
      0.3375159800052643,
      0.1510772407054901,
      0.02185760997235775,
      0.13055241107940674,
      -0.20276959240436554,
      -0.1571855992078781,
      -0.26535946130752563,
      -0.030778637155890465,
      -0.03832414746284485,
      -0.06660567224025726,
      -0.2640611231327057,
      -0.09801187366247177,
      -0.16136661171913147,
      -0.14341025054454803,
      -0.19900251924991608,
      -0.03913096711039543,
      -0.0824737474322319,
      0.04476955160498619,
      0.18326599895954132,
      -0.16211557388305664,
      -0.1376514583826065,
      -0.07195854932069778,
      -4.946723708913037e-41,
      -4.934672542119843e-41,
      4.945602670141577e-41,
      4.914633974079998e-41,
      -4.950226955073849e-41,
      -4.953590071388228e-41,
      5.325074294280737e-41,
      4.946163189527307e-41,
      -4.908188001144104e-41,
      4.908188001144104e-41,
      4.928086439337517e-41,
      -4.953590071388228e-41,
      4.939857346437845e-41,
      -4.973908899120938e-41,
      -5.006419023493274e-41,
      4.951768383384606e-41,
      5.021132657368685e-41,
      5.048457977423018e-41,
      -4.942239553827197e-41,
      -4.952889422156066e-41,
      -4.952749292309633e-41,
      -4.905525534061887e-41,
      -4.932150204884059e-41,
      4.943640852291522e-41,
      -4.920519427630163e-41,
      -4.921920726094487e-41,
      -4.904965014676157e-41,
      -4.912952415922809e-41,
      -4.930048257187571e-41,
      -4.910570208533456e-41,
      -4.944341501523685e-41,
      -4.94350072244509e-41,
      4.945882929834442e-41,
      -4.921640466401623e-41,
      4.931309425805464e-41,
      4.928646958723247e-41,
      -0.13177168369293213,
      -0.11781731992959976,
      0.19304296374320984,
      0.00038250398938544095,
      -0.11414419114589691,
      -0.14236009120941162,
      0.21646758913993835,
      0.528799295425415,
      0.3513503074645996,
      0.04309379309415817,
      0.050750087946653366,
      0.015573152340948582,
      0.03396167978644371,
      0.03462681919336319,
      0.030461160466074944,
      -0.0014798891497775912,
      -0.0475948266685009,
      -0.024307139217853546,
      0.08873184025287628,
      0.027287177741527557,
      -0.022082511335611343,
      -0.003308107377961278,
      -0.10692004859447479,
      -0.13578350841999054,
      -0.16037726402282715,
      -0.1994856297969818,
      -0.19953259825706482,
      0.07945013791322708,
      0.07991692423820496,
      -0.028506537899374962,
      0.1442393958568573,
      0.0414944663643837,
      -0.11726487427949905,
      0.12753461301326752,
      -0.10685062408447266,
      -0.11307116597890854,
      -0.06179583817720413,
      0.05886056646704674,
      -0.02285104990005493,
      -0.002508540404960513,
      -0.21842272579669952,
      -0.12960626184940338,
      0.058578286319971085,
      0.32368990778923035,
      0.05158417299389839,
      -0.14927183091640472,
      0.12870608270168304,
      0.04619203135371208,
      0.00318383751437068,
      -0.007257185410708189,
      -0.01608123630285263,
      0.09600572288036346,
      0.03268459439277649,
      0.12521235644817352,
      -4.931169295959031e-41,
      4.930048257187571e-41,
      4.934952801812708e-41,
      -4.921640466401623e-41,
      -4.933271243655518e-41,
      -4.940557995670008e-41,
      -4.918837869472973e-41,
      -4.934952801812708e-41,
      4.911971506997781e-41,
      -0.00899574812501669,
      0.0563352108001709,
      0.0035392865538597107,
      0.009298417717218399,
      -0.09939111769199371,
      -0.04911541938781738,
      0.0019141994416713715,
      0.2079755663871765,
      -0.09844430536031723,
      -0.11175220459699631,
      -0.006210952997207642,
      -0.09678378701210022,
      -0.08614392578601837,
      -0.1509198099374771,
      -0.04709430783987045,
      -0.018975084647536278,
      0.0008244641358032823,
      -0.053106557577848434,
      0.11981675028800964,
      0.02645236626267433,
      -0.029006361961364746,
      -0.0024236543104052544,
      0.14462360739707947,
      -0.18219934403896332,
      -0.0740777999162674,
      0.10953556001186371,
      -0.12243905663490295,
      -0.05529272183775902,
      0.03740617632865906,
      -0.19247829914093018,
      -0.2545018792152405,
      -0.17208699882030487,
      -0.09269855171442032,
      -0.018025735393166542,
      -0.12629148364067078,
      -0.03403860703110695,
      0.07196024060249329,
      -0.08165444433689117,
      -0.22059378027915955,
      -0.3692130446434021,
      -0.3557528555393219,
      -0.1479095220565796,
      0.16161835193634033,
      -0.1800433099269867,
      -0.15712766349315643,
      -4.908608390683402e-41,
      4.940277735977143e-41,
      4.909869559301294e-41,
      -4.92206085594092e-41,
      4.934672542119843e-41,
      -4.949806565534551e-41,
      -4.947704617838064e-41,
      4.913232675615674e-41,
      -4.953730201234661e-41,
      -4.92262137532665e-41,
      -5.009642009961221e-41,
      -4.953730201234661e-41,
      -4.911831377151349e-41,
      4.980074612363967e-41,
      -4.965080718795692e-41,
      4.910289948840591e-41,
      4.960036044324123e-41,
      4.939997476284278e-41,
      -4.954150590773958e-41,
      4.908608390683402e-41,
      4.912672156229944e-41,
      -4.942659943366495e-41,
      -4.947284228298767e-41,
      4.948265137223794e-41,
      4.932010075037626e-41,
      -4.928927218416112e-41,
      -4.919818778398e-41,
      4.953590071388228e-41,
      -4.955692019084716e-41,
      -4.948405267070227e-41,
      4.936774489816331e-41,
      4.958354486166933e-41,
      -4.905945923601185e-41,
      -4.938315918127088e-41,
      5.535409193775892e-41,
      -4.930188387034004e-41,
      0.04641812667250633,
      0.0070082866586744785,
      -0.49480634927749634,
      0.3965483009815216,
      0.20189045369625092,
      0.022376205772161484,
      0.10118798911571503,
      -0.023232173174619675,
      0.4470692276954651,
      -0.006904076784849167,
      -0.058379679918289185,
      -0.02736198529601097,
      -0.018918797373771667,
      -0.03517770394682884,
      -0.017237588763237,
      -0.0060660759918391705,
      -0.00989152118563652,
      0.023268988355994225,
      0.08593328297138214,
      0.0849163830280304,
      0.1731826215982437,
      0.05526192858815193,
      -0.26517945528030396,
      -0.06437364220619202,
      -0.29794642329216003,
      -0.5954219102859497,
      -0.3721913695335388,
      0.08354324847459793,
      0.11345787346363068,
      0.4130657911300659,
      0.13736169040203094,
      0.11337511986494064,
      0.4068010747432709,
      -0.34821534156799316,
      -0.34764623641967773,
      -0.11459066718816757,
      0.06154944747686386,
      -0.12929633259773254,
      -0.1392473429441452,
      -0.09972839802503586,
      -0.3933669924736023,
      -0.4775257408618927,
      0.4720710217952728,
      0.4901878833770752,
      0.3422011435031891,
      0.010840974748134613,
      0.12913498282432556,
      0.22185015678405762,
      0.19873519241809845,
      0.18578334152698517,
      0.31363216042518616,
      -0.24217820167541504,
      -0.1747724562883377,
      0.22158892452716827,
      4.90510514452259e-41,
      4.920659557476595e-41,
      -4.91813722024081e-41,
      4.923041764865947e-41,
      -4.952048643077471e-41,
      -4.906646572833347e-41,
      4.929767997494706e-41,
      -4.907627481758374e-41,
      -4.905385404215455e-41,
      0.015073577873408794,
      0.007803004700690508,
      -0.21257105469703674,
      -0.011058574542403221,
      -0.027389666065573692,
      0.015490344725549221,
      -0.04741235077381134,
      0.0805833712220192,
      0.08064718544483185,
      -0.028403371572494507,
      -0.17434567213058472,
      -0.1022196114063263,
      0.021594949066638947,
      -0.17673197388648987,
      -0.20910555124282837,
      0.12973149120807648,
      0.11715757846832275,
      0.2223762571811676,
      0.2422851324081421,
      0.04103546589612961,
      -0.23570707440376282,
      0.18243974447250366,
      0.08600018173456192,
      -0.27311304211616516,
      0.023054201155900955,
      -0.01048528216779232,
      0.04268452525138855,
      -0.06520943343639374,
      -0.3572944402694702,
      -0.37195885181427,
      0.06306840479373932,
      -0.22498998045921326,
      -0.1414634883403778,
      -0.14228780567646027,
      -0.1542786806821823,
      -0.04588812217116356,
      0.37262603640556335,
      -0.07037155330181122,
      -0.33862078189849854,
      -0.09569395333528519,
      -0.3061825633049011,
      -0.3434925973415375,
      -0.053901173174381256,
      -0.1837422102689743,
      -0.12219832092523575,
      -5.154816530865272e-41,
      -4.944201371677252e-41,
      -4.936914619662763e-41,
      4.923882543944542e-41,
      4.934392282426978e-41,
      -4.916175402390756e-41,
      4.939717216591413e-41,
      4.942099423980765e-41,
      4.915054363619296e-41,
      4.947424358145199e-41,
      -4.932010075037626e-41,
      4.913653065154971e-41,
      -4.958354486166933e-41,
      4.943360592598657e-41,
      4.92374241409811e-41,
      -4.904684754983292e-41,
      -4.955551889238283e-41,
      -5.340348447541878e-41,
      4.917016181469351e-41,
      4.921360206708758e-41,
      4.918557609780108e-41,
      4.947144098452334e-41,
      -4.935373191352006e-41,
      4.947284228298767e-41,
      -4.934672542119843e-41,
      4.908188001144104e-41,
      -4.92486345286957e-41,
      4.94350072244509e-41,
      4.909028780222699e-41,
      4.913232675615674e-41,
      4.931729815344761e-41,
      4.920099038090865e-41,
      4.906786702679779e-41,
      4.945602670141577e-41,
      4.93957708674498e-41,
      4.948545396916659e-41,
      -0.04452712461352348,
      0.05438639596104622,
      -0.3807799518108368,
      0.13057367503643036,
      -0.06561834365129471,
      -0.4394695460796356,
      0.14320653676986694,
      0.021384771913290024,
      0.32789096236228943,
      0.3997690975666046,
      0.35873040556907654,
      0.32606905698776245,
      0.40545979142189026,
      0.34958454966545105,
      0.2731570899486542,
      0.4210364818572998,
      0.4198952615261078,
      0.3081344664096832,
      -0.044868942350149155,
      0.09746962040662766,
      -0.16061732172966003,
      0.09701913595199585,
      -0.20290039479732513,
      -0.1649457961320877,
      0.01205263938754797,
      -0.3638482987880707,
      -0.3628058135509491,
      -0.03430113196372986,
      0.041769541800022125,
      0.1837419718503952,
      0.047865089029073715,
      0.09090828895568848,
      0.1539757251739502,
      0.0012457040138542652,
      0.02068825252354145,
      -0.08679325878620148,
      0.06832782179117203,
      0.07911334186792374,
      -0.03977906331419945,
      0.010916267521679401,
      0.01165249664336443,
      -0.18245242536067963,
      0.3151196837425232,
      0.3397986590862274,
      0.162735715508461,
      -0.07154279202222824,
      0.028456024825572968,
      0.028374895453453064,
      0.014792203903198242,
      0.1198088526725769,
      -0.04820043221116066,
      0.04979018121957779,
      0.147561177611351,
      0.15938787162303925,
      -4.917156311315783e-41,
      -4.950367084920281e-41,
      -4.931729815344761e-41,
      -4.949105916302389e-41,
      -4.934952801812708e-41,
      -4.917856960547946e-41,
      -4.908047871297672e-41,
      -4.908888650376267e-41,
      -4.915614883005026e-41,
      0.04572620987892151,
      -0.03137936070561409,
      0.05842739716172218,
      0.024769965559244156,
      -0.017293371260166168,
      -0.11364686489105225,
      0.00016790744848549366,
      0.13709880411624908,
      0.0796285942196846,
      -0.10972191393375397,
      -0.1170896366238594,
      -0.0706566721200943,
      -0.2254904806613922,
      -0.11485807597637177,
      -0.27342456579208374,
      0.043562691658735275,
      0.08465345203876495,
      0.002061352366581559,
      -0.16120029985904694,
      0.015301145613193512,
      -0.17277856171131134,
      0.16048561036586761,
      -0.12424681335687637,
      -0.403690904378891,
      -0.07626477628946304,
      -0.11079608649015427,
      0.027588747441768646,
      0.14555607736110687,
      0.08378708362579346,
      -0.1582554578781128,
      0.29216858744621277,
      0.12342578172683716,
      0.014684619382023811,
      0.011805636808276176,
      0.023421354591846466,
      0.01909755729138851,
      0.25232455134391785,
      0.03542712703347206,
      -0.3020787835121155,
      0.19438111782073975,
      -0.13624075055122375,
      -0.3835761547088623,
      -0.12875010073184967,
      -0.36911094188690186,
      -0.0835031196475029,
      4.94350072244509e-41,
      4.945742799988009e-41,
      4.935233061505573e-41,
      4.912952415922809e-41,
      4.916735921776486e-41,
      4.926825270719624e-41,
      4.922200985787352e-41,
      4.914493844233566e-41,
      4.933411373501951e-41,
      4.934812671966276e-41,
      -4.921920726094487e-41,
      -4.912111636844214e-41,
      -4.93901656735925e-41,
      -4.923462154405245e-41,
      -4.950647344613146e-41,
      4.942800073212927e-41,
      4.911551117458484e-41,
      4.929067348262544e-41,
      4.909168910069132e-41,
      4.914213584540701e-41,
      4.939857346437845e-41,
      4.906646572833347e-41,
      4.93733500920206e-41,
      4.951347993845309e-41,
      4.939436956898548e-41,
      4.935513321198438e-41,
      4.93845604797352e-41,
      4.929908127341139e-41,
      4.93901656735925e-41,
      4.94125864490217e-41,
      4.921920726094487e-41,
      4.934952801812708e-41,
      4.921079947015893e-41,
      4.946723708913037e-41,
      4.924022673790975e-41,
      4.906366313140482e-41,
      -0.03418558090925217,
      -0.1610405296087265,
      -0.1287047415971756,
      -0.0089772529900074,
      -0.03807768598198891,
      -0.17234788835048676,
      0.020535647869110107,
      0.09629523009061813,
      -0.05311845615506172,
      0.0030206895899027586,
      -0.10271783918142319,
      -0.09974336624145508,
      0.0491463840007782,
      -0.05031372606754303,
      -0.06953545659780502,
      0.07216227799654007,
      -0.03462204337120056,
      -0.01581544615328312,
      -0.07821435481309891,
      -0.1962399184703827,
      -0.10007456690073013,
      -0.19802044332027435,
      -0.038354843854904175,
      -0.11392674595117569,
      -0.15340954065322876,
      -0.12067222595214844,
      -0.057831112295389175,
      -0.14322735369205475,
      -0.08502842485904694,
      -0.1922026127576828,
      0.04363635554909706,
      -0.04812222346663475,
      -0.19862106442451477,
      0.12487376481294632,
      -0.012418652884662151,
      -0.03514024242758751,
      -0.027050495147705078,
      -0.07352500408887863,
      -0.027970395982265472,
      -0.0523097962141037,
      -0.07958105206489563,
      -0.09069138020277023,
      0.10421530157327652,
      0.05751824006438255,
      -0.19480158388614655,
      -0.005958659574389458,
      -0.06447159498929977,
