{
  "format": "vision_only_vla",
  "num_params": 28004,
  "weights": {
    "conv1_weight": [
      -0.008390854112803936,
      0.24718229472637177,
      0.07387813180685043,
      -0.0668378472328186,
      -0.016417648643255234,
      -0.28990739583969116,
      -0.6190463900566101,
      -0.46974503993988037,
      -0.8359479904174805,
      0.2693694233894348,
      0.6400880217552185,
      0.39458081126213074,
      0.12866263091564178,
      0.22550122439861298,
      -0.15010684728622437,
      -0.3397104740142822,
      -0.33733025193214417,
      -0.5073758959770203,
      0.4887755513191223,
      0.7088534832000732,
      0.3267678916454315,
      0.1550825983285904,
      0.2816416621208191,
      -0.0951647236943245,
      -0.46828651428222656,
      -0.390539288520813,
      -0.7711212038993835,
      -8.428257536330364e-10,
      -1.7685235498277052e-09,
      -2.0631778507862464e-09,
      -1.4469558884400158e-09,
      -2.6401871799919263e-09,
      -3.1648688114671586e-09,
      -2.2136328325927934e-09,
      -5.469223740561802e-09,
      -4.330853897727138e-09,
      -5.475842499436112e-07,
      -7.524088232457871e-07,
      -7.740819683021982e-07,
      -4.7198062702591415e-07,
      -6.245998065423919e-07,
      -6.574193207598e-07,
      -3.435646931393421e-07,
      -5.455523250930128e-07,
      -4.75161982649297e-07,
      -1.0608287226432367e-07,
      -1.2436012752914394e-07,
      -1.2569319096655818e-07,
      -9.617632201752713e-08,
      -1.0697327468278672e-07,
      -1.1370980956826315e-07,
      -5.4052073039656534e-08,
      -7.888846909054337e-08,
      -6.435416821659601e-08,
      -0.13345441222190857,
      -0.109604611992836,
      0.5271794199943542,
      -0.5290845036506653,
      0.20707862079143524,
      0.07029418647289276,
      -0.0692143365740776,
      0.21478663384914398,
      -0.3948659300804138,
      -0.10476510971784592,
      -0.028199365362524986,
      0.5854665637016296,
      -0.6285603642463684,
      -0.014486041851341724,
      -0.036751389503479004,
      -0.3299059271812439,
      -0.09872744232416153,
      -0.6175011992454529,
      0.20569448173046112,
      0.1692315638065338,
      0.753273606300354,
      -0.3611431121826172,
      0.058277618139982224,
      -0.0158805213868618,
      -0.23101527988910675,
      -0.08431562781333923,
      -0.7580131888389587,
      0.24565091729164124,
      -0.4511358141899109,
      -0.2982851564884186,
      0.11463024467229843,
      0.13174857199192047,
      0.6553676724433899,
      0.816308856010437,
      -0.10041644424200058,
      -0.08705278486013412,
      0.07429399341344833,
      -0.5525478720664978,
      -0.23088163137435913,
      -0.1652677059173584,
      0.05313238129019737,
      0.5423895716667175,
      0.5697646737098694,
      -0.22904443740844727,
      -0.11159147322177887,
      0.05699598416686058,
      -0.7380359172821045,
      -0.18764619529247284,
      -0.3281839191913605,
      -0.21249330043792725,
      0.35222119092941284,
      0.4526776075363159,
      -0.5006266832351685,
      -0.39527878165245056,
      0.08110354840755463,
      0.4008823037147522,
      0.56455397605896,
      -0.47918105125427246,
      -0.6081058979034424,
      -0.04866868630051613,
      -0.16165298223495483,
      -0.43461304903030396,
      -0.027536701411008835,
      0.0063557978719472885,
      0.41920456290245056,
      0.5619707703590393,
      -0.5288949012756348,
      -0.48035484552383423,
      0.15604911744594574,
      -0.10627416521310806,
      -0.359102338552475,
      0.05965579301118851,
      0.03470013290643692,
      0.44468802213668823,
      0.6243063807487488,
      -0.5066854953765869,
      -0.4322417378425598,
      0.16068440675735474,
      -0.010576353408396244,
      -0.254090279340744,
      0.2419971078634262,
      -0.0012208999833092093,
      -0.0009427271434105933,
      -0.0007378631271421909,
      -0.0009478706633672118,
      -0.0008995013777166605,
      -0.0004345321503933519,
      -0.0008904683054424822,
      -0.0005878176307305694,
      -0.0002997569681610912,
      -0.0038840770721435547,
      -0.0033782159443944693,
      -0.0029437635093927383,
      -0.0031370935030281544,
      -0.002900191117078066,
      -0.0020746425725519657,
      -0.0026267368812114,
      -0.00211529154330492,
      -0.0015852558426558971,
      -0.00257438188418746,
      -0.002134314039722085,
      -0.0018158822786062956,
      -0.0019728601910173893,
      -0.0018584434874355793,
      -0.0011427408317103982,
      -0.0015938965370878577,
      -0.0011382648954167962,
      -0.000744963763281703,
      4.922761505173082e-41,
      4.949105916302389e-41,
      -4.926825270719624e-41,
      4.909729429454862e-41,
      -4.936914619662763e-41,
      -4.944761891062982e-41,
      -4.921780596248055e-41,
      -4.913793195001404e-41,
      -4.930748906419734e-41,
      -4.937194879355628e-41,
      -4.905385404215455e-41,
      4.912532026383511e-41,
      -5.297748974226403e-41,
      4.948825656609524e-41,
      4.921079947015893e-41,
      4.950086825227416e-41,
      4.915474753158593e-41,
      4.947144098452334e-41,
      4.935373191352006e-41,
      4.91869773962654e-41,
      4.938736307666385e-41,
      4.942800073212927e-41,
      4.935933710737736e-41,
      -4.923462154405245e-41,
      4.947984877530929e-41,
      -4.950226955073849e-41,
      -4.952328902770336e-41,
      -0.35989058017730713,
      -0.46414288878440857,
      -0.41635143756866455,
      0.426683634519577,
      0.05003506317734718,
      0.4452747702598572,
      -0.059642430394887924,
      -0.010596984066069126,
      0.32874590158462524,
      -0.2816002666950226,
      -0.28385746479034424,
      -0.22321122884750366,
      0.20987169444561005,
      -0.0804603323340416,
      0.30986782908439636,
      -0.34227749705314636,
      -0.026822742074728012,
      0.35676249861717224,
      -0.5347038507461548,
      -0.38938528299331665,
      -0.20329082012176514,
      0.33911028504371643,
      -0.12549227476119995,
      0.35064035654067993,
      -0.21518392860889435,
      -0.032879412174224854,
      0.4244384169578552,
      -0.6720525622367859,
      -0.3061410188674927,
      -0.04602673649787903,
      0.1721048802137375,
      0.18819350004196167,
      0.09075018763542175,
      0.25760048627853394,
      -0.05871904641389847,
      0.029362661764025688,
      0.3388029932975769,
      0.43575119972229004,
      0.3391417860984802,
      0.6895728707313538,
      0.5163061022758484,
      0.553546667098999,
      0.7697113752365112,
      0.4248676300048828,
      0.4562622010707855,
      -0.8751329183578491,
      -0.5028451681137085,
      -0.2999493181705475,
      -0.5262929797172546,
      -0.41483256220817566,
      -0.37552258372306824,
      -0.3404269814491272,
      -0.519901692867279,
      -0.42339152097702026,
      -0.0358135923743248,
      0.10789267718791962,
      0.10248512029647827,
      0.3297983407974243,
      0.19532550871372223,
      0.12774977087974548,
      -0.3841496407985687,
      -0.4067082405090332,
      -0.03507988527417183,
      -0.11132574826478958,
      -0.126615971326828,
      -0.06255210936069489,
      0.10667254030704498,
      -0.05987037718296051,
      0.21597908437252045,
      -0.35473430156707764,
      -0.4403800964355469,
      -0.25028735399246216,
      0.32675617933273315,
      0.34836485981941223,
      0.2866315245628357,
      0.4851619005203247,
      0.45671650767326355,
      0.6624444723129272,
      0.01620919071137905,
      0.003756454912945628,
      0.3194986581802368,
      4.920799687323028e-41,
      4.951207863998876e-41,
      4.910009689147727e-41,
      4.920239167937298e-41,
      4.910009689147727e-41,
      4.914914233772863e-41,
      4.92093981716946e-41,
      4.910710338379889e-41,
      4.914213584540701e-41,
      4.951908513231039e-41,
      4.943780982137955e-41,
      4.941959294134332e-41,
      4.930468646726869e-41,
      4.922901635019515e-41,
      4.92093981716946e-41,
      4.944341501523685e-41,
      4.920519427630163e-41,
      4.948265137223794e-41,
      4.936774489816331e-41,
      4.918557609780108e-41,
      4.933831763041248e-41,
      4.921079947015893e-41,
      4.918837869472973e-41,
      4.947704617838064e-41,
      4.948685526763091e-41,
      4.917296441162216e-41,
      4.921079947015893e-41,
      -0.1562645584344864,
      0.2719263434410095,
      0.19178730249404907,
      -0.121348537504673,
      -0.019018951803445816,
      0.067122682929039,
      0.023295920342206955,
      -0.09516642987728119,
      0.18621163070201874,
      -0.7197605967521667,
      -0.17749768495559692,
      -0.24930790066719055,
      -0.6883189082145691,
      -0.4770547151565552,
      -0.41316837072372437,
      -0.39511096477508545,
      -0.4954598546028137,
      -0.3879718482494354,
      -0.10647924989461899,
      0.40720051527023315,
      -0.019716164097189903,
      0.042343903332948685,
      0.20934723317623138,
      0.06701123714447021,
      0.3600113093852997,
      0.23490500450134277,
      0.12081894278526306,
      -0.34650444984436035,
      -0.24502971768379211,
      0.3700588643550873,
      0.13586612045764923,
      0.34527644515037537,
      0.21052826941013336,
      -1.037172794342041,
      -0.5383161902427673,
      0.09404854476451874,
      -0.14577673375606537,
      -0.124021515250206,
      0.1569720357656479,
      0.04014109820127487,
      0.32576271891593933,
      0.19755084812641144,
      -0.7135390043258667,
      -0.38001149892807007,
      0.09350603073835373,
      -0.037055760622024536,
      -0.04661307856440544,
      0.43863245844841003,
      0.1555522382259369,
      0.4520329535007477,
      0.30590343475341797,
      -0.6026166677474976,
      -0.16610729694366455,
      0.38088926672935486,
      -0.16178832948207855,
      -0.19151410460472107,
      -0.7636106610298157,
      -0.3603203296661377,
      -0.8307649493217468,
      -0.708893358707428,
      -0.019381918013095856,
      0.33034539222717285,
      0.15416750311851501,
      0.0289023257791996,
      0.20137111842632294,
      -0.21559736132621765,
      0.010004416108131409,
      -0.18507727980613708,
      -0.15359282493591309,
      0.25031358003616333,
      0.5697441697120667,
      0.4177688658237457,
      0.025632411241531372,
      -0.17599141597747803,
      -0.8720609545707703,
      -0.21607153117656708,
      -0.6637246012687683,
      -0.597442090511322,
      0.03732011467218399,
      0.3619127869606018,
      0.3200756907463074,
      4.92262137532665e-41,
      4.924443063330272e-41,
      4.929487737801841e-41,
      4.946023059680874e-41,
      4.941398774748602e-41,
      4.939997476284278e-41,
      4.949806565534551e-41,
      4.933691633194816e-41,
      4.948405267070227e-41,
      -8.789284483772084e-39,
      -6.20641387396864e-35,
      -5.369188915170842e-34,
      2.4780562043120065e-41,
      9.713694231808589e-37,
      3.068815835109817e-36,
      -3.2969049619402134e-40,
      5.979192570156162e-37,
      1.064620118683941e-36,
      4.932990983962654e-41,
      4.947844747684497e-41,
      4.926545011026759e-41,
      4.940557995670008e-41,
      4.94350072244509e-41,
      4.909869559301294e-41,
      4.939436956898548e-41,
      4.9418191642879e-41,
      4.924723323023137e-41,
      -0.9389729499816895,
      -0.1311284303665161,
      -0.4244981110095978,
      -0.09695953875780106,
      0.6095103621482849,
      -0.07834307104349136,
      0.08937076479196548,
      0.7239136695861816,
      0.23094289004802704,
      -0.4368777573108673,
      0.015360170044004917,
      -0.06044648587703705,
      -0.14963379502296448,
      0.4336414635181427,
      -0.03947307541966438,
      -0.19091932475566864,
      0.46202361583709717,
      -0.06266184151172638,
      -0.7722133994102478,
      0.023455213755369186,
      -0.10848484933376312,
      -0.11981737613677979,
      0.5040389895439148,
      -0.11729776114225388,
      -0.06701035797595978,
      0.5417525768280029,
      0.14075639843940735
    ],
    "conv1_bias": [
      0.0580231212079525,
      -0.0009039578144438565,
      0.0007151119643822312,
      -0.14241664111614227,
      0.009079218842089176,
      -0.02073124796152115,
      -2.2842847613446793e-07,
      0.006884245667606592,
      0.05164511129260063,
      -0.2779648005962372,
      -5.998678466081677e-41,
      0.5458134412765503,
      0.01834205724298954,
      0.11605478078126907,
      -7.024171244651711e-10,
      -0.05960153415799141
    ],
    "conv2_weight": [
      0.08917999267578125,
      0.0879700556397438,
      0.12812644243240356,
      0.3715769648551941,
      0.17347468435764313,
      0.398485392332077,
      -0.3552874028682709,
      0.1978367567062378,
      0.37410181760787964,
      -4.935653451044871e-41,
      -4.929207478108977e-41,
      -4.915054363619296e-41,
      -4.92262137532665e-41,
      -4.946163189527307e-41,
      -4.941959294134332e-41,
      -4.921360206708758e-41,
      -4.934112022734113e-41,
      -4.911410987612051e-41,
      -0.012123450636863708,
      -0.4181506037712097,
      0.007038317155092955,
      -0.26270627975463867,
      -0.11472275108098984,
      -0.18557268381118774,
      -0.13616709411144257,
      0.10440517961978912,
      0.2831995189189911,
      0.09340199083089828,
      0.000710963096935302,
      -0.05752355605363846,
      -0.09711010009050369,
      -0.21743519604206085,
      -0.06091262772679329,
      0.07337932288646698,
      -0.11703739315271378,
      0.27433815598487854,
      -0.18046492338180542,
      -0.05097663775086403,
      0.09333297610282898,
      0.23640373349189758,
      0.0880989283323288,
      -0.1376405954360962,
      -0.05421977490186691,
      -0.09691114723682404,
      -0.19306428730487823,
      3.415233026937692e-11,
      1.4158807589911837e-12,
      6.9363048638138025e-09,
      1.799936999603204e-19,
      5.482326814743033e-10,
      7.671890900340372e-11,
      8.197055772866946e-13,
      1.559238155257603e-11,
      1.2873212026326777e-15,
      4.949666435688119e-41,
      4.909309039915564e-41,
      -4.925984491641029e-41,
      4.947844747684497e-41,
      4.908608390683402e-41,
      -4.940838255362873e-41,
      -4.926825270719624e-41,
      4.93901656735925e-41,
      4.919958908244433e-41,
      -0.04154573753476143,
      0.05652556195855141,
      0.031507525593042374,
      -0.23040328919887543,
      0.20624132454395294,
      0.028343942016363144,
      -0.2242874652147293,
      0.02519552782177925,
      0.014708038419485092,
      -0.4395565092563629,
      0.11750712990760803,
      0.04210644215345383,
      -0.48318803310394287,
      -0.2313346415758133,
      -0.03314400464296341,
      0.1382470279932022,
      0.05361269414424896,
      -0.04230830818414688,
      0.09902916848659515,
      0.33847829699516296,
      0.25994136929512024,
      0.07874105870723724,
      0.12272870540618896,
      0.2214871346950531,
      -0.4251745641231537,
      -0.4220583438873291,
      -0.34422072768211365,
      -4.98189630036759e-41,
      -4.939997476284278e-41,
      4.937194879355628e-41,
      -4.904684754983292e-41,
      5.007820321957599e-41,
      -4.915194493465728e-41,
      4.972507600656613e-41,
      -5.018470190286467e-41,
      -5.051821093737398e-41,
      0.20853112637996674,
      0.17655782401561737,
      -0.10229576379060745,
      0.033287905156612396,
      0.08720991760492325,
      -0.28948524594306946,
      -0.16483478248119354,
      -0.20323579013347626,
      -0.17357882857322693,
      -0.034644510596990585,
      0.07027490437030792,
      0.037473324686288834,
      0.279950886964798,
      0.18833385407924652,
      0.15702632069587708,
      0.040220536291599274,
      0.09370613098144531,
      -0.0756046399474144,
      0.08461169898509979,
      -0.1380159705877304,
      -0.16272000968456268,
      -0.10291774570941925,
      -0.1979283094406128,
      -0.14093437790870667,
      -0.30513060092926025,
      -0.07819570600986481,
      0.02475930191576481,
      -4.950507214766714e-41,
      -4.910149818994159e-41,
      -4.931869945191194e-41,
      -4.907627481758374e-41,
      -4.934812671966276e-41,
      -4.948965786455956e-41,
      4.934672542119843e-41,
      -4.929767997494706e-41,
      -4.946163189527307e-41,
      0.010850530117750168,
      0.013638396747410297,
      0.0690363347530365,
      -0.3397359848022461,
      -0.2239622324705124,
      0.20130357146263123,
      0.018931472674012184,
      0.014958233572542667,
      -0.059926390647888184,
      4.907627481758374e-41,
      3.909537277637116e-29,
      -4.935233061505573e-41,
      -4.928506828876814e-41,
      4.945322410448712e-41,
      -4.938876437512818e-41,
      4.944481631370117e-41,
      -1.0210699709896101e-20,
      -4.96269851140634e-41,
      5.030661486926093e-41,
      -5.810203822629989e-41,
      1.5871947186021473e-40,
      5.767464219468082e-41,
      4.911971506997781e-41,
      1.526588560020099e-40,
      -5.845796803623839e-41,
      5.075503037784487e-41,
      -6.22751050530592e-41,
      -4.997030323782298e-41,
      -4.918977999319405e-41,
      -5.126650431732343e-41,
      -4.909589299608429e-41,
      -4.97853318405321e-41,
      5.086993685191951e-41,
      5.082369400259679e-41,
      -5.064432779916321e-41,
      -4.983577858524779e-41,
      4.945882929834442e-41,
      4.911691247304916e-41,
      4.910430078687024e-41,
      4.95877487570623e-41,
      -4.927245660258922e-41,
      -4.950226955073849e-41,
      5.901288222811102e-41,
      4.911831377151349e-41,
      -4.973068120042343e-41,
      4.954570980313256e-41,
      4.933691633194816e-41,
      -4.936774489816331e-41,
      4.90622618329405e-41,
      -4.941118515055737e-41,
      -4.985119286835537e-41,
      -4.944201371677252e-41,
      4.921920726094487e-41,
      -5.01524720381852e-41,
      -6.78312534641071e-41,
      4.938736307666385e-41,
      1.7613340787637923e-40,
      5.688150726387297e-41,
      -5.313163257333976e-41,
      5.5869629642784024e-40,
      -5.871440565520984e-41,
      -7.560285474725253e-41,
      4.000384817000558e-40,
      5.045795510340801e-41,
      4.926545011026759e-41,
      4.916035272544323e-41,
      -5.030381227233228e-41,
      5.373138831607079e-41,
      5.104790175688876e-41,
      4.910009689147727e-41,
      -4.931729815344761e-41,
      5.947951461673119e-41,
      4.921360206708758e-41,
      4.906506442986914e-41,
      4.925143712562435e-41,
      -4.938035658434223e-41,
      -4.976991755742453e-41,
      4.952469032616768e-41,
      4.922341115633785e-41,
      -4.931589685498329e-41,
      -4.915614883005026e-41,
      -5.661770956066903e-06,
      -4.623377662937855e-06,
      -4.374505806481466e-06,
      -4.55148438049946e-06,
      -4.258796252543107e-06,
      -4.60910860056174e-06,
      -4.223675205139443e-06,
      -2.785235892588389e-06,
      -3.077311930610449e-06,
      -5.703541751302804e-14,
      -2.182787811448334e-14,
      -1.6147917421618918e-14,
      -2.307614209852253e-16,
      -1.5459873299718079e-18,
      -2.7483144408803513e-15,
      -8.519681847214775e-15,
      -1.6326885318978385e-14,
      -1.2891381941836566e-15,
      -1.4832043595646026e-40,
      5.775171361021869e-41,
      5.330118968752307e-41,
      2.1790191120250905e-42,
      -2.5679074618445138e-40,
      -7.167641645021439e-42,
      -1.2782504461724549e-40,
      -2.4783785029588012e-40,
      5.260754694768228e-41,
      -8.631943833548826e-37,
      -1.5051884455507652e-36,
      -1.8561593180629407e-36,
      -3.230592829535054e-27,
      -7.25596465812073e-28,
      -2.128853781122048e-26,
      -9.179757417307979e-26,
      -2.4092821787408383e-24,
      -1.350492300237761e-24,
      -4.926124621487462e-41,
      -4.940277735977143e-41,
      -4.946303319373739e-41,
      -4.907767611604807e-41,
      4.918977999319405e-41,
      4.915474753158593e-41,
      -3.687967880347739e-36,
      -4.957793966781203e-41,
      -4.90622618329405e-41,
      4.917576700855081e-41,
      -4.99941253117165e-41,
      4.92318189471238e-41,
      -4.959475524938393e-41,
      -4.922341115633785e-41,
      4.98133578098186e-41,
      -5.002635517639597e-41,
      -4.97797266466748e-41,
      -5.030801616772526e-41,
      -1.6986539984545433e-41,
      -2.754532391323293e-41,
      3.231113999040163e-41,
      4.0971164499929e-41,
      1.3954690627132258e-40,
      5.798152655836796e-41,
      5.541434777172489e-41,
      -4.3392608246282285e-41,
      -1.076337350447892e-41,
      4.921780596248055e-41,
      4.942239553827197e-41,
      -5.632659307200035e-41,
      -4.910710338379889e-41,
      -1.1759427587788112e-21,
      -4.9254239722553e-41,
      -4.905525534061887e-41,
      -4.90510514452259e-41,
      6.28286179464675e-41,
      -0.08727622777223587,
      -0.0804375484585762,
      0.31740519404411316,
      0.03530283272266388,
      0.0887618213891983,
      0.2945174276828766,
      -0.37799543142318726,
      -0.006695182994008064,
      0.3472156226634979,
      4.908328130990537e-41,
      -2.368891971084482e-38,
      4.927385790105354e-41,
      5.959722368773447e-41,
      4.921640466401623e-41,
      4.94350072244509e-41,
      -4.919398388858703e-41,
      4.917856960547946e-41,
      4.908748520529834e-41,
      0.03420558199286461,
      0.24210728704929352,
      -0.11338581144809723,
      0.0037696021609008312,
      -0.07928446680307388,
      -0.06620605289936066,
      -0.0822492241859436,
      0.25316810607910156,
      0.086419016122818,
      0.05152713134884834,
      -0.0445726178586483,
      0.016599886119365692,
      -0.1310076117515564,
      -0.04021367058157921,
      0.15739984810352325,
      0.017860325053334236,
      -0.10613424330949783,
      0.16158899664878845,
      -0.004584721755236387,
      -0.10219849646091461,
      -0.07044237107038498,
      0.060809146612882614,
      0.18666991591453552,
      0.19900824129581451,
      -0.11571086198091507,
      0.2077772468328476,
      -0.0011042935075238347,
      -1.1174398650837247e-06,
      -1.0304016541340388e-05,
      -7.150662440835731e-06,
      -3.562510357824067e-07,
      -1.6101855635497486e-06,
      -3.60285724809728e-07,
      -6.323537249386391e-09,
      -2.314134519565414e-07,
      -1.294485940661616e-07,
      -5.394158308571951e-41,
      -4.93901656735925e-41,
      5.01580772320425e-41,
      4.90566566390832e-41,
      5.042432394026422e-41,
      4.92093981716946e-41,
      4.983157468985482e-41,
      5.013986035200628e-41,
      4.914353714387133e-41,
      -0.03863666206598282,
      -0.06990811228752136,
      -0.12389771640300751,
      -0.17242802679538727,
      0.03634611889719963,
      -0.019378656521439552,
      0.022813275456428528,
      -0.03342898190021515,
      0.11814261972904205,
      -0.5098573565483093,
      -0.047458987683057785,
      -0.19488239288330078,
      -0.570035994052887,
      -0.1651993989944458,
      -0.09998678416013718,
      -0.5226078629493713,
      -0.2506825625896454,
      -0.044265639036893845,
      0.0800473690032959,
      0.0690016821026802,
      0.1527489572763443,
      0.047606464475393295,
      0.08458476513624191,
      0.09261957556009293,
      -0.07267817854881287,
      -0.0619446262717247,
      0.02861880697309971,
      4.911971506997781e-41,
      4.944761891062982e-41,
      4.949946695380984e-41,
      4.927105530412489e-41,
      4.949386175995254e-41,
      4.909309039915564e-41,
      4.939857346437845e-41,
      4.937194879355628e-41,
      4.907767611604807e-41,
      -0.11720627546310425,
      0.17041367292404175,
      -0.2277616262435913,
      -0.21131372451782227,
      0.16394223272800446,
      0.08218558132648468,
      -0.185108944773674,
      0.2449575811624527,
      -0.06072886288166046,
      -0.1767684668302536,
      -0.07041481882333755,
      0.019954878836870193,
      -0.015843302011489868,
      -0.0020613616798073053,
      0.1856098473072052,
      -0.22084829211235046,
      -0.025620006024837494,
      -0.10279429703950882,
      -0.18471603095531464,
      -0.026521991938352585,
      -0.08800338208675385,
      0.01656475104391575,
      0.012887503951787949,
      -0.014625203795731068,
      -0.06581998616456985,
      0.3105308413505554,
      0.14542411267757416,
      4.941679034441467e-41,
      -4.951488123691741e-41,
      4.919958908244433e-41,
      -4.939156697205683e-41,
      4.951768383384606e-41,
      4.917576700855081e-41,
      4.936914619662763e-41,
      4.954711110159688e-41,
      4.907066962372644e-41,
      -0.036570217460393906,
      0.1399739533662796,
      0.06377504765987396,
      -0.20610813796520233,
      0.006137458141893148,
      -0.10615599900484085,
      -0.031206175684928894,
      0.09902506321668625,
      0.2698143422603607,
      0.0310593843460083,
      0.32578057050704956,
      -0.15119323134422302,
      -0.15250074863433838,
      0.1945466846227646,
      0.13272333145141602,
      0.40999165177345276,
      0.1673041135072708,
      0.2765582203865051,
      1.8031118510897063e-26,
      9.074252885743634e-33,
      -4.672349469598238e-41,
      5.0217793442876786e-23,
      3.2705769455546806e-26,
      2.5984215766842653e-38,
      7.935839227456531e-22,
      2.2887029339769576e-21,
      5.427769784324816e-26,
      0.06908277422189713,
      -0.13230650126934052,
      -0.29932862520217896,
      -0.03306914120912552,
      0.3049030005931854,
      0.06387248635292053,
      0.031583622097969055,
      -0.1566586047410965,
      -0.30259349942207336,
      0.38745740056037903,
      0.04772328585386276,
      0.04991256818175316,
      0.464464008808136,
      0.22590096294879913,
      0.1806483268737793,
      0.16146612167358398,
      0.2714664936065674,
      -0.08818935602903366,
      0.40731486678123474,
      0.213802307844162,
      -0.24821561574935913,
      0.34260356426239014,
      -0.09007006883621216,
      0.3222906291484833,
      0.14472898840904236,
      -0.04210851341485977,
      -0.24694645404815674,
      -0.0005463292472995818,
      -0.0002575431135483086,
      -1.0122454114025459e-05,
      -0.0009409806807525456,
      -0.0003153884317725897,
      -1.2219148629810661e-05,
      -0.0007138860528357327,
      -0.0003466824418865144,
      -5.417910870164633e-05,
      4.963539290484935e-41,
      -4.946723708913037e-41,
      -4.939156697205683e-41,
      -4.923462154405245e-41,
      -4.952048643077471e-41,
      4.945322410448712e-41,
      -5.333482085066686e-41,
      4.957793966781203e-41,
      -4.969424744035099e-41,
      0.05776863917708397,
      -0.05862751230597496,
      0.1673831045627594,
      0.248453289270401,
      -0.056324854493141174,
      -0.10168103128671646,
      0.20253677666187286,
      0.1933421641588211,
      -0.043718576431274414,
      -0.4320293366909027,
      -0.37357550859451294,
      0.23384340107440948,
      -0.10370971262454987,
      0.03906215727329254,
      0.34332266449928284,
      -0.0227767676115036,
      -0.0008271519909612834,
      0.28102317452430725,
      0.09631172567605972,
      0.07190310955047607,
      -0.2477562129497528,
      -0.08260835707187653,
      -0.28079891204833984,
      -0.5349093675613403,
      0.17920927703380585,
      0.07174594700336456,
      -0.2111881524324417,
      4.911130727919186e-41,
      4.948965786455956e-41,
      4.950226955073849e-41,
      4.945602670141577e-41,
      4.923602284251677e-41,
      -4.938035658434223e-41,
      4.943780982137955e-41,
      4.934952801812708e-41,
      -4.950787474459579e-41,
      0.02520536445081234,
      0.004434223752468824,
      -0.4216667711734772,
      -0.04311875253915787,
      -0.043580494821071625,
      -0.22944913804531097,
      0.0741417184472084,
      0.02374885603785515,
      -0.23764556646347046,
      0.34518298506736755,
      -0.20842529833316803,
      -0.28631362318992615,
      0.07403597235679626,
      -0.07030148804187775,
      -0.12493129819631577,
      0.6478806734085083,
      -0.09021295607089996,
      -0.29696691036224365,
      -0.10570138692855835,
      0.28448227047920227,
      0.2933310270309448,
      0.6539329290390015,
      0.5417354106903076,
      0.6848195791244507,
      0.20149105787277222,
      0.2245815545320511,
      0.011736275628209114,
      -4.936634359969898e-41,
      4.947844747684497e-41,
      -4.937615268894925e-41,
      4.924723323023137e-41,
      4.922761505173082e-41,
      4.923322024558812e-41,
      4.925003582716002e-41,
      4.93733500920206e-41,
      4.910990598072754e-41,
      0.2247769683599472,
      -0.5061250925064087,
      -0.12233345210552216,
      0.18965743482112885,
      0.08406714349985123,
      -0.051485560834407806,
      0.324808806180954,
      0.19794389605522156,
      0.20691074430942535,
      0.029871422797441483,
      -0.01727176643908024,
      0.016155224293470383,
      -0.1600683033466339,
      -0.019740190356969833,
      0.12243659049272537,
      -0.04297434911131859,
      0.13562068343162537,
      0.18756762146949768,
      -4.934392282426978e-41,
      -4.947564487991632e-41,
      -4.916175402390756e-41,
      -4.907767611604807e-41,
      -4.912391896537079e-41,
      -4.910710338379889e-41,
      -4.910009689147727e-41,
      -4.906366313140482e-41,
      -4.906506442986914e-41,
      0.04072992131114006,
      0.08176742494106293,
      -0.033162590116262436,
      0.12380510568618774,
      0.168838769197464,
      0.2539466917514801,
      0.019425755366683006,
      0.027564939111471176,
      0.036966241896152496,
      0.020139874890446663,
      0.06868592649698257,
      0.06122438609600067,
      -0.13905009627342224,
      0.002920433646067977,
      -0.019577959552407265,
      -0.014089182950556278,
      -0.052834656089544296,
      -0.03336301073431969,
      -0.03487260639667511,
      0.037450987845659256,
      -0.10515296459197998,
      0.09204117953777313,
      0.1034877598285675,
      0.2431955486536026,
      -0.14240296185016632,
      0.06509456038475037,
      -0.0009972206316888332,
      1.6283697641813642e-35,
      -6.64859417767214e-23,
      -3.999605667733469e-16,
      5.3182479021032226e-30,
      -1.4384585226179055e-20,
      -6.947634938534597e-23,
      -8.30229717723888e-24,
      8.243141792450608e-32,
      1.1512611674381014e-32,
      4.915755012851458e-41,
      -4.942659943366495e-41,
      -4.952328902770336e-41,
      4.968023445570774e-41,
      -5.008240711496896e-41,
      -4.910710338379889e-41,
      -5.025756942300956e-41,
      -4.939156697205683e-41,
      4.943360592598657e-41,
      -0.00047612786875106394,
      0.029212765395641327,
      0.1661914736032486,
      -0.04787466675043106,
      -0.11975518614053726,
      -0.03314158320426941,
      -0.05866209790110588,
      -0.025735406205058098,
      0.03125416859984398,
      -0.2506939470767975,
      0.053215090185403824,
      0.15581023693084717,
      -0.3198475241661072,
      -0.10334477573633194,
      -0.08893364667892456,
      -0.2278280109167099,
      -0.16984057426452637,
      -0.05477379634976387,
      -0.012228976003825665,
      0.0483241006731987,
      -0.30654972791671753,
      -0.02629774436354637,
      -0.032593175768852234,
      -0.03542231395840645,
      -0.008737950585782528,
      -0.03144717216491699,
      0.06929740309715271,
      5.718418773216714e-41,
      4.952188772923904e-41,
      4.906646572833347e-41,
      -4.927806179644652e-41,
      4.919398388858703e-41,
      4.935373191352006e-41,
      -4.936634359969898e-41,
      -4.910990598072754e-41,
      -4.950787474459579e-41,
      0.018539316952228546,
      0.05085054785013199,
      -0.09714338928461075,
      -0.026565464213490486,
      0.09453191608190536,
      -0.06040464714169502,
      -0.029904112219810486,
      0.15984608232975006,
      0.04108983650803566,
      -0.008381402119994164,
      0.1182003915309906,
      0.06413371115922928,
      -0.03949134424328804,
      -0.13752475380897522,
      0.09750787168741226,
      0.16876320540905,
      -0.0642276257276535,
      0.15107910335063934,
      -0.03196786344051361,
      -0.04296334832906723,
      0.1186327114701271,
      -0.0480632558465004,
      -0.10926235467195511,
      -0.11894014477729797,
      -0.06371384114027023,
      0.007960466668009758,
      -0.007573741488158703,
      4.934112022734113e-41,
      -4.926685140873192e-41,
      -4.962978771099205e-41,
      4.963399160638502e-41,
      4.948685526763091e-41,
      4.964099809870664e-41,
      -4.905385404215455e-41,
      4.967322796338612e-41,
      -4.92093981716946e-41,
      -0.01822933554649353,
      0.15418322384357452,
      0.14304029941558838,
      -0.1461452841758728,
      -0.009136432781815529,
      -0.001297691953368485,
      -0.05353318154811859,
      -0.04880153015255928,
      0.1316121369600296,
      -0.1332979053258896,
      -0.17586179077625275,
      0.04073351249098778,
      -0.0008009404991753399,
      -0.09077730774879456,
      -0.10281647741794586,
      0.15061357617378235,
      0.09038437902927399,
      0.26993539929389954,
      -4.947144098452334e-41,
      -4.91925825901227e-41,
      -4.908188001144104e-41,
      -4.924723323023137e-41,
      -4.934672542119843e-41,
      -4.94237968367363e-41,
      -4.948965786455956e-41,
      -4.938596177819953e-41,
      -4.946303319373739e-41,
      -0.09080000221729279,
      0.19185930490493774,
      0.17966033518314362,
      -0.06637751311063766,
      0.07299087196588516,
      0.023098627105355263,
      -0.16057470440864563,
      -0.03258012235164642,
      0.20974642038345337,
      -0.02958901971578598,
      0.06650962680578232,
      -0.08667834848165512,
      0.09322811663150787,
      -0.17254875600337982,
      -0.05780238285660744,
      -0.3620005249977112,
      0.11302872002124786,
      0.20992867648601532,
      -0.13178712129592896,
      -0.19909174740314484,
      0.16218586266040802,
      -0.005241923034191132,
      -0.10180782526731491,
      -0.011738997884094715,
      0.07648337632417679,
      0.13994912803173065,
      -0.04301496595144272,
      -1.1354001525400046e-16,
      -1.480285859167818e-11,
      -2.6678109374400627e-11,
      -4.987789556887079e-20,
      -7.703700958400228e-13,
      -2.945226817985258e-08,
      -4.619014506793753e-21,
      -5.720264817377085e-10,
      -3.083138722104195e-08,
      -4.980915391442562e-41,
      -5.260194175382498e-41,
      -5.204702756195236e-41,
      -5.075222778091622e-41,
      -5.114739394785582e-41,
      5.017068891822143e-41,
      4.936494230123466e-41,
      -4.952749292309633e-41,
      -5.014546554586358e-41,
      -0.05345582216978073,
      -0.06567348539829254,
      -0.22719021141529083,
      -0.08715871721506119,
      0.12399692088365555,
      0.3125808835029602,
      0.013278739526867867,
      0.12119661271572113,
      -0.24402660131454468,
      -0.04084935411810875,
      0.1934998482465744,
      0.17321424186229706,
      -0.18274401128292084,
      -0.011053136549890041,
      0.04430126026272774,
      -0.3743153214454651,
      -0.09330414980649948,
      0.04470491036772728,
      4.55458284704946e-05,
      -0.11568036675453186,
      -0.02182619273662567,
      -0.04152294248342514,
      0.1930846869945526,
      0.028557077050209045,
      -0.08881407231092453,
      -0.08081702142953873,
      -0.03756527230143547,
      5.081528621181084e-41,
      -5.048878366962316e-41,
      5.042992913412152e-41,
      4.975450327431695e-41,
      -5.072139921470108e-41,
      4.961997862174177e-41,
      5.299430532383593e-41,
      4.930608776573301e-41,
      5.828280572819779e-41,
      0.08394026756286621,
      -0.08230533450841904,
      0.004623781889677048,
      0.18006393313407898,
      0.06729421764612198,
      -0.12162720412015915,
      0.322924941778183,
      0.1290900558233261,
      -0.09600039571523666,
      -0.08895445615053177,
      0.0016861837357282639,
      -0.1635870635509491,
      -0.022285623475909233,
      0.30009081959724426,
      0.1345430165529251,
      -0.07179204374551773,
      0.023857902735471725,
      0.004912742413580418,
      0.1383255124092102,
      0.20945526659488678,
      0.15947844088077545,
      -0.0036075953394174576,
      -0.08863496780395508,
      0.15678787231445312,
      -0.10311111062765121,
      -0.04019295424222946,
      -0.24564269185066223,
      -4.970125393267261e-41,
      -4.932430464576924e-41,
      -4.953590071388228e-41,
      -4.953870331081093e-41,
      4.934952801812708e-41,
      4.932570594423356e-41,
      -4.94406124183082e-41,
      4.947284228298767e-41,
      -4.911551117458484e-41,
      -0.1661689728498459,
      0.07981645315885544,
      -0.2558218240737915,
      0.15744443237781525,
      -0.05391455069184303,
      0.1889703869819641,
      -0.066627636551857,
      -0.03994065895676613,
      -0.2010854035615921,
      0.0027673908043652773,
      -0.08488218486309052,
      0.15471813082695007,
      0.016711575910449028,
      0.13355408608913422,
      0.2958523631095886,
      -0.10643994808197021,
      -0.08079938590526581,
      0.23629119992256165,
      -4.949666435688119e-41,
      -4.4628839356703496e-38,
      -5.110228615028921e-39,
      -4.921920726094487e-41,
      1.160134998614516e-41,
      -1.0122482645327643e-38,
      -4.941398774748602e-41,
      3.42687539450634e-41,
      8.283890352335498e-36,
      -0.014854994602501392,
      0.24159643054008484,
      0.014683392830193043,
      0.03282487392425537,
      0.0027151263784617186,
      -0.007608702871948481,
      -0.07853197306394577,
      0.21701467037200928,
      0.25691530108451843,
      0.2741733491420746,
      0.002745496341958642,
      -0.14677371084690094,
      -0.02706705406308174,
      0.07589361816644669,
      -0.030306998640298843,
      -0.13931623101234436,
      -0.22802376747131348,
      -0.022174231708049774,
      -0.01076528150588274,
      -0.07287605851888657,
      -0.01718953624367714,
      0.07109490782022476,
      0.2614057958126068,
      0.18002578616142273,
      -0.0041771079413592815,
      0.041564080864191055,
      0.09751969575881958,
      5.008165309869882e-15,
      -6.663544022122991e-11,
      7.215159025797391e-10,
      3.668303487317077e-17,
      2.0733489577984265e-11,
      1.288528665099875e-06,
      3.810874393828101e-10,
      1.7783413852612284e-07,
      2.6563242499832995e-05,
      -5.078305634713137e-41,
      4.992826428389323e-41,
      -4.906646572833347e-41,
      6.136986624510536e-41,
      5.084891737495464e-41,
      4.953590071388228e-41,
      -4.938175788280655e-41,
      -5.01748928136144e-41,
      -5.022113566293712e-41,
      0.10526010394096375,
      -0.03031218610703945,
      0.01209371816366911,
      -0.12328311800956726,
      0.11976777017116547,
      0.12547293305397034,
      -0.03678999841213226,
      -0.029961859807372093,
      0.22814014554023743,
      -0.5896896719932556,
      -0.12935377657413483,
      -0.12788279354572296,
      -0.5100651383399963,
      -0.14705489575862885,
      0.009117642417550087,
      -0.431344211101532,
      -0.13831689953804016,
      0.12250532954931259,
      0.14611893892288208,
      -0.05704239755868912,
      0.14337989687919617,
      0.039601098746061325,
      0.10313694179058075,
      -0.020305175334215164,
      -0.04930661991238594,
      -0.11442609876394272,
      -0.09608779102563858,
      -4.969845133574396e-41,
      -4.950367084920281e-41,
      -4.961157083095582e-41,
      4.954991369852553e-41,
      4.908047871297672e-41,
      -4.931029166112599e-41,
      -4.938876437512818e-41,
      4.946023059680874e-41,
      4.958354486166933e-41,
      0.09389331936836243,
      0.07900842279195786,
      -0.18495899438858032,
      0.14076296985149384,
      0.19310475885868073,
      -0.22588035464286804,
      0.0674528032541275,
      0.1425415724515915,
      -0.2083795815706253,
      -0.005645178724080324,
      -0.07079419493675232,
      -0.15906649827957153,
      -0.11968202143907547,
      0.1151265874505043,
      0.18371029198169708,
      -0.0005047058220952749,
      0.02147708646953106,
      0.003915152046829462,
      -0.11627787351608276,
      0.08324215561151505,
      -0.1271696239709854,
      -0.02105977013707161,
      -0.09719622135162354,
      -0.06774725764989853,
      -0.02365153282880783,
      0.31168049573898315,
      0.051455456763505936,
      4.934252152580546e-41,
      4.950226955073849e-41,
      4.917716830701513e-41,
      4.909028780222699e-41,
      4.917716830701513e-41,
      4.948545396916659e-41,
      -4.906926832526212e-41,
      4.907907741451239e-41,
      4.90566566390832e-41,
      -0.03648727014660835,
      0.3633344769477844,
      0.03525121137499809,
      -0.249266117811203,
      0.01786552183330059,
      0.10445399582386017,
      -0.11941493302583694,
      0.2723129987716675,
      0.27499085664749146,
      0.19997869431972504,
      0.03772948682308197,
      -0.11700082570314407,
      0.11492964625358582,
      0.09252474457025528,
      0.08892223984003067,
      -0.155191108584404,
      -0.02377159334719181,
      0.009923053905367851,
      -1.9032342975927596e-12,
      -3.3804185037115964e-13,
      -5.2069804597329374e-15,
      -6.254729510542169e-16,
      -3.656443123540108e-18,
      -7.123093076748938e-15,
      -2.925535040438041e-26,
      -2.0015030788004188e-19,
      -1.902531078981488e-15,
      0.0009663646342232823,
      -0.1217651218175888,
      -0.029730865731835365,
      0.10817558318376541,
      0.19262772798538208,
      0.2356746792793274,
      -0.030826875939965248,
      -0.02526988834142685,
      0.0657418891787529,
      0.40541958808898926,
      -0.007330876309424639,
      0.10246110707521439,
      -0.1141105443239212,
      0.03402245044708252,
      0.20123381912708282,
      -0.24357694387435913,
      0.06569686532020569,
      0.2608760893344879,
      -0.06924466788768768,
      -0.3247920572757721,
      -0.020230617374181747,
      0.23630280792713165,
      0.20629644393920898,
      0.24638879299163818,
      -0.2192888706922531,
      0.01442729588598013,
      0.06589215993881226,
      -0.0005337615730240941,
      -0.00032281424500979483,
      -0.00012623998918570578,
      -8.384598913835362e-05,
      -5.223517291597091e-05,
      -5.3595180361298844e-05,
      -5.3865305744693615e-06,
      -1.784399319149088e-05,
      -1.1551013813004829e-05,
      4.989042922535646e-41,
      -4.972507600656613e-41,
      4.913653065154971e-41,
      4.957373577241905e-41,
      -4.934392282426978e-41,
      5.008520971189761e-41,
      -4.923602284251677e-41,
      4.949246046148821e-41,
      4.912812286076376e-41,
      0.26379621028900146,
      0.29722458124160767,
      0.053288534283638,
      -0.26657968759536743,
      -0.02170008420944214,
      0.04858429357409477,
      -0.17664216458797455,
      -0.020097438246011734,
      -0.0694487988948822,
      -0.4538167119026184,
      -0.02727368474006653,
      0.1302870213985443,
      -0.6794950366020203,
      -0.0007703945739194751,
      0.20273226499557495,
      -0.47849342226982117,
      0.12196767330169678,
      0.2089296132326126,
      0.040501564741134644,
      0.03189912438392639,
      -0.3057886064052582,
      -0.010110273957252502,
      0.01774691976606846,
      -0.03768514096736908,
      -0.346568763256073,
      -0.10025790333747864,
      0.00039472279604524374,
      4.955271629545418e-41,
      5.839490960534378e-41,
      4.949806565534551e-41,
      4.929207478108977e-41,
      -4.952889422156066e-41,
      4.913232675615674e-41,
      4.906646572833347e-41,
      4.919398388858703e-41,
      4.95933539509196e-41,
      -0.06818819791078568,
      -0.1956680715084076,
      -0.1594208925962448,
      0.20161156356334686,
      -0.2041454166173935,
      -0.37255582213401794,
      0.16161689162254333,
      -0.09926120936870575,
      -0.16914428770542145,
      0.08069160580635071,
      0.03092142380774021,
      -0.0986505076289177,
      -0.062144916504621506,
      -0.04891274496912956,
      0.22073009610176086,
      -0.10836229473352432,
      -0.07086236029863358,
      0.1529870480298996,
      -0.27824437618255615,
      0.2632702887058258,
      0.4010167419910431,
      0.021048003807663918,
      0.1360654979944229,
      0.5353631973266602,
      0.014005599543452263,
      0.17474710941314697,
      0.43080341815948486,
      4.905385404215455e-41,
      4.952469032616768e-41,
      4.919538518705135e-41,
      4.927525919951787e-41,
      4.943220462752225e-41,
      4.928086439337517e-41,
      -4.937194879355628e-41,
      4.946863838759469e-41,
      4.950226955073849e-41,
      0.37779974937438965,
      0.044357188045978546,
      0.07152970880270004,
      -0.2649175226688385,
      -0.10427653044462204,
      0.2294996678829193,
      -0.10797040164470673,
      -0.07666371017694473,
      -0.024703940376639366,
      -0.07283931970596313,
      -0.18789424002170563,
      0.22484762966632843,
      0.03826586902141571,
      0.052088964730501175,
      0.07427004724740982,
      0.17503374814987183,
      0.596368670463562,
      0.584162712097168,
      -2.6877728566424938e-25,
      -2.9370604165924557e-22,
      -5.599182479755937e-26,
      -1.4426632767899466e-25,
      -9.75765029241734e-25,
      -8.097448671620992e-32,
      -1.1557689729892192e-38,
      5.107145478147713e-37,
      -4.951067734152444e-41,
      0.02486356906592846,
      0.024431508034467697,
      0.03201097249984741,
      -0.08443493396043777,
      -0.04458361491560936,
      0.20099970698356628,
      0.07671075314283371,
      -0.14714430272579193,
      -0.09734628349542618,
      -0.11410704255104065,
      0.1662648767232895,
      -0.21441783010959625,
      -0.0945984348654747,
      -0.44683951139450073,
      -0.22998180985450745,
      -0.39285728335380554,
      0.14106762409210205,
      0.28424131870269775,
      -0.05436965823173523,
      0.18656191229820251,
      0.1671789437532425,
      -0.14563395082950592,
      -0.033200521022081375,
      -0.03497293218970299,
      0.3039224147796631,
      0.29180386662483215,
      0.15183158218860626,
      -1.9434781961535919e-07,
      -2.5152273792627966e-06,
      -8.173388778232038e-06,
      -4.5062472509016516e-07,
      -7.078543831084971e-07,
      -1.9471733594400575e-06,
      1.5609737147315172e-07,
      -7.040717946438235e-07,
      -9.783882148894918e-08,
      -4.964099809870664e-41,
      -4.963679420331367e-41,
      4.981055521288995e-41,
      4.958074226474068e-41,
      4.976431236356723e-41,
      4.984138377910509e-41,
      -4.912251766690646e-41,
      -4.969004354495801e-41,
      -4.925844361794597e-41,
      -0.3099595010280609,
      -0.013509999960660934,
      0.03694373741745949,
      -0.08842518925666809,
      -0.1285790205001831,
      -0.23835793137550354,
      0.16531558334827423,
      0.33477598428726196,
      0.09213805943727493,
      -0.43054747581481934,
      -0.19162015616893768,
      0.12077425420284271,
      -0.38701578974723816,
      -0.007985263131558895,
      -0.04736732691526413,
      -0.4876307547092438,
      -0.17108309268951416,
      -0.13987016677856445,
      -0.01053099986165762,
      0.09924400597810745,
      0.142979696393013,
      0.16890811920166016,
      -0.053981829434633255,
      -0.03282807767391205,
      -0.2598007321357727,
      0.006108991336077452,
      -0.05687212198972702,
      4.922761505173082e-41,
      -4.950507214766714e-41,
      4.938596177819953e-41,
      -4.961997862174177e-41,
      4.935933710737736e-41,
      -4.937755398741358e-41,
      4.987081104685591e-41,
      4.924583193176705e-41,
      -4.910990598072754e-41,
      0.023305637761950493,
      -0.040502727031707764,
      -0.3070603907108307,
      0.07579630613327026,
      -0.04978160560131073,
      -0.20322547852993011,
      0.3750130534172058,
      0.14265847206115723,
      -0.0265192911028862,
      0.11434732377529144,
      0.11923431605100632,
      0.289539098739624,
      0.28615042567253113,
      0.014361061155796051,
      -0.005363167263567448,
      -0.2490660697221756,
      0.229639932513237,
      0.00887119211256504,
      0.11621115356683731,
      0.06936534494161606,
      -0.1827574074268341,
      0.21981646120548248,
      -0.16466201841831207,
      -0.06198719143867493,
      0.061881713569164276,
      -0.1461355984210968,
      0.1334257423877716,
      -4.932430464576924e-41,
      -4.926264751333894e-41,
      -4.938175788280655e-41,
      -4.951488123691741e-41,
      -4.928787088569679e-41,
      4.944481631370117e-41,
      -4.937054749509196e-41,
      -4.913933324847836e-41,
      -4.945042150755847e-41,
      -0.1825147122144699,
      -0.4615018367767334,
      -0.2077593207359314,
      -0.15151388943195343,
      0.05762868374586105,
      -0.0974682867527008,
      -0.20310331881046295,
      -0.11837738007307053,
      0.060605086386203766,
      -0.1764276623725891,
      -0.03141593933105469,
      -0.0693638026714325,
      0.15508407354354858,
      0.17792469263076782,
      0.5435314774513245,
      0.14725518226623535,
      0.03884661942720413,
      -0.14273178577423096,
      -4.94237968367363e-41,
      -4.906926832526212e-41,
      -4.951347993845309e-41,
      -4.907207092219077e-41,
      -4.926404881180327e-41,
      -4.927666049798219e-41,
      -4.939997476284278e-41,
      -4.90566566390832e-41,
      -4.931589685498329e-41,
      -0.12115646153688431,
      -0.035583849996328354,
      -0.0700388103723526,
      0.15822955965995789,
      0.22797472774982452,
      0.12903572618961334,
      -0.190529927611351,
      -0.13064798712730408,
      0.03175472840666771,
      -0.2526874840259552,
      -0.20307382941246033,
      -0.11725382506847382,
      -0.12683960795402527,
      -0.06805813312530518,
      -0.11154575645923615,
      -0.05307392030954361,
      -0.06994717568159103,
      -0.049942657351493835,
      -0.08376340568065643,
      0.07066930085420609,
      0.12740275263786316,
      0.3633584678173065,
      0.3203725218772888,
      0.6571045517921448,
      -0.01737632043659687,
      -0.04434738680720329,
      -0.017048032954335213,
      -8.34898905566206e-09,
      -4.4803809551297036e-09,
      -1.4560395111828939e-09,
      -1.3645004570683739e-10,
      -3.2547770034696555e-10,
      -2.357860000995471e-12,
      -5.515295251751207e-13,
      -9.137001322646193e-14,
      3.194966137154095e-15,
      4.927245660258922e-41,
      -4.925564102101732e-41,
      4.927525919951787e-41,
      4.949386175995254e-41,
      -5.647793330614743e-41,
      4.955551889238283e-41,
      4.980495001903265e-41,
      -4.909028780222699e-41,
      5.017629411207872e-41,
      -0.17371754348278046,
      -0.2906140685081482,
      -0.21143142879009247,
      -0.25004369020462036,
      0.03686128184199333,
      -0.0017551195342093706,
      -0.013974892906844616,
      0.1412666290998459,
      0.11847337335348129,
      -0.08941423892974854,
      0.05582756921648979,
      -0.08321273326873779,
      -0.2505224645137787,
      -0.15982691943645477,
      -0.12309710681438446,
      -0.21827170252799988,
      -0.09765610098838806,
      0.11549894511699677,
      0.21674174070358276,
      0.2157425880432129,
      0.3449879586696625,
      -0.2190474420785904,
      -0.25513023138046265,
      -0.11624664068222046,
      -0.01051389891654253,
      -0.10083436220884323,
      -0.060886722058057785,
      -4.923602284251677e-41,
      4.935233061505573e-41,
      4.910570208533456e-41,
      4.930608776573301e-41,
      -4.945042150755847e-41,
      4.935933710737736e-41,
      5.352539744181504e-41,
      4.926825270719624e-41,
      -4.916175402390756e-41,
      0.12906306982040405,
      0.10164166986942291,
      -0.0833088681101799,
      0.06872104108333588,
      0.11858075112104416,
      -0.09448743611574173,
      -0.0047143748961389065,
      -0.04816883057355881,
      -0.22282053530216217,
      -0.16109994053840637,
      0.15855789184570312,
      0.13369764387607574,
      -0.23890946805477142,
      -0.11580372601747513,
      -0.08579505234956741,
      -0.10918276011943817,
      -0.11739485710859299,
      -0.10454100370407104,
      -0.03711142763495445,
      -0.05911216884851456,
      -0.1062331274151802,
      0.0758609026670456,
      0.1867922693490982,
      0.13984990119934082,
      0.06791184097528458,
      -0.0015048225177451968,
      -0.14102724194526672,
      4.937475139048493e-41,
      4.946023059680874e-41,
      -4.937475139048493e-41,
      4.950226955073849e-41,
      -4.91869773962654e-41,
      -5.161542763494031e-41,
      4.92150033655519e-41,
      4.909589299608429e-41,
      4.953309811695363e-41,
      -0.25580543279647827,
      -0.11195538938045502,
      -0.3105825185775757,
      -0.1570410132408142,
      -0.10996228456497192,
      0.024052534252405167,
      0.12053533643484116,
      0.15275481343269348,
      0.15782341361045837,
      4.912111636844214e-41,
      4.931869945191194e-41,
      4.943220462752225e-41,
      4.907066962372644e-41,
      -4.92150033655519e-41,
      4.92430293348384e-41,
      4.908608390683402e-41,
      4.910009689147727e-41,
      -4.92150033655519e-41,
      6.282441405107452e-41,
      -3.0450636019317572e-40,
      -1.6569933951101664e-40,
      -3.124447159935758e-40,
      -7.198330081390153e-41,
      3.031499032797093e-40,
      -1.5869705108478553e-40,
      -4.118962693051724e-40,
      4.317260438738329e-41,
      6.095928579505819e-41,
      -4.968583964956504e-41,
      -5.028419409383174e-41,
      4.938736307666385e-41,
      4.917576700855081e-41,
      4.929347607955409e-41,
      5.529383610379296e-41,
      -4.904684754983292e-41,
      -5.141223935761321e-41,
      4.95933539509196e-41,
      -4.928226569183949e-41,
      4.906506442986914e-41,
      -4.938596177819953e-41,
      -4.94350072244509e-41,
      -4.921220076862325e-41,
      -4.919958908244433e-41,
      -5.305315985933757e-41,
      -4.910149818994159e-41,
      -4.943640852291522e-41,
      4.947704617838064e-41,
      -4.911691247304916e-41,
      4.9254239722553e-41,
      -4.925704231948164e-41,
      -4.911831377151349e-41,
      4.966061627720719e-41,
      -4.93901656735925e-41,
      4.94406124183082e-41,
      -4.3834017262544603e-41,
      1.8799820197381746e-41,
      -1.118516434224069e-40,
      5.606595155763593e-42,
      -1.8078151488254465e-40,
      -9.950059875784796e-41,
      7.226075790983784e-41,
      -3.0130159060526487e-40,
      -5.821834599883885e-41,
      5.106892123385363e-41,
      -5.107873032310391e-41,
      5.134077313593265e-41,
      5.36529156020686e-41,
      4.956953187702608e-41,
      -5.540593998093894e-41,
      4.909729429454862e-41,
      5.510886470650208e-41,
      -5.056725638362535e-41,
      -4.948965786455956e-41,
      -4.90510514452259e-41,
      -4.921079947015893e-41,
      -4.90510514452259e-41,
      4.943780982137955e-41,
      4.94462176121655e-41,
      -4.957513707088338e-41,
      4.914353714387133e-41,
      4.953590071388228e-41,
      -4.916595791930053e-41,
      -4.92150033655519e-41,
      -4.913092545769241e-41,
      -4.951207863998876e-41,
      -4.950086825227416e-41,
      -4.947003968605902e-41,
      -4.932010075037626e-41,
      -4.945742799988009e-41,
      -4.950927604306011e-41,
      -4.908468260836969e-41,
      -4.951768383384606e-41,
      -4.936914619662763e-41,
      -4.926685140873192e-41,
      -4.949105916302389e-41,
      -4.951207863998876e-41,
      -4.927385790105354e-41,
      -4.926825270719624e-41,
      -4.945742799988009e-41,
      -5.732011368320664e-41,
      -1.0471903423899358e-41,
      -1.6367726582699593e-40,
      4.0842665430750416e-40,
      5.633570151201846e-40,
      6.571809537990527e-41,
      5.265238849854068e-41,
      -6.444571637429834e-41,
      -5.466885698870409e-41,
      4.939997476284278e-41,
      4.947144098452334e-41,
      4.906366313140482e-41,
      4.920099038090865e-41,
      -4.937615268894925e-41,
      -5.269022355707745e-41,
      -4.927385790105354e-41,
      -4.930889036266166e-41,
      -4.912111636844214e-41,
      -4.91925825901227e-41,
      4.936914619662763e-41,
      -4.93733500920206e-41,
      5.68436722053362e-41,
      4.946303319373739e-41,
      4.945882929834442e-41,
      4.943640852291522e-41,
      4.935653451044871e-41,
      -4.947844747684497e-41,
      4.932150204884059e-41,
      4.951067734152444e-41,
      4.968443835110071e-41,
      -4.904965014676157e-41,
      -4.962978771099205e-41,
      -4.952469032616768e-41,
      6.234376867781111e-41,
      5.836127844219998e-41,
      4.955411759391851e-41,
      5.099745501217307e-41,
      -5.331940656755929e-41,
      5.302793648697973e-41,
      -6.072526895151595e-41,
      -4.907907741451239e-41,
      5.01468668443279e-41,
      5.276449237568666e-41,
      4.908047871297672e-41,
      -2.741990770067586e-40,
      -4.918417479933675e-41,
      4.910009689147727e-41,
      -4.962558381559907e-41,
      4.958494616013365e-41,
      4.925564102101732e-41,
      4.956252538470445e-41,
      -4.982176560060455e-41,
      -4.945322410448712e-41,
      -4.940417865823575e-41,
      0.1622774451971054,
      0.0261174775660038,
      -0.01855263113975525,
      0.0381469763815403,
      0.12644103169441223,
      -0.027684874832630157,
      -0.02339278534054756,
      -0.11497621983289719,
      -0.06486255675554276,
      -3.871694295926311e-17,
      -1.3573395930306783e-16,
      -8.430131829965156e-15,
      -7.848153008548076e-13,
      -1.1773491036259909e-11,
      -1.1564110780071246e-10,
      -6.48612830111972e-11,
      -5.172002826014932e-10,
      -1.5238451611665482e-09,
      -0.17918230593204498,
      -0.04369506984949112,
      -0.17859797179698944,
      -0.051250237971544266,
      -0.06084908917546272,
      0.08921410888433456,
      -0.08130407333374023,
      0.10220569372177124,
      -0.043248116970062256,
      0.27545252442359924,
      0.010186808183789253,
      -0.0023421316873282194,
      0.3760574460029602,
      0.17766737937927246,
      0.06883165240287781,
      0.1176232323050499,
      0.050616033375263214,
      -0.10189060121774673,
      0.15997017920017242,
      -0.1052657887339592,
      -0.1224360391497612,
      0.11786478757858276,
      -0.08820488303899765,
      0.11785349249839783,
      -0.08047742396593094,
      -0.33405518531799316,
      0.008528165519237518,
      -0.00014441281382460147,
      -2.387152380833868e-05,
      -6.504372322524432e-06,
      -0.00021012207434978336,
      -0.00016059003246482462,
      -9.660147043177858e-05,
      -0.0002320714993402362,
      -0.00028030716930516064,
      -0.00017094607756007463,
      4.940838255362873e-41,
      -4.913232675615674e-41,
      -4.9582143563205e-41,
      4.924022673790975e-41,
      -4.906506442986914e-41,
      4.921780596248055e-41,
      4.908468260836969e-41,
      4.92206085594092e-41,
      4.907347222065509e-41,
      0.002145832870155573,
      0.24988514184951782,
      -0.2011384665966034,
      0.08280351758003235,
      0.1655464768409729,
      0.10981149226427078,
      0.08176612854003906,
      -0.24562065303325653,
      0.2611774206161499,
      -0.33422550559043884,
      -0.08597222715616226,
      -0.031030504032969475,
      -0.34432217478752136,
      0.08802247792482376,
      0.2915952801704407,
      -0.5139369368553162,
      0.19882294535636902,
      0.25570422410964966,
      0.09429449588060379,
      0.20125848054885864,
      0.022302601486444473,
      -0.14281979203224182,
      -0.14379768073558807,
      -0.22946150600910187,
      -0.09228003770112991,
      -0.09732450544834137,
      -0.09735935181379318,
      4.918837869472973e-41,
      4.913232675615674e-41,
      4.946863838759469e-41,
      4.941959294134332e-41,
      -6.140489870671348e-41,
      -4.910710338379889e-41,
      4.938596177819953e-41,
      -4.912952415922809e-41,
      -4.946863838759469e-41,
      0.11038514971733093,
      -0.12336484342813492,
      0.07820846885442734,
      0.2609937787055969,
      -0.13752102851867676,
      -0.19672784209251404,
      0.07575083523988724,
      -0.1715315729379654,
      -0.2879509925842285,
      0.34767818450927734,
      -0.22715575993061066,
      -0.1703408807516098,
      -0.00032965774880722165,
      -0.02125539816915989,
      0.010366730391979218,
      0.17328256368637085,
      -0.017886744812130928,
      0.17215697467327118,
      -0.15714578330516815,
      0.18248161673545837,
      0.07819440960884094,
      -0.06277581304311752,
      0.17047014832496643,
      0.27245286107063293,
      -0.13793914020061493,
      -0.06164196878671646,
      0.27868783473968506,
      4.952328902770336e-41,
      4.928506828876814e-41,
      4.929908127341139e-41,
      4.935373191352006e-41,
      4.945042150755847e-41,
      4.935653451044871e-41,
      4.926404881180327e-41,
      4.939436956898548e-41,
      -5.293124689294132e-41,
      0.11760362982749939,
      -0.0917975902557373,
      0.30108651518821716,
      0.28398510813713074,
      0.34074482321739197,
      0.38504958152770996,
      0.07034486532211304,
      0.09412674605846405,
      0.1200917437672615,
      -0.13857361674308777,
      -0.16146524250507355,
      -0.2399791181087494,
      -0.11195511370897293,
      0.061621274799108505,
      0.05559728667140007,
      -0.41945672035217285,
      -0.43153586983680725,
      -0.12876059114933014,
      -5.24702216746671e-23,
      -7.438919208733242e-23,
      -6.956020056640554e-24,
      -2.321174698667156e-24,
      -2.9422947909628898e-27,
      -5.10485180685133e-27,
      -1.9474781664310294e-30,
      -3.977196738832028e-31,
      -5.936362584765193e-26,
      0.007375451736152172,
      -0.14754359424114227,
      -0.15320321917533875,
      0.008631599135696888,
      -0.010800004005432129,
      -0.008907702751457691,
      -0.225739985704422,
      -0.20897826552391052,
      -0.15910488367080688,
      0.3452622592449188,
      -0.030940864235162735,
      -0.03604801371693611,
      0.2751118838787079,
      0.40702274441719055,
      0.18653857707977295,
      0.13349226117134094,
      0.1470368355512619,
      0.11385537683963776,
      -0.3934822678565979,
      -0.4060609042644501,
      -0.10840248316526413,
      0.12644700706005096,
      0.1448984295129776,
      0.04301733151078224,
      -0.28216060996055603,
      -0.04383299872279167,
      0.0995854064822197,
      -8.645725029055029e-05,
      -5.315917223924771e-05,
      -4.42145683337003e-05,
      -2.0783183572348207e-05,
      -1.7550375559949316e-05,
      -1.486432029196294e-05,
      -8.978630035016977e-07,
      -6.451557510445127e-06,
      -7.788082257320639e-06,
      4.927946309491084e-41,
      4.94294020305936e-41,
      4.951347993845309e-41,
      4.949666435688119e-41,
      4.912391896537079e-41,
      4.935513321198438e-41,
      4.948965786455956e-41,
      4.945182280602279e-41,
      4.925003582716002e-41,
      0.2542427182197571,
      -0.1738966405391693,
      -0.16740626096725464,
      -0.12745077908039093,
      0.06273871660232544,
      0.12406863272190094,
      -0.19405870139598846,
      -0.07724152505397797,
      0.20108170807361603,
      0.27869611978530884,
      -0.03966780751943588,
      -0.32511577010154724,
      0.17635419964790344,
      -0.1850879192352295,
      -0.21184539794921875,
      0.0214089248329401,
      -0.17483922839164734,
      -0.1070011556148529,
      0.033074237406253815,
      0.24575260281562805,
      0.10766759514808655,
      -0.23986752331256866,
      -0.003673710860311985,
      -0.05782897770404816,
      -0.2217007875442505,
      -0.28504544496536255,
      -0.44783714413642883,
      -4.92318189471238e-41,
      -4.919118129165838e-41,
      -4.948405267070227e-41,
      -4.911831377151349e-41,
      -4.950927604306011e-41,
      -4.93733500920206e-41,
      4.917156311315783e-41,
      4.904684754983292e-41,
      -4.945882929834442e-41,
      0.1542573869228363,
      0.2704167366027832,
      0.24163399636745453,
      0.16610711812973022,
      0.22353056073188782,
      0.195014089345932,
      0.09096284210681915,
      0.19049449265003204,
      0.17711110413074493,
      -0.06596441566944122,
      -0.08621715009212494,
      -0.04746289551258087,
      0.10887118428945541,
      0.022473348304629326,
      0.1202324628829956,
      -0.06062142550945282,
      0.03280845656991005,
      -0.026219669729471207,
      -0.17501500248908997,
      -0.13408583402633667,
      -0.31224292516708374,
      0.034653741866350174,
      -0.07225897163152695,
      0.005407570395618677,
      -0.15565277636051178,
      -0.006110501475632191,
      -0.1406785547733307,
      4.921780596248055e-41,
      4.930188387034004e-41,
      4.913793195001404e-41,
      4.945182280602279e-41,
      4.938736307666385e-41,
      4.946583579066604e-41,
      4.927245660258922e-41,
      4.917576700855081e-41,
      4.912251766690646e-41,
      0.2091515064239502,
      -0.22910532355308533,
      -0.36722517013549805,
      -0.25631338357925415,
      -0.12095806002616882,
      -0.12662573158740997,
      0.10079341381788254,
      0.12169845402240753,
      0.06374481320381165,
      -0.13124428689479828,
      -0.08669207245111465,
      -0.2559773325920105,
      0.10620218515396118,
      0.11232802271842957,
      -0.25873038172721863,
      0.10939141362905502,
      0.3226373493671417,
      0.36325162649154663,
      -4.342996096215121e-14,
      -5.6549146062404715e-14,
      -9.787495521083184e-14,
      -4.2098333689509146e-14,
      -5.466695584437683e-15,
      -2.731996486676769e-13,
      -3.2304475896171365e-18,
      -5.032968658026974e-16,
      -1.2683128202198302e-12,
      -0.060568854212760925,
      0.002481797942891717,
      0.21696631610393524,
      -0.16734075546264648,
      -0.2747962772846222,
      0.06187005713582039,
      0.036575593054294586,
      -0.12625756859779358,
      -0.11316066980361938,
      0.3298894166946411,
      -0.17304189503192902,
      -0.025616884231567383,
      0.35697126388549805,
      -0.3238248825073242,
      -0.24667242169380188,
      -0.07093145698308945,
      0.02417042851448059,
      0.18289414048194885,
      -0.1698591560125351,
      -0.12706968188285828,
      0.21106621623039246,
      -0.012816495262086391,
      0.12729111313819885,
      0.05336291715502739,
      0.40250518918037415,
      0.20050178468227386,
      0.04904333874583244,
      -4.19949128627195e-06,
      -1.7630092770559713e-05,
      -4.101593731320463e-05,
      -3.879350060742581e-06,
      -1.561642602609936e-05,
      -4.1716924897627905e-05,
      -1.1071996368627879e-06,
      -1.248528769792756e-05,
      -1.1595203659453546e-06,
      -5.186766135851878e-41,
      4.957934096627635e-41,
      -5.658022809404314e-41,
      -4.942519813520062e-41,
      5.040190316483502e-41,
      4.96213799202061e-41,
      5.030241097386796e-41,
      -4.917296441162216e-41,
      -5.002775647486029e-41,
      -0.33735913038253784,
      0.037507377564907074,
      -0.17753924429416656,
      -0.27090224623680115,
      -0.02644357830286026,
      -0.16462790966033936,
      -0.05606234073638916,
      0.18021824955940247,
      0.37879639863967896,
      -0.36532148718833923,
      -0.30658411979675293,
      -0.09451529383659363,
      -0.2854776680469513,
      -0.13168302178382874,
      0.04277479276061058,
      -0.4138476848602295,
      -0.13812358677387238,
      0.09559494256973267,
      -0.14215688407421112,
      -0.09498737007379532,
      0.12799501419067383,
      0.09021714329719543,
      0.029015928506851196,
      0.005952648818492889,
      -0.26417505741119385,
      0.12860709428787231,
      0.009641880169510841,
      -4.906786702679779e-41,
      -4.931309425805464e-41,
      -4.922481245480217e-41,
      -4.928787088569679e-41,
      -4.91813722024081e-41,
      -4.915474753158593e-41,
      -4.934532412273411e-41,
      4.912111636844214e-41,
      -4.954991369852553e-41,
      -0.0761561393737793,
      0.07104216516017914,
      -0.17806385457515717,
      0.1086956113576889,
      0.010679524391889572,
      -0.2589794397354126,
      0.3410395085811615,
      0.1868377923965454,
      -0.1142503097653389,
      -0.2557641267776489,
      0.0722276121377945,
      0.1528138518333435,
      -0.01774047315120697,
      0.09311581403017044,
      0.19315393269062042,
      -0.08175984770059586,
      0.1681525558233261,
      0.22306624054908752,
      -0.016664370894432068,
      0.1722012162208557,
      -0.016011085361242294,
      0.11609507352113724,
      -0.029669135808944702,
      -0.1782917082309723,
      -0.04633082076907158,
      -0.04402674362063408,
      0.06008915975689888,
      4.943080332905792e-41,
      -4.94125864490217e-41,
      -4.916315532237188e-41,
      4.931589685498329e-41,
      -4.919958908244433e-41,
      -4.945742799988009e-41,
      4.925704231948164e-41,
      -4.906786702679779e-41,
      -4.924723323023137e-41,
      0.2944653034210205,
      -0.09950362145900726,
      -0.37017345428466797,
      -0.07319314032793045,
      0.06530008465051651,
      0.17834806442260742,
      -0.2495170682668686,
      0.006426699459552765,
      0.22582866251468658,
      4.955972278777581e-41,
      4.947844747684497e-41,
      4.927806179644652e-41,
      -5.461420634859542e-41,
      4.940557995670008e-41,
      4.938596177819953e-41,
      4.926685140873192e-41,
      4.938175788280655e-41,
      4.950927604306011e-41,
      4.985539676374834e-41,
      -4.978393054206778e-41,
      -5.032763434622581e-41,
      5.100726410142334e-41,
      5.016087982897115e-41,
      -4.935373191352006e-41,
      4.927105530412489e-41,
      5.055604599591075e-41,
      4.938315918127088e-41,
      -4.954290720620391e-41,
      4.969845133574396e-41,
      4.908468260836969e-41,
      4.914493844233566e-41,
      -4.948125007377362e-41,
      4.949246046148821e-41,
      -4.943220462752225e-41,
      -4.928506828876814e-41,
      4.99941253117165e-41,
      -4.942099423980765e-41,
      4.942659943366495e-41,
      -4.91869773962654e-41,
      4.908748520529834e-41,
      -4.924022673790975e-41,
      -4.960036044324123e-41,
      -4.916876051622918e-41,
      -4.937054749509196e-41,
      -4.923602284251677e-41,
      4.944761891062982e-41,
      -4.909028780222699e-41,
      -4.95933539509196e-41,
      4.927806179644652e-41,
      -4.917016181469351e-41,
      -4.923602284251677e-41,
      -4.924723323023137e-41,
      -4.918417479933675e-41,
      -4.913512935308539e-41,
      -4.998711881939487e-41,
      4.945042150755847e-41,
      4.922341115633785e-41,
      4.90510514452259e-41,
      -4.911130727919186e-41,
      4.911130727919186e-41,
      4.935092931659141e-41,
      -4.923882543944542e-41,
      4.926264751333894e-41,
      -3.125456094830072e-41,
      -1.2677407076900188e-40,
      6.081775465016139e-41,
      -4.992125779157161e-41,
      2.6764100019371844e-40,
      2.620484180225981e-40,
      1.6200551675905643e-40,
      -2.98424724858006e-40,
      -1.3163797773867332e-41,
      -4.952469032616768e-41,
      -4.921360206708758e-41,
      -4.904824884829725e-41,
      4.937755398741358e-41,
      4.944481631370117e-41,
      4.936914619662763e-41,
      4.976010846817425e-41,
      4.914353714387133e-41,
      4.93901656735925e-41,
      -7.881164571847547e-24,
      -7.377585746668852e-24,
      -8.68623183550542e-24,
      -2.844173898825809e-24,
      -4.060581834673731e-24,
      -2.3671416236143845e-24,
      -2.3450898058698363e-24,
      -1.7974718345810463e-24,
      -2.6890653066280852e-24,
      -4.951067734152444e-41,
      -4.941959294134332e-41,
      -3.4691946081289496e-41,
      -4.954150590773958e-41,
      -4.92318189471238e-41,
      2.1909301489718515e-41,
      -4.951067734152444e-41,
      -4.945462540295144e-41,
      -4.936634359969898e-41,
      -4.954711110159688e-41,
      -5.034725252472635e-41,
      4.922901635019515e-41,
      -4.994507986546513e-41,
      5.03556603155123e-41,
      -5.013845905354195e-41,
      -5.085872646420491e-41,
      5.05644537866967e-41,
      -5.020572137982955e-41,
      4.939296827052115e-41,
      4.911551117458484e-41,
      4.911410987612051e-41,
      4.911971506997781e-41,
      4.938315918127088e-41,
      4.930188387034004e-41,
      4.942239553827197e-41,
      4.925283842408867e-41,
      4.949806565534551e-41,
      4.94294020305936e-41,
      4.922200985787352e-41,
      4.909309039915564e-41,
      4.939997476284278e-41,
      4.953590071388228e-41,
      4.936073840584168e-41,
      4.917856960547946e-41,
      4.942659943366495e-41,
      4.935233061505573e-41,
      -4.946163189527307e-41,
      -4.940978385209305e-41,
      -4.946443449220172e-41,
      4.932570594423356e-41,
      4.953449941541796e-41,
      4.95709331754904e-41,
      -4.924583193176705e-41,
      -4.933411373501951e-41,
      -4.941679034441467e-41,
      -4.951347993845309e-41,
      4.9418191642879e-41,
      4.910430078687024e-41,
      -4.929487737801841e-41,
      -4.912672156229944e-41,
      -4.94462176121655e-41,
      4.940838255362873e-41,
      4.94462176121655e-41,
      4.910570208533456e-41,
      -4.931869945191194e-41,
      -4.953870331081093e-41,
      -4.919818778398e-41,
      4.937755398741358e-41,
      5.153415232400947e-41,
      4.942519813520062e-41,
      -4.947424358145199e-41,
      -4.905805793754752e-41,
      -4.906926832526212e-41,
      -0.028223777189850807,
      -0.1209905669093132,
      0.025016816332936287,
      -0.03848813474178314,
      -0.11632116883993149,
      0.09490224719047546,
      0.01579996757209301,
      0.26620984077453613,
      0.08889968693256378,
      -4.914914233772863e-41,
      -4.939857346437845e-41,
      -4.911551117458484e-41,
      -4.913793195001404e-41,
      -4.921920726094487e-41,
      -4.94350072244509e-41,
      -4.912952415922809e-41,
      -4.9254239722553e-41,
      -4.947003968605902e-41,
      0.01866122893989086,
      0.06700922548770905,
      0.0200335830450058,
      -0.00756871746852994,
      -0.037218283861875534,
      -0.04357174411416054,
      0.05159977823495865,
      -0.06282060593366623,
      -0.14349336922168732,
      -0.012074366211891174,
      0.167861670255661,
      0.21352386474609375,
      -0.000970709603279829,
      -0.05925942212343216,
      -0.04994980990886688,
      -0.05531065911054611,
      0.022341104224324226,
      -0.026193056255578995,
      -0.0013587179128080606,
      0.11022110283374786,
      0.08814728260040283,
      -0.034411199390888214,
      -0.12536561489105225,
      0.14665675163269043,
      -0.15343864262104034,
      0.10938145220279694,
      0.04686858877539635,
      -4.955551889238283e-41,
      -2.7401063821329215e-25,
      -1.1894244168416963e-15,
      -4.856556908419079e-22,
      -1.0220542809432839e-13,
      -1.7203175052237367e-19,
      -1.1763600188912624e-18,
      -6.951050105248506e-29,
      4.957373577241905e-41,
      -4.933831763041248e-41,
      -4.924022673790975e-41,
      4.94406124183082e-41,
      -4.93901656735925e-41,
      -4.927245660258922e-41,
      -5.02029187829009e-41,
      -4.956813057856175e-41,
      -4.988202143457051e-41,
      5.011743957657708e-41,
      -0.052747953683137894,
      -0.06472024321556091,
      0.1467624306678772,
      -0.09714121371507645,
      -0.09580278396606445,
      -0.0988258495926857,
      -0.01371154747903347,
      -0.052182458341121674,
      0.011694693006575108,
      -0.10503286123275757,
      -0.06639928370714188,
      0.07130467891693115,
      -0.13133062422275543,
      -0.13472935557365417,
      -0.14319872856140137,
      -0.18757282197475433,
      -0.1428626924753189,
      -0.07469243556261063,
      0.04533400386571884,
      0.033758364617824554,
      -0.10045067220926285,
      0.11131580173969269,
      -0.0484098419547081,
      -0.0910864844918251,
      0.03014948219060898,
      0.018324345350265503,
      0.024233680218458176,
      -4.937475139048493e-41,
      -4.959195265245528e-41,
      -4.928366699030382e-41,
      -4.991565259771431e-41,
      4.929067348262544e-41,
      4.93957708674498e-41,
      4.915194493465728e-41,
      4.918277350087243e-41,
      4.930608776573301e-41,
      0.013858291320502758,
      0.010683544911444187,
      -0.09950970113277435,
      -0.006759035866707563,
      0.06547404080629349,
      0.08706590533256531,
      0.0167495459318161,
      0.07943370193243027,
      0.0508287139236927,
      -0.055224183946847916,
      -0.030814018100500107,
      0.07797261327505112,
      -0.004656330216675997,
      -0.12904591858386993,
      0.07916402816772461,
      0.04364645481109619,
      -0.08997577428817749,
      0.17407749593257904,
      0.06064463406801224,
      0.02057122252881527,
      0.007542014122009277,
      -0.13998597860336304,
      -0.04536218196153641,
      0.0038666846230626106,
      -0.04257110133767128,
      0.05725255608558655,
      0.011868737637996674,
      -4.940557995670008e-41,
      4.95877487570623e-41,
      -4.94237968367363e-41,
      4.92430293348384e-41,
      -4.920799687323028e-41,
      -4.91813722024081e-41,
      -4.913232675615674e-41,
      4.979794352671102e-41,
      4.934252152580546e-41,
      -0.2052493393421173,
      -0.11172839254140854,
      0.14211314916610718,
      -0.18243545293807983,
      0.004876020364463329,
      -0.10843370109796524,
      -0.11201749742031097,
      -0.04111195728182793,
      0.09939830750226974,
      -0.014125338755548,
      -0.2637897729873657,
      -0.17294684052467346,
      -0.09742239862680435,
      0.1765221357345581,
      0.03255191445350647,
      0.18764206767082214,
      0.0620451420545578,
      0.13221459090709686,
      -4.912532026383511e-41,
      -4.909449169761997e-41,
      -4.945322410448712e-41,
      -4.942659943366495e-41,
      -4.90566566390832e-41,
      5.672316053740427e-41,
      -4.92318189471238e-41,
      -4.942099423980765e-41,
      -1.426402038285986e-23,
      0.11192300170660019,
      -0.016295939683914185,
      0.19879408180713654,
      0.10615260154008865,
      0.013467137701809406,
      -0.005927243735641241,
      0.07173123210668564,
      0.27197298407554626,
      0.41719621419906616,
      0.19496174156665802,
      -0.013853409327566624,
      -0.02160874381661415,
      -0.045945100486278534,
      -0.10095680505037308,
      -0.19462305307388306,
      -0.15308842062950134,
      0.06675523519515991,
      0.0522443912923336,
      0.015621836297214031,
      0.06545431911945343,
      0.3551442623138428,
      -0.033939942717552185,
      0.09984080493450165,
      0.02468368411064148,
      0.23460926115512848,
      0.0044470373541116714,
      0.16407957673072815,
      -5.774043606931274e-15,
      -4.54515418357726e-11,
      -5.859600131497e-12,
      -3.871922314019338e-12,
      -3.429412587241387e-10,
      -2.1322428545023087e-10,
      -2.5614226451670108e-12,
      -3.0217891990730328e-12,
      1.3123611530829749e-08,
      -5.132816144975372e-41,
      4.982877209292617e-41,
      -4.931029166112599e-41,
      5.027018110918849e-41,
      4.996189544703703e-41,
      5.059107845751887e-41,
      5.53302698638654e-41,
      -5.242257555039141e-41,
      -4.941118515055737e-41,
      0.055054377764463425,
      0.13522057235240936,
      0.026171276345849037,
      -0.17789603769779205,
      -0.010928398929536343,
      -0.10316874831914902,
      -0.11652715504169464,
      0.01058431901037693,
      0.2891840636730194,
      -0.14753518998622894,
      -0.006830216851085424,
      0.11441028118133545,
      -0.327911376953125,
      -0.11147709935903549,
      -0.040447793900966644,
      -0.48833274841308594,
      -0.16601631045341492,
      0.12911492586135864,
      -0.11735259741544724,
      -0.20278841257095337,
      -0.08648279309272766,
      0.002123634796589613,
      -0.008111190982162952,
      -0.15808141231536865,
      0.09623834490776062,
      0.22005605697631836,
      -0.012707856483757496,
      -4.984979156989104e-41,
      6.098030527202306e-41,
      6.288326858657617e-41,
      -4.944481631370117e-41,
      -4.943640852291522e-41,
      -4.940417865823575e-41,
      4.970265523113694e-41,
      -4.955551889238283e-41,
      4.949105916302389e-41,
      0.09282618761062622,
      0.05407031998038292,
      -0.20817115902900696,
      0.24402600526809692,
      0.14311155676841736,
      -0.16432175040245056,
      0.2807179093360901,
      0.15998151898384094,
      -0.1416042149066925,
      0.1454584300518036,
      -0.09124039113521576,
      0.11014046519994736,
      -0.03731091693043709,
      0.11980178207159042,
      0.10326587408781052,
      0.06621103733778,
      0.29153332114219666,
      0.2675322890281677,
      0.047611355781555176,
      -0.1423255056142807,
      -0.05266662687063217,
      -0.13236242532730103,
      -0.0009170806733891368,
      -0.2064099907875061,
      -0.09360511600971222,
      0.06937456876039505,
      0.14830473065376282,
      -4.929767997494706e-41,
      -4.950086825227416e-41,
      4.912391896537079e-41,
      -4.915194493465728e-41,
      -4.937194879355628e-41,
      4.939857346437845e-41,
      -4.954290720620391e-41,
      4.909309039915564e-41,
      4.945042150755847e-41,
      0.08507943153381348,
      0.018945839256048203,
      -0.07606780529022217,
      -0.09534071385860443,
      0.07728836685419083,
      0.14406472444534302,
      -0.137115478515625,
      -0.0005416438216343522,
      0.2724033296108246,
      -0.009701183997094631,
      0.0731486901640892,
      0.15750902891159058,
      -0.06677825003862381,
      -0.03243355453014374,
      0.16883182525634766,
      0.019451206550002098,
      0.1295071840286255,
      0.22821421921253204,
      -4.949666435688119e-41,
      -4.944902020909414e-41,
      -4.950086825227416e-41,
      -4.910850468226321e-41,
      -4.933971892887681e-41,
      -4.905525534061887e-41,
      -4.931589685498329e-41,
      -4.92430293348384e-41,
      -4.930889036266166e-41,
      0.04763360694050789,
      0.08475764840841293,
      -0.07365366071462631,
      0.015295150689780712,
      -0.025226552039384842,
      0.05011758208274841,
      0.07715253531932831,
      0.12212341278791428,
      0.20700089633464813,
      0.07610255479812622,
      -0.03352430835366249,
      -0.08154310286045074,
      -0.041013866662979126,
      0.03175739571452141,
      -0.020177524536848068,
      0.039074525237083435,
      -0.03980774059891701,
      -0.024727415293455124,
      0.008074921555817127,
      -0.017604781314730644,
      -0.03726561367511749,
      -0.006106449756771326,
      0.1253643035888672,
      0.10612639039754868,
      -0.02399522252380848,
      0.17120619118213654,
      -0.01278682891279459,
      -2.1156936398855777e-25,
      -1.0263926824676666e-23,
      1.4606657444447672e-29,
      -1.5058247119958185e-23,
      -2.6046258992166673e-18,
      -8.001540348156495e-40,
      9.88112087741889e-32,
      -1.474551574741398e-32,
      3.4367688377346473e-22,
      4.992546168696458e-41,
      -4.933271243655518e-41,
      4.990163961307106e-41,
      -4.941118515055737e-41,
      5.011603827811276e-41,
      5.022533955833009e-41,
      4.998011232707325e-41,
      4.919398388858703e-41,
      5.769566167164569e-41,
      -0.01401123683899641,
      -0.04738781601190567,
      0.046658534556627274,
      -0.08947418630123138,
      -0.07086176425218582,
      0.06832709163427353,
      -0.01123476680368185,
      0.017989037558436394,
      0.05556924268603325,
      -0.27347445487976074,
      -0.0030780292581766844,
      0.028764523565769196,
      -0.2661052346229553,
      -0.07108353823423386,
      -0.06999503076076508,
      -0.2677643299102783,
      -0.1538040190935135,
      -0.00564812496304512,
      0.03095323033630848,
      -0.04967466741800308,
      -0.044018980115652084,
      0.05047565698623657,
      0.0667298436164856,
      0.023898709565401077,
      -0.06675022095441818,
      -0.06543276458978653,
      -0.007216769736260176,
      -4.932430464576924e-41,
      4.92486345286957e-41,
      4.907627481758374e-41,
      -4.938175788280655e-41,
      -4.909028780222699e-41,
      5.304054817315865e-41,
      -5.464223231788192e-41,
      -5.096382384902927e-41,
      4.955832148931148e-41,
      -0.008543241769075394,
      0.0507395938038826,
      -0.1483171433210373,
      0.013273313641548157,
      0.16303016245365143,
      -0.005824782885611057,
      -0.07489946484565735,
      0.13197286427021027,
      0.018642133101820946,
      -0.008654272183775902,
      -0.05287830904126167,
      0.005342475604265928,
      -0.05527360737323761,
      -0.06060782074928284,
      0.14772094786167145,
      0.09917131066322327,
      -0.004512791521847248,
      0.016089675948023796,
      -0.07686565816402435,
      0.11784473806619644,
      -0.02053651213645935,
      -0.07648468762636185,
      -0.058208052068948746,
      -0.06050233542919159,
      0.018492309376597404,
      0.25657543540000916,
      -0.0019026048248633742,
      4.932150204884059e-41,
      -4.920799687323028e-41,
      -4.96213799202061e-41,
      -4.915474753158593e-41,
      -4.943220462752225e-41,
      4.911691247304916e-41,
      -4.918977999319405e-41,
      4.921780596248055e-41,
      4.92430293348384e-41,
      -0.10203671455383301,
      0.16630037128925323,
      0.13917933404445648,
      -0.18389040231704712,
      -0.06481120735406876,
      -0.16914068162441254,
      -0.03254882991313934,
      0.10662537813186646,
      0.16534261405467987,
      -0.10805916041135788,
      0.1108783632516861,
      0.4712400436401367,
      -0.2019861936569214,
      -0.14820356667041779,
      -0.023566903546452522,
      0.08554072678089142,
      0.28482115268707275,
      0.21873293817043304,
      5.307983497182533e-10,
      1.5460574331882526e-07,
      1.0345672762923641e-06,
      4.294957722805748e-10,
      4.564585154298584e-08,
      1.301157510624762e-07,
      5.148732551418789e-10,
      1.5401750985688523e-08,
      2.3820300398824656e-08,
      -0.387320876121521,
      -0.2767382264137268,
      -0.12169567495584488,
      -0.02742062695324421,
      -0.4306887686252594,
      -0.06649861484766006,
      -0.16644532978534698,
      0.06399059295654297,
      -0.2241981476545334,
      0.15394921600818634,
      0.26600563526153564,
      0.21796578168869019,
      -0.11173476278781891,
      0.10720999538898468,
      0.023950960487127304,
      -0.010077697224915028,
      0.013612357899546623,
      -0.05001332238316536,
      -0.17322266101837158,
      0.09850214421749115,
      0.06983670592308044,
      -0.014834804460406303,
      0.20191098749637604,
      0.009155930019915104,
      0.2786867320537567,
      0.3966117203235626,
      0.19944173097610474,
      0.0006224234821274877,
      0.0006295166676864028,
      3.0309403882711194e-05,
      0.0005379715003073215,
      -3.069918238907121e-05,
      -0.0005746418028138578,
      0.0001899575290735811,
      -0.0006302112014964223,
      -0.0007935279863886535,
      -4.958915005552663e-41,
      -4.954851240006121e-41,
      -4.920659557476595e-41,
      4.917716830701513e-41,
      -4.92430293348384e-41,
      5.299570662230026e-41,
      -4.939436956898548e-41,
      -4.909168910069132e-41,
      4.951347993845309e-41,
      0.05614354461431503,
      0.17952604591846466,
      0.23319585621356964,
      0.08134626597166061,
      -0.19442127645015717,
      0.1421668976545334,
      0.0603572316467762,
      0.35287511348724365,
      0.21408262848854065,
      0.0661943182349205,
      -0.05871027708053589,
      0.032111410051584244,
      -0.012008074671030045,
      -0.11484044045209885,
      -0.12189677357673645,
      -0.045939721167087555,
      -0.18995435535907745,
      -0.1905074268579483,
      -0.29174870252609253,
      0.003028860315680504,
      -0.03269259259104729,
      -0.44181397557258606,
      0.08030134439468384,
      -0.09934654831886292,
      -0.29321202635765076,
      0.05884746089577675,
      0.3691881000995636,
      4.951067734152444e-41,
      -4.936213970430601e-41,
      4.938315918127088e-41,
      4.935933710737736e-41,
      -4.922901635019515e-41,
      -4.953029552002498e-41,
      -4.929067348262544e-41,
      -4.917016181469351e-41,
      -4.913372805462106e-41,
      -0.4358174502849579,
      -0.34151092171669006,
      -0.37201035022735596,
      -0.36445263028144836,
      -0.15804395079612732,
      -0.07317039370536804,
      0.08580803126096725,
      0.20234479010105133,
      0.17602702975273132,
      0.16654914617538452,
      0.45506834983825684,
      0.18167223036289215,
      0.10102121531963348,
      0.1644459068775177,
      0.05066325142979622,
      -0.1250336766242981,
      0.24679994583129883,
      0.24237489700317383,
      0.06819134950637817,
      0.04048560559749603,
      -0.11618496477603912,
      -0.017495764419436455,
      0.08439389616250992,
      -0.06105593964457512,
      -0.010490167886018753,
      0.14017435908317566,
      -0.04212310537695885,
      4.935933710737736e-41,
      4.0550774960631556e-41,
      1.1963292420272063e-35,
      4.912952415922809e-41,
      4.937054749509196e-41,
      4.44211613190967e-41,
      4.944201371677252e-41,
      4.917436571008648e-41,
      4.910149818994159e-41,
      0.0595802366733551,
      0.3889785408973694,
      0.2725408673286438,
      -0.19213823974132538,
      0.04383207485079765,
      0.12378735095262527,
      0.095637246966362,
      0.4100891649723053,
      0.4370485544204712,
      -0.08618126064538956,
      -0.2189798355102539,
      0.13584156334400177,
      -0.018986724317073822,
      -0.08758657425642014,
      0.1337745040655136,
      -0.28318023681640625,
      0.3238951861858368,
      0.22712375223636627,
      -4.949666435688119e-41,
      -4.919818778398e-41,
      5.741259938185208e-41,
      -4.906506442986914e-41,
      -4.930889036266166e-41,
      -4.931309425805464e-41,
      -4.912952415922809e-41,
      -4.933131113809086e-41,
      -4.949246046148821e-41,
      0.08220161497592926,
      0.15707729756832123,
      0.22595572471618652,
      -0.09567563980817795,
      0.11382029205560684,
      0.0021378060337156057,
      0.12600864470005035,
      0.06804971396923065,
      0.01578294113278389,
      -0.27607035636901855,
      0.278308242559433,
      0.10964813083410263,
      0.06392018496990204,
      0.22032654285430908,
      -0.13073380291461945,
      -0.08722172677516937,
      0.122633196413517,
      -0.06175798550248146,
      0.049068111926317215,
      0.11391311883926392,
      0.3272094130516052,
      -0.09101452678442001,
      0.005512820556759834,
      0.10759331285953522,
      -0.015082976780831814,
      0.13499996066093445,
      0.133055180311203,
      -2.7947012881668343e-07,
      -2.962605776701821e-06,
      -8.40415850689169e-06,
      -1.4226890243662638e-06,
      -8.41665496409405e-06,
      -3.814533044987911e-07,
      -3.138260353807709e-07,
      -7.254436606984882e-09,
      -2.3023261831625445e-14,
      -4.908328130990537e-41,
      -4.937194879355628e-41,
      4.965921497874287e-41,
      -4.945322410448712e-41,
      4.915334623312161e-41,
      4.9254239722553e-41,
      -4.919818778398e-41,
      -4.96157747263488e-41,
      4.974749678199533e-41,
      -0.050199709832668304,
      -0.07968630641698837,
      0.19465287029743195,
      0.22494368255138397,
      0.027748961001634598,
      0.11639406532049179,
      -0.07554794102907181,
      0.17140336334705353,
      0.3640766143798828,
      -0.4152730405330658,
      -0.011395231820642948,
      0.20390553772449493,
      -0.43135955929756165,
      -0.07754126936197281,
      -0.08313846588134766,
      -0.4527289569377899,
      -0.2764075994491577,
      -0.011196505278348923,
      -0.05931200832128525,
      0.027388282120227814,
      -0.0930812880396843,
      0.03242434561252594,
      -0.016071682795882225,
      -0.059852588921785355,
      0.043097179383039474,
      0.10465107858181,
      -0.004764039535075426,
      4.90510514452259e-41,
      4.956112408624013e-41,
      4.966762276952882e-41,
      4.980354872056832e-41,
      -4.96213799202061e-41,
      4.97685162589602e-41,
      -5.048177717730153e-41,
      -4.945882929834442e-41,
      4.907066962372644e-41,
      0.04248364642262459,
      0.029946696013212204,
      -0.32438650727272034,
      0.13048136234283447,
      0.21251745522022247,
      -0.04453560337424278,
      0.11634334176778793,
      0.1917332261800766,
      0.042213618755340576,
      -0.003079298883676529,
      0.055949628353118896,
      0.11559085547924042,
      0.07068905979394913,
      0.00897203292697668,
      0.04993641749024391,
      -0.033751096576452255,
      0.160328671336174,
      0.14642423391342163,
      0.02357354201376438,
      -0.04036429524421692,
      0.1069139614701271,
      -0.12701444327831268,
      -0.029182404279708862,
      -0.13425444066524506,
      -0.1182357668876648,
      0.06630443036556244,
      0.1929795891046524,
      5.740839548645911e-41,
      4.927245660258922e-41,
      4.924723323023137e-41,
      -4.938596177819953e-41,
      -4.90622618329405e-41,
      4.914353714387133e-41,
      4.921920726094487e-41,
      4.944481631370117e-41,
      -4.928086439337517e-41,
      -0.0957121029496193,
      -0.17505306005477905,
      0.0038311330135911703,
      -0.19371584057807922,
      0.09154170006513596,
      -0.031734999269247055,
      -0.3005613684654236,
      -0.07275346666574478,
      0.10437110811471939,
      -0.13214467465877533,
      0.03445551544427872,
      0.13979260623455048,
      -0.016224464401602745,
      0.015039941295981407,
      0.046106334775686264,
      0.03648233786225319,
      0.018947307020425797,
      -0.009094730019569397,
      -4.937054749509196e-41,
      -4.924162803637407e-41,
      -4.911691247304916e-41,
      -4.949105916302389e-41,
      -4.916735921776486e-41,
      -4.945042150755847e-41,
      -4.926965400566057e-41,
      -4.914353714387133e-41,
      -4.918417479933675e-41,
      -0.09717776626348495,
      0.012647880241274834,
      -0.0951128751039505,
      -0.06336060911417007,
      0.1141834408044815,
      -0.07414041459560394,
      -0.03410680219531059,
      0.1049339547753334,
      0.09854015707969666,
      0.023501450195908546,
      -0.011034752242267132,
      0.1611417979001999,
      -0.04675981029868126,
      -0.0032464133109897375,
      0.0597088523209095,
      -0.10691634565591812,
      0.08046376705169678,
      -0.016500623896718025,
      -0.09264955669641495,
      0.04316530376672745,
      -0.0023448376450687647,
      -0.16249677538871765,
      -0.0416729673743248,
      -0.03270487114787102,
      -0.009534857235848904,
      -0.048785291612148285,
      0.0868738442659378,
      5.633640216125062e-41,
      -1.888662071488766e-32,
      -2.5492452491563287e-38,
      1.397462090282678e-36,
      -6.539579673311056e-41,
      4.909449169761997e-41,
      4.94125864490217e-41,
      -4.94013760613071e-41,
      -4.4801992202746257e-39,
      -4.992406038850026e-41,
      -4.992125779157161e-41,
      4.976991755742453e-41,
      4.947144098452334e-41,
      4.95877487570623e-41,
      4.91925825901227e-41,
      4.952328902770336e-41,
      -5.377903246385783e-41,
      4.966622147106449e-41,
      0.07535764575004578,
      0.16461144387722015,
      -0.040828313678503036,
      -0.022045275196433067,
      -0.00027539688744582236,
      0.05396343395113945,
      -0.0058822729624807835,
      0.013182824477553368,
      0.08412004262208939,
      -0.1938590407371521,
      -0.13212908804416656,
      -0.2042471170425415,
      -0.2816874086856842,
      -0.15540097653865814,
      0.05041293427348137,
      -0.12952063977718353,
      0.05153321474790573,
      0.20584188401699066,
      -0.01814395748078823,
      -0.1140720546245575,
      0.01367946807295084,
      0.039088375866413116,
      -0.01610887236893177,
      -0.006247269455343485,
      -0.0440886951982975,
      -0.1580573171377182,
      -0.12064670771360397,
      -4.91813722024081e-41,
      4.993106688082188e-41,
      -4.914633974079998e-41,
      -5.009922269654086e-41,
      -4.990163961307106e-41,
      -4.910990598072754e-41,
      4.945882929834442e-41,
      4.953029552002498e-41,
      4.929908127341139e-41,
      0.042451899498701096,
      0.20614901185035706,
      0.099993497133255,
      0.0066373939625918865,
      0.08975499868392944,
      -0.017987782135605812,
      -0.15836870670318604,
      -0.03866187110543251,
      -0.12231830507516861,
      -0.05114969611167908,
      0.010607125237584114,
      -0.08550854027271271,
      0.08640303462743759,
      0.052952155470848083,
      0.16627167165279388,
      -0.027198931202292442,
      -0.0007321048760786653,
      0.039603911340236664,
      -0.04277395084500313,
      -0.11788270622491837,
      0.01699964888393879,
      0.03559834510087967,
      -0.053474877029657364,
      -0.07141607999801636,
      0.0598888173699379,
      -0.020647574216127396,
      -0.03488780930638313,
      -4.956252538470445e-41,
      -4.904684754983292e-41,
      5.549842567958438e-41,
      4.929347607955409e-41,
      -4.950507214766714e-41,
      4.923322024558812e-41,
      4.947003968605902e-41,
      -4.925283842408867e-41,
      4.957373577241905e-41,
      0.11654587090015411,
      0.1175197958946228,
      0.20031723380088806,
      -0.10091559588909149,
      -0.019600482657551765,
      0.11227036267518997,
      0.03810003772377968,
      0.1484735757112503,
      0.032425105571746826,
      -0.05075601115822792,
      -0.12574268877506256,
      0.036555103957653046,
      -0.057631779462099075,
      0.18624338507652283,
      0.2089470475912094,
      0.28732070326805115,
      0.22110262513160706,
      0.44690391421318054,
      4.925283842408867e-41,
      3.223072635471209e-35,
      4.927105530412489e-41,
      6.630800051010992e-35,
      -4.907207092219077e-41,
      -4.923041764865947e-41,
      -4.932850854116221e-41,
      -4.919958908244433e-41,
      4.923602284251677e-41,
      -0.028060156852006912,
      0.08161000907421112,
      -0.1272556185722351,
      0.09948468208312988,
      -0.017510244622826576,
      0.15679632127285004,
      0.10548339039087296,
      -0.15160566568374634,
      0.0659128800034523,
      -0.04694046825170517,
      0.017958540469408035,
      -0.15404504537582397,
      0.0868496522307396,
      -0.19263845682144165,
      -0.11334910243749619,
      -0.19417716562747955,
      0.11294704675674438,
      0.20176957547664642,
      -0.15492397546768188,
      0.005101548507809639,
      0.2962310314178467,
      0.14898227155208588,
      0.07573138922452927,
      -0.04755687341094017,
      0.217448428273201,
      0.2535388469696045,
      0.05660633370280266,
      -8.854811994751799e-07,
      -2.0241699530743062e-05,
      -1.9710392734850757e-05,
      -1.3988614000481903e-06,
      -8.068997885857243e-06,
      -4.422948677529348e-06,
      -3.572320395051065e-07,
      -1.044573082253919e-06,
      -1.8102871024439082e-07,
      5.253047553214442e-41,
      4.951067734152444e-41,
      -4.964520199409962e-41,
      4.969564873881531e-41,
